song_id,image_emb_0,image_emb_1,image_emb_2,image_emb_3,image_emb_4,image_emb_5,image_emb_6,image_emb_7,image_emb_8,image_emb_9,image_emb_10,image_emb_11,image_emb_12,image_emb_13,image_emb_14,image_emb_15,image_emb_16,image_emb_17,image_emb_18,image_emb_19,image_emb_20,image_emb_21,image_emb_22,image_emb_23,image_emb_24,image_emb_25,image_emb_26,image_emb_27,image_emb_28,image_emb_29,image_emb_30,image_emb_31,image_emb_32,image_emb_33,image_emb_34,image_emb_35,image_emb_36,image_emb_37,image_emb_38,image_emb_39,image_emb_40,image_emb_41,image_emb_42,image_emb_43,image_emb_44,image_emb_45,image_emb_46,image_emb_47,image_emb_48,image_emb_49,image_emb_50,image_emb_51,image_emb_52,image_emb_53,image_emb_54,image_emb_55,image_emb_56,image_emb_57,image_emb_58,image_emb_59,image_emb_60,image_emb_61,image_emb_62,image_emb_63,image_emb_64,image_emb_65,image_emb_66,image_emb_67,image_emb_68,image_emb_69,image_emb_70,image_emb_71,image_emb_72,image_emb_73,image_emb_74,image_emb_75,image_emb_76,image_emb_77,image_emb_78,image_emb_79,image_emb_80,image_emb_81,image_emb_82,image_emb_83,image_emb_84,image_emb_85,image_emb_86,image_emb_87,image_emb_88,image_emb_89,image_emb_90,image_emb_91,image_emb_92,image_emb_93,image_emb_94,image_emb_95,image_emb_96,image_emb_97,image_emb_98,image_emb_99,image_emb_100,image_emb_101,image_emb_102,image_emb_103,image_emb_104,image_emb_105,image_emb_106,image_emb_107,image_emb_108,image_emb_109,image_emb_110,image_emb_111,image_emb_112,image_emb_113,image_emb_114,image_emb_115,image_emb_116,image_emb_117,image_emb_118,image_emb_119,image_emb_120,image_emb_121,image_emb_122,image_emb_123,image_emb_124,image_emb_125,image_emb_126,image_emb_127,image_emb_128,image_emb_129,image_emb_130,image_emb_131,image_emb_132,image_emb_133,image_emb_134,image_emb_135,image_emb_136,image_emb_137,image_emb_138,image_emb_139,image_emb_140,image_emb_141,image_emb_142,image_emb_143,image_emb_144,image_emb_145,image_emb_146,image_emb_147,image_emb_148,image_emb_149,image_emb_150,image_emb_151,image_emb_152,image_emb_153,image_emb_154,image_emb_155,image_emb_156,image_emb_157,image_emb_158,image_emb_159,image_emb_160,image_emb_161,image_emb_162,image_emb_163,image_emb_164,image_emb_165,image_emb_166,image_emb_167,image_emb_168,image_emb_169,image_emb_170,image_emb_171,image_emb_172,image_emb_173,image_emb_174,image_emb_175,image_emb_176,image_emb_177,image_emb_178,image_emb_179,image_emb_180,image_emb_181,image_emb_182,image_emb_183,image_emb_184,image_emb_185,image_emb_186,image_emb_187,image_emb_188,image_emb_189,image_emb_190,image_emb_191,image_emb_192,image_emb_193,image_emb_194,image_emb_195,image_emb_196,image_emb_197,image_emb_198,image_emb_199,image_emb_200,image_emb_201,image_emb_202,image_emb_203,image_emb_204,image_emb_205,image_emb_206,image_emb_207,image_emb_208,image_emb_209,image_emb_210,image_emb_211,image_emb_212,image_emb_213,image_emb_214,image_emb_215,image_emb_216,image_emb_217,image_emb_218,image_emb_219,image_emb_220,image_emb_221,image_emb_222,image_emb_223,image_emb_224,image_emb_225,image_emb_226,image_emb_227,image_emb_228,image_emb_229,image_emb_230,image_emb_231,image_emb_232,image_emb_233,image_emb_234,image_emb_235,image_emb_236,image_emb_237,image_emb_238,image_emb_239,image_emb_240,image_emb_241,image_emb_242,image_emb_243,image_emb_244,image_emb_245,image_emb_246,image_emb_247,image_emb_248,image_emb_249,image_emb_250,image_emb_251,image_emb_252,image_emb_253,image_emb_254,image_emb_255,image_emb_256,image_emb_257,image_emb_258,image_emb_259,image_emb_260,image_emb_261,image_emb_262,image_emb_263,image_emb_264,image_emb_265,image_emb_266,image_emb_267,image_emb_268,image_emb_269,image_emb_270,image_emb_271,image_emb_272,image_emb_273,image_emb_274,image_emb_275,image_emb_276,image_emb_277,image_emb_278,image_emb_279,image_emb_280,image_emb_281,image_emb_282,image_emb_283,image_emb_284,image_emb_285,image_emb_286,image_emb_287,image_emb_288,image_emb_289,image_emb_290,image_emb_291,image_emb_292,image_emb_293,image_emb_294,image_emb_295,image_emb_296,image_emb_297,image_emb_298,image_emb_299,image_emb_300,image_emb_301,image_emb_302,image_emb_303,image_emb_304,image_emb_305,image_emb_306,image_emb_307,image_emb_308,image_emb_309,image_emb_310,image_emb_311,image_emb_312,image_emb_313,image_emb_314,image_emb_315,image_emb_316,image_emb_317,image_emb_318,image_emb_319,image_emb_320,image_emb_321,image_emb_322,image_emb_323,image_emb_324,image_emb_325,image_emb_326,image_emb_327,image_emb_328,image_emb_329,image_emb_330,image_emb_331,image_emb_332,image_emb_333,image_emb_334,image_emb_335,image_emb_336,image_emb_337,image_emb_338,image_emb_339,image_emb_340,image_emb_341,image_emb_342,image_emb_343,image_emb_344,image_emb_345,image_emb_346,image_emb_347,image_emb_348,image_emb_349,image_emb_350,image_emb_351,image_emb_352,image_emb_353,image_emb_354,image_emb_355,image_emb_356,image_emb_357,image_emb_358,image_emb_359,image_emb_360,image_emb_361,image_emb_362,image_emb_363,image_emb_364,image_emb_365,image_emb_366,image_emb_367,image_emb_368,image_emb_369,image_emb_370,image_emb_371,image_emb_372,image_emb_373,image_emb_374,image_emb_375,image_emb_376,image_emb_377,image_emb_378,image_emb_379,image_emb_380,image_emb_381,image_emb_382,image_emb_383,image_emb_384,image_emb_385,image_emb_386,image_emb_387,image_emb_388,image_emb_389,image_emb_390,image_emb_391,image_emb_392,image_emb_393,image_emb_394,image_emb_395,image_emb_396,image_emb_397,image_emb_398,image_emb_399,image_emb_400,image_emb_401,image_emb_402,image_emb_403,image_emb_404,image_emb_405,image_emb_406,image_emb_407,image_emb_408,image_emb_409,image_emb_410,image_emb_411,image_emb_412,image_emb_413,image_emb_414,image_emb_415,image_emb_416,image_emb_417,image_emb_418,image_emb_419,image_emb_420,image_emb_421,image_emb_422,image_emb_423,image_emb_424,image_emb_425,image_emb_426,image_emb_427,image_emb_428,image_emb_429,image_emb_430,image_emb_431,image_emb_432,image_emb_433,image_emb_434,image_emb_435,image_emb_436,image_emb_437,image_emb_438,image_emb_439,image_emb_440,image_emb_441,image_emb_442,image_emb_443,image_emb_444,image_emb_445,image_emb_446,image_emb_447,image_emb_448,image_emb_449,image_emb_450,image_emb_451,image_emb_452,image_emb_453,image_emb_454,image_emb_455,image_emb_456,image_emb_457,image_emb_458,image_emb_459,image_emb_460,image_emb_461,image_emb_462,image_emb_463,image_emb_464,image_emb_465,image_emb_466,image_emb_467,image_emb_468,image_emb_469,image_emb_470,image_emb_471,image_emb_472,image_emb_473,image_emb_474,image_emb_475,image_emb_476,image_emb_477,image_emb_478,image_emb_479,image_emb_480,image_emb_481,image_emb_482,image_emb_483,image_emb_484,image_emb_485,image_emb_486,image_emb_487,image_emb_488,image_emb_489,image_emb_490,image_emb_491,image_emb_492,image_emb_493,image_emb_494,image_emb_495,image_emb_496,image_emb_497,image_emb_498,image_emb_499,image_emb_500,image_emb_501,image_emb_502,image_emb_503,image_emb_504,image_emb_505,image_emb_506,image_emb_507,image_emb_508,image_emb_509,image_emb_510,image_emb_511,image_emb_512,image_emb_513,image_emb_514,image_emb_515,image_emb_516,image_emb_517,image_emb_518,image_emb_519,image_emb_520,image_emb_521,image_emb_522,image_emb_523,image_emb_524,image_emb_525,image_emb_526,image_emb_527,image_emb_528,image_emb_529,image_emb_530,image_emb_531,image_emb_532,image_emb_533,image_emb_534,image_emb_535,image_emb_536,image_emb_537,image_emb_538,image_emb_539,image_emb_540,image_emb_541,image_emb_542,image_emb_543,image_emb_544,image_emb_545,image_emb_546,image_emb_547,image_emb_548,image_emb_549,image_emb_550,image_emb_551,image_emb_552,image_emb_553,image_emb_554,image_emb_555,image_emb_556,image_emb_557,image_emb_558,image_emb_559,image_emb_560,image_emb_561,image_emb_562,image_emb_563,image_emb_564,image_emb_565,image_emb_566,image_emb_567,image_emb_568,image_emb_569,image_emb_570,image_emb_571,image_emb_572,image_emb_573,image_emb_574,image_emb_575,image_emb_576,image_emb_577,image_emb_578,image_emb_579,image_emb_580,image_emb_581,image_emb_582,image_emb_583,image_emb_584,image_emb_585,image_emb_586,image_emb_587,image_emb_588,image_emb_589,image_emb_590,image_emb_591,image_emb_592,image_emb_593,image_emb_594,image_emb_595,image_emb_596,image_emb_597,image_emb_598,image_emb_599,image_emb_600,image_emb_601,image_emb_602,image_emb_603,image_emb_604,image_emb_605,image_emb_606,image_emb_607,image_emb_608,image_emb_609,image_emb_610,image_emb_611,image_emb_612,image_emb_613,image_emb_614,image_emb_615,image_emb_616,image_emb_617,image_emb_618,image_emb_619,image_emb_620,image_emb_621,image_emb_622,image_emb_623,image_emb_624,image_emb_625,image_emb_626,image_emb_627,image_emb_628,image_emb_629,image_emb_630,image_emb_631,image_emb_632,image_emb_633,image_emb_634,image_emb_635,image_emb_636,image_emb_637,image_emb_638,image_emb_639,image_emb_640,image_emb_641,image_emb_642,image_emb_643,image_emb_644,image_emb_645,image_emb_646,image_emb_647,image_emb_648,image_emb_649,image_emb_650,image_emb_651,image_emb_652,image_emb_653,image_emb_654,image_emb_655,image_emb_656,image_emb_657,image_emb_658,image_emb_659,image_emb_660,image_emb_661,image_emb_662,image_emb_663,image_emb_664,image_emb_665,image_emb_666,image_emb_667,image_emb_668,image_emb_669,image_emb_670,image_emb_671,image_emb_672,image_emb_673,image_emb_674,image_emb_675,image_emb_676,image_emb_677,image_emb_678,image_emb_679,image_emb_680,image_emb_681,image_emb_682,image_emb_683,image_emb_684,image_emb_685,image_emb_686,image_emb_687,image_emb_688,image_emb_689,image_emb_690,image_emb_691,image_emb_692,image_emb_693,image_emb_694,image_emb_695,image_emb_696,image_emb_697,image_emb_698,image_emb_699,image_emb_700,image_emb_701,image_emb_702,image_emb_703,image_emb_704,image_emb_705,image_emb_706,image_emb_707,image_emb_708,image_emb_709,image_emb_710,image_emb_711,image_emb_712,image_emb_713,image_emb_714,image_emb_715,image_emb_716,image_emb_717,image_emb_718,image_emb_719,image_emb_720,image_emb_721,image_emb_722,image_emb_723,image_emb_724,image_emb_725,image_emb_726,image_emb_727,image_emb_728,image_emb_729,image_emb_730,image_emb_731,image_emb_732,image_emb_733,image_emb_734,image_emb_735,image_emb_736,image_emb_737,image_emb_738,image_emb_739,image_emb_740,image_emb_741,image_emb_742,image_emb_743,image_emb_744,image_emb_745,image_emb_746,image_emb_747,image_emb_748,image_emb_749,image_emb_750,image_emb_751,image_emb_752,image_emb_753,image_emb_754,image_emb_755,image_emb_756,image_emb_757,image_emb_758,image_emb_759,image_emb_760,image_emb_761,image_emb_762,image_emb_763,image_emb_764,image_emb_765,image_emb_766,image_emb_767
56107c5d-3d05-4cc2-ae56-018b729c963d,-0.018764485,0.013399137,-0.015235442,0.011234336,0.02330603,-0.0059429696,0.033799622,0.0055132075,0.05854413,0.015276836,-0.02884871,-0.010765209,-0.0010264126,0.040907245,-0.02734509,0.046962477,-0.0038588014,-0.0092739705,0.050032392,0.044831593,0.017211592,-0.01571855,-0.0062802886,-0.006139305,-0.008589334,-0.016632555,0.0053808372,0.0002554342,-0.019791696,0.038102493,-0.017439906,0.016532937,0.016613787,-0.038783208,0.09620858,-0.024472946,-0.02089543,0.011068163,-0.017248094,0.007690612,0.00066314696,-0.04207832,0.022439562,-0.0083493255,-0.05650748,-0.017727025,-0.021400955,-0.029028261,-0.035213854,-0.022904241,-0.046031665,0.009288954,-0.020070553,-0.022644687,0.018985828,0.02701904,-0.015201763,-0.0015984583,-0.007098019,0.026983956,0.07623718,-0.00016852767,-0.05422483,-0.038837362,-0.013755576,0.054030046,0.03584003,0.03047012,-0.01524779,0.015657362,-0.05765677,-0.031580184,-0.012934368,-0.009107625,-0.012900542,-0.010268264,0.017730597,0.02089551,0.03110557,0.017307384,0.010213692,0.04680522,-0.0391192,-0.067655906,0.02575982,-0.009915079,-0.006837457,-0.031671125,0.018001284,0.0592699,-0.0802694,-0.011458926,0.0032567442,-0.017210813,0.0073361797,0.006570344,0.01958952,0.020241791,0.00487162,0.006405094,-0.0479025,-0.004403069,-0.10321635,0.024815153,0.041639052,0.007673337,0.0057461294,-0.018198239,-0.02363808,-0.022764856,-0.009313384,0.04330836,0.0017363033,-0.012561359,-0.038782794,0.011350819,-0.0058996896,0.0043555116,-0.015914395,-0.033674534,-0.053561628,0.059080914,-0.10841195,0.069969654,0.005603289,0.0020331026,-0.036814872,0.057008475,-0.040069956,-0.041303165,-0.01329103,0.02229161,-0.033808485,0.022112299,-0.02537367,0.04047097,-0.016987145,-0.013811692,0.087912746,0.016451316,0.07060358,-0.0011359155,0.022323428,-0.061440922,-0.040031545,0.017779632,0.036445107,-0.015036051,0.022824986,-0.14654161,0.01578517,-0.02126465,-0.037391037,0.03703702,0.023962654,-0.012101729,0.004395566,-0.038056597,-0.004078723,0.025661726,-0.015307908,-0.0013309305,-0.008004977,0.017163835,-0.011123005,0.017197676,0.008554175,-0.012963242,-0.010933455,0.036489256,-0.016208284,0.004992579,-0.012848152,-0.03557929,-0.011856589,0.03069793,0.0029764574,-0.042169333,-0.011705613,-0.007127863,0.0101278,0.020764433,0.003070893,-0.0039824853,0.034656934,-0.039689418,0.0784234,0.03809644,-0.03952874,0.007653283,0.013828609,-0.042997632,0.11216133,-0.027581241,0.033006005,-0.07412414,-0.012252247,0.014760405,-0.02780351,0.009647938,-0.0438785,0.026790004,0.01760783,-0.025674444,0.005068191,-0.0005235171,-0.022209227,-0.0011854636,0.016107118,-0.04471864,0.027416145,-0.04638024,0.011576756,0.010258139,-0.030239236,0.25640306,0.010723504,0.007377978,-0.024060816,-0.08434702,0.04732424,-0.0014232853,-0.012391305,-0.033739362,0.057282448,-0.017168317,-0.0005957365,-0.0406874,0.011450343,0.020345006,-0.011935883,-0.022086605,-0.03629716,0.012671849,0.0037577176,-0.05252572,-0.007509847,-0.0069375886,0.04451803,-0.06583222,0.06493942,-8.726484e-05,0.42536658,-0.02026287,-0.031596243,0.00029522483,0.014607676,-0.007311208,-0.004050738,0.039321084,-0.0043810057,-0.028988421,-0.013120863,-0.014909972,-0.0089524705,-0.018479034,0.008969674,-0.012726022,0.026474373,0.038581852,-0.006331457,0.00010504388,-0.06849537,-0.0007352087,-0.044985186,-0.022934794,-0.03189925,-0.041884895,0.016257856,-0.04022887,-0.05135496,-0.055285223,0.03209519,-0.02000941,0.0018072613,-0.008272188,-0.03137914,-0.026974378,0.032033786,0.046963476,0.041009728,0.025320292,0.012968099,0.014290279,0.026228532,0.046628106,-0.009734248,0.02833627,0.008291687,0.009995007,-0.017904941,-0.016172307,-0.037287362,0.019172506,-0.0042637736,-0.027520718,-0.007307293,-0.0031999727,0.0046837423,-0.011046044,0.016924227,0.03475674,0.015291914,0.008058835,0.04518018,-0.017400526,-0.0052339477,-0.055356625,-0.04804817,-0.030403674,0.00975289,0.037542768,0.057272784,0.038656827,0.011495964,-0.010827124,0.022374358,0.030958662,-0.0124146445,-0.09274218,-0.03475994,0.017428778,-0.01442781,-0.00206811,-0.0015027022,-0.007304999,-0.000472536,-0.053602047,0.02400733,-0.005299915,-0.016931491,0.015286452,0.030841628,0.043225843,0.0019370248,0.03623561,0.027461674,-0.016415814,-0.036096144,-0.021904083,0.0039408463,-0.0069635087,0.0025805144,-0.003688671,0.00017688378,-0.018348543,0.0080880625,-0.02182758,0.010685117,0.012467344,-0.033945605,-0.0012977587,0.026958996,-0.029711362,0.011536279,-0.02455493,0.0003507636,-0.010682672,-0.016507266,-0.0027235844,0.026618099,0.035529107,0.013400538,0.016131267,-0.012948486,-0.022824224,-0.011290433,-0.020251932,0.0037515275,-0.020876909,0.011110069,-0.024182023,0.04400923,-0.009212017,0.018398797,-0.07403842,0.037862338,-0.003996165,0.017574823,0.03686705,-0.0021049415,0.017473178,0.0009396941,0.018713467,-0.047558144,-0.03261181,-0.036516435,0.012875279,-0.025682025,-0.03077487,0.013736643,0.0162174,-0.007158893,0.0090722125,-0.00053114013,-0.007010551,-0.031029105,-0.019345263,-0.004203894,0.0015565162,0.053534083,-0.043729793,-0.0014533146,0.02711347,-3.4055935e-05,-0.03014867,-0.010878524,0.059256934,0.007849035,0.0040592207,0.02613395,-0.003657735,-0.0067123245,0.02586479,0.04326521,-0.04406958,-0.004085827,-0.05044525,0.044772606,0.052239034,-0.011184729,-0.024699254,0.06953892,-0.018314905,0.038060747,-0.0047776173,-0.008427177,0.008096141,0.07305605,0.024430176,0.010573631,-0.020043865,0.029703556,0.0334423,0.029437391,0.005282696,-0.010580304,-0.016129063,-0.0060007917,0.005712787,0.036321882,-0.04076742,-0.019924093,0.053449776,-0.0086496165,-0.061341703,0.01125542,-0.008502054,-0.0033329437,0.02487794,0.021298198,-0.0085038105,-0.02902577,-0.011770968,0.013250951,-0.021191247,0.007220357,-0.030762376,-0.00059631,-0.012418867,-0.01795408,-0.034456003,0.08830028,-0.0153579125,-0.00026943066,0.0010595853,0.00935961,0.024185138,0.035847563,0.0039005175,0.019222893,0.028190846,0.06472964,-0.01625584,-5.564378e-05,0.027859932,-0.023016525,0.029413145,-0.0916186,0.035643745,-0.021815013,0.022248952,0.0067401016,-0.013320312,-0.012288766,-0.037133362,0.039272677,-0.013269724,0.005908292,0.018809944,0.0076048425,-0.0547269,0.01994709,-0.059853848,0.033490304,-0.007545602,-0.039903108,-0.022079378,0.030938296,-0.0031426959,-0.015835606,0.0056707007,0.0011864388,-0.0015615093,-0.045000263,0.055174347,-0.0026349486,0.03123717,-0.0043170205,-0.012920891,-0.042905964,0.0204975,0.00075446005,-0.01692719,-0.034992218,-0.00963676,0.011520849,0.0076683373,0.027357925,0.028671501,0.06923007,-0.0077383216,0.0533426,-0.020641733,-0.017177768,0.019326176,-0.015519952,0.046370734,-0.0077945665,0.06657662,0.054049723,-0.028572297,-0.004990181,-0.0018643149,-0.0019783194,0.023747338,0.000997595,-0.018323207,0.018355643,0.014840703,0.0036502613,0.029421471,0.039527822,-0.0005668855,0.011816417,0.014435598,-0.032105602,0.021299113,-0.0018425743,0.028032068,0.03421017,0.010575364,-0.042452615,-0.00016076633,-0.012546021,0.048644166,0.17465457,-0.045223888,0.03898277,0.022069868,0.009214181,0.011484043,0.024804715,0.014434426,0.0005747067,-0.035180017,0.025736205,0.003782918,0.050903484,0.014698179,-0.053579632,-0.015930058,-0.037373245,-0.009443014,0.004526508,-0.014938536,-0.0344793,-0.0007086395,0.008753326,-0.02818269,0.007808586,0.024643257,0.011999328,0.0026642936,0.017022401,0.027615553,-0.052830946,0.00089928,0.012754255,-0.0012518588,-0.016684685,-0.0037990413,-0.016433766,-0.009420755,0.0039266697,0.0070613907,0.010744049,-0.0053096614,0.04398008,0.010165861,-0.013240009,-0.013459302,0.0034516477,0.019722022,0.0064147953,-0.012666353,-0.00064745924,-0.012028693,-0.07853735,-0.0018618859,-0.030158976,-0.00044643378,0.08755232,0.064505324,-0.046454895,0.014795689,0.01293726,-0.009039384,-0.0046661254,-0.0044694734,-0.0047810506,0.03229171,0.026116777,0.019851072,-0.022969183,0.017755898,-0.080226414,-0.011332933,0.00079194806,-0.005436717,0.044071656,-0.04192322,0.0011267917,-0.040945876,-0.04029331,0.004039044,0.0011802907,-0.014965454,-0.025517311,-0.011960825,-0.011186838,-0.04021121,0.017570408,-0.015311718,0.049692385,0.02006135,-0.0076659657,-0.05036526,0.008917893,-0.039915018,-0.03237829,-0.0398734,-0.063419625,-0.052574992,0.025987176,-0.009011462,0.019016994,-0.007737016,-0.0066342996,0.007082161,0.0572748,-0.0015665971,-0.0062250867,-0.06590228,-0.028415766,0.00447769,-0.038523246,0.007284034,-0.06013709,-0.034279652,-0.014174811,-0.008543717,0.019073458,0.022960396,-0.037324112,-0.022068633,-0.00091282825,0.038500387,-0.0004341243,-0.017873451,0.024287105,0.010847109,-0.026258316,-0.04474705,-0.017417474,0.0074444446,-0.042792816,0.0026854668,-0.028948685,0.03567052,0.0962449,-0.025631513,0.016176647,-0.040693037,0.03308881,0.052240703,-0.009144601,-0.042931445,0.022243537,0.030709479,0.025931498,0.0335022,0.0076178024,0.04460034,0.011078573,-0.011277666,0.017809413,0.028993363,-0.04507008,-0.030819962,0.027934222,0.033804707,-0.047359217,0.010366688,0.044474244,-0.032050107,-0.015126545,-0.011781424,0.028850792,0.009044674,0.024166279,0.016694253,0.0074183927,-0.015742011,-0.026461983,-0.033184074,0.023134185,-0.030906409,-0.010356716,0.009092536,-0.00010810813,0.0027716686,-0.016348483,0.03415581,-0.0077081947,-0.04952686,0.052261744,-0.008580796,-0.0056993263,0.029900163,-0.04144675,0.048451535,0.0072594313,0.012649564,-0.01493063,0.04271761,-0.0030254966,-0.009143567,-0.017873626,-0.068294555,0.0005265585,-0.01837227,0.0011946217,0.008214844,0.009857266,0.023746021,0.039156307,0.010789942,-0.024789548,0.0151391085,-0.023535088,-0.067205496,-0.00234181,-0.028954249,-0.037903424,0.024994802,0.019202303,0.005453772
0f6610d5-7d84-4134-b155-cc51afc7e964,-0.0023259742,-0.027293192,0.013053395,0.0036079448,0.017965298,0.034816608,-0.013857119,-0.02066338,0.033379868,-0.006541411,-0.007999385,0.002117121,0.028977593,0.002386044,-0.020080902,0.021353092,-0.009020846,0.007762316,-0.0019958913,0.020544395,0.014121825,-0.006489143,-0.038511924,0.039751653,-0.011101018,-0.018141165,0.08485192,0.014691236,-0.0029655383,0.0067015477,-0.0365098,0.017270118,-0.029301338,-0.012701947,0.036491267,0.01522385,0.023942623,0.029717734,0.021213317,-0.011631826,0.054424632,-0.02411458,0.03120843,-0.069904685,-0.025697494,-0.01969167,0.008902645,-0.020266455,-0.0028585906,0.0080438275,-0.06425878,0.053453844,-0.02168586,-0.03827046,0.00857922,-0.017815229,-0.010752969,-0.010216697,0.031455267,-0.0030350871,0.043231312,0.0069636498,0.0010093573,-0.026600508,-0.04506174,-0.059660103,-0.0077723907,0.018733181,0.001308186,0.023853522,-0.038106173,-0.00051799783,0.012403559,-0.028952071,-0.020101557,-0.015202083,-0.02443151,-0.05010676,0.009208097,0.0048535634,-0.009359851,0.030414823,-0.042802647,0.0064005516,0.02413989,0.008991331,-0.0030463838,0.008406189,0.019820958,0.020440714,-0.07611796,0.034977708,-0.005558756,-0.021492038,0.010852015,0.020847136,0.08641482,-0.035286557,-0.02203536,0.00208705,0.001335731,0.009045271,-0.0602692,-0.0039299247,0.020039175,0.01987524,-0.04366626,0.0131580755,0.03515606,-0.01407143,0.004124964,0.04370071,0.035984233,-0.0139730135,-0.028102238,-0.004130618,0.016668951,0.0024478598,-0.038731605,-0.004399601,-0.021016825,-0.019629184,-0.11344754,-0.016248967,0.0072884094,-0.027956957,-0.012220933,0.009687476,-0.025065852,0.041657772,-0.05387051,0.021502653,-0.023943081,-0.040096294,-0.066035934,-0.0032116666,-0.0026169224,0.002389653,0.034289684,-0.02462623,0.039478913,0.0051357937,-0.07067978,0.00059819175,0.019400392,0.018165458,0.023657627,0.0034140877,-0.01115559,-0.028081588,-0.01659801,0.037155963,-0.030121272,0.006640232,0.022612214,0.029667314,-0.038128328,-0.0010842949,0.029943919,-0.024541283,0.014712877,0.024214866,0.01810812,0.033400327,0.0382697,0.012322841,-0.023408685,-0.008126239,-0.01511445,-0.0076294546,-0.010794472,-0.002448648,-0.024183935,-0.01836235,-0.02371588,0.00049220334,0.0020740554,-0.008999229,0.009704083,-0.014411245,-0.024384197,-0.013716031,-0.009774164,-0.0032336232,-0.011386297,0.01816359,0.1514716,-0.044319626,-0.04234385,-0.024886098,0.02826191,-0.027764304,0.035992,-1.9502517e-05,-0.021209395,-0.048928507,-0.008047929,-0.010474474,0.010234905,0.01799102,0.015561321,-0.013858232,-0.033557776,-0.0024764256,0.025649074,-0.02954622,0.00842094,-0.038158137,0.0023816098,-0.011038581,-0.057256535,0.0012490081,0.03785348,-0.025047626,-0.015416925,0.3449068,0.016101358,0.008652005,0.010913214,0.02701645,0.057765037,0.050721135,-0.03994253,-0.049925767,0.10291965,0.034705482,0.02312191,0.012370809,0.013890345,0.021169566,-0.042308256,-0.006540121,0.008101102,-0.024523811,0.04260363,-0.04330825,0.03924492,0.015879963,0.033865336,-0.09666344,0.054195926,-0.027781794,0.46887824,-0.05080337,-0.017155502,-0.028971499,0.040056072,-0.016926158,0.000767774,-0.0012404362,-0.029181954,0.02122199,0.005312691,0.021424461,0.011951711,0.03678695,0.009675332,0.006642474,0.0040235515,0.0036353327,-0.011270651,0.016216697,-0.024871668,-0.017448027,-0.037733465,-0.03139793,0.022383805,-0.037328187,0.012297078,-0.046411898,0.011859409,-0.031471267,-0.016379878,0.014298003,0.02124674,0.02535283,0.010024092,-0.042503912,0.031097604,-0.051223308,0.063138224,0.031827617,0.0110418955,0.056685988,0.038819183,-0.004523642,0.018854361,0.03205086,-0.020334397,0.03484819,-0.02611479,0.021383617,0.02285429,0.009120612,0.015989345,-0.019859102,0.018232375,-0.012274596,-0.015499583,-0.0019545674,0.003718178,-0.004566183,0.025710465,-0.019191083,-0.027458249,0.0016158916,-0.012999118,0.036775813,-0.07033683,-0.017517917,-0.025813561,0.013171688,0.022707883,0.0544306,-0.010233099,-0.037216008,-0.019134793,0.032016847,-0.034310687,-0.0083445925,0.011362482,0.03454079,-0.0050039697,-0.0379326,-0.03253632,-0.028587025,0.011366504,-0.0007743623,-0.008682243,-0.026938854,-0.0077079874,0.02490066,0.012959826,0.003797958,-0.026739089,0.00063877023,0.011493116,0.0056827953,-0.022770464,-0.016689125,-0.011991131,0.015907228,0.041887533,0.02625316,0.026458088,0.019372348,0.00023848128,-0.013478395,0.009089702,-0.018477192,-0.016951637,0.014102058,-0.0075371573,0.0044624163,-0.019181525,-0.008427739,-0.012288141,0.0416108,0.028205702,-0.021035388,0.015435535,0.03797213,-0.01730248,-0.016666519,0.0046498226,0.00593463,0.0006308259,0.030696977,-0.04364368,-0.009923306,-0.008221424,0.008521793,-0.019196533,0.019959623,-0.006086443,-0.090515226,0.023087561,0.059071768,-0.0018311198,-0.0141235925,0.013530906,-0.034243073,0.0440632,-0.007279943,-0.011286401,0.004246047,0.014453701,0.011196574,0.008097783,0.01324323,0.025472159,0.009989608,-0.02936637,0.0002176283,-0.020759795,-0.036831737,-0.009774576,0.03268371,-0.04496805,0.014214897,0.024989845,-0.044392515,-0.006203472,0.018476069,-0.015159611,-0.016186764,-0.057657436,0.015264874,-0.04196671,0.0063690394,0.008858308,-0.042640224,-0.0007889362,-0.03016056,0.015717246,-0.0051906384,-0.023046283,-0.0074709114,-0.02776348,0.030187815,-0.001781337,0.021095004,-0.01325904,0.0037931423,0.056332026,0.065378934,0.008674506,0.010376223,-0.017916366,0.025771853,0.041293733,0.027886951,-0.023066748,-0.012324943,0.037037626,-0.020385746,-0.00011315863,0.008419057,-0.0148415025,-0.010572038,0.034061782,0.010844496,0.02264234,0.016627807,-0.008397248,-0.023403853,0.029363729,-0.027258761,0.004567626,-0.00032545658,0.030519268,-0.04008348,-0.028481608,-0.012391283,0.021250231,-0.016615126,0.017100435,-0.009772672,0.025301207,-0.01024605,-0.0007592463,-0.052816536,0.031797472,-0.017967582,-0.0018965886,-0.0067101996,0.015648423,0.009150062,0.005036011,0.05445336,-0.044661924,0.0024998456,0.016228998,0.03735328,0.0068704453,-0.018780738,-0.025572786,-0.0006768876,-0.08634671,-0.00020645786,0.005397975,-0.009139683,0.03387004,-0.024111891,-0.021551782,0.007976009,0.007829772,-0.028215803,-0.0018914118,-0.039381754,0.044568557,-0.0880955,-0.014287595,0.030870516,0.035377808,-0.017478546,-0.020113163,0.014283884,0.013123861,0.058291327,0.018774765,-0.0075687775,-0.015746942,-0.00014146091,0.014502034,-0.008794402,0.0025220497,-0.011436918,-0.0233154,0.008808725,-0.034482185,0.0038979219,-0.027717514,-0.028931055,0.09475411,0.012582678,-0.013650904,0.02469709,-0.0062993905,-0.029590318,0.0010788768,-0.040877156,0.006235292,-0.008245819,0.008938884,0.025026886,-0.026132397,-0.0113742305,-0.0068651973,-0.008638553,0.046910807,-0.014150846,0.017735856,-0.00060291623,0.04070496,0.028422302,0.027094854,0.011356151,-0.02450315,-0.0066059027,-0.03445218,0.023423593,-0.010780071,-0.0059709046,0.021884164,0.0071450053,-0.023439756,0.011113237,-0.038409676,0.10735983,-0.01575577,-0.0011887186,0.023938037,0.013603342,0.012425444,-0.004735167,0.041868225,-0.03152292,-0.0062088175,-0.020444192,0.023481028,0.02580737,0.02110891,0.023396188,-0.011040786,-0.03812455,-0.023769809,-0.0075035356,-0.016308611,-0.015776346,-0.000546466,0.01869109,0.010592667,0.006456698,-0.01123531,0.013694654,0.0032552474,0.0009361447,0.057396922,-0.0164559,0.041790716,0.0056790076,-0.08532362,0.028320862,0.025636666,-0.010847308,-0.05544431,-0.05474356,0.0035238694,-0.01644122,-0.02528333,0.038133282,0.023029724,-0.01250851,0.030004734,0.008915435,-0.010166472,-0.03055056,-0.0043221377,0.014691779,-0.0015420024,0.00957683,-0.00038169583,-0.021074884,-0.035871375,-0.0016409012,0.0182075,-0.0279563,-0.016481657,-0.01903607,-0.023802608,-0.013625918,0.111731604,0.045154087,-0.004546161,0.00039125778,0.03482638,0.016525261,0.039556395,-0.024700966,0.02188808,0.030793473,0.029203255,0.041831564,-0.026882011,-0.0052137976,-0.05489307,-0.022877432,0.04578453,0.010578861,0.03045403,-0.028589321,0.0041433643,-0.010746946,0.021924872,-0.019453295,-0.013024453,-0.020900093,-0.03618128,-0.0004124936,0.009262951,-0.074891336,-0.031144718,-0.054018963,0.0039114263,0.027718132,-0.003493862,-0.04266112,-0.0060130986,-0.05707484,-0.03528644,-0.009497239,-0.062629156,-0.053672038,0.011384997,-0.025906773,0.0076708784,-0.047760393,-0.0049385987,0.008832667,-0.03179077,0.0152386855,-0.075839356,0.04358605,-0.030778375,-0.058156304,-0.019477166,0.023222538,-0.044760883,-0.08366582,-0.0057712067,-0.014468431,-0.030385476,-0.00057892763,0.0011903505,-0.032243434,-0.021730809,0.024738114,-0.0029997276,0.053193,2.5030591e-05,0.027028367,-0.0076108817,-0.016048618,-0.036203925,-0.0080075,0.045838196,-0.047944866,-0.032545526,0.027519682,0.041823078,-0.0024483898,-0.0010752118,-0.045638256,0.03811019,0.008470743,0.004467225,0.0023334054,0.029738836,-0.024847135,0.0075486847,-0.004553355,-0.017533235,0.020538248,-0.0016192559,0.021203185,-0.050785817,-0.013593463,-0.03185368,-0.03758384,0.02687818,0.014488532,-0.016784512,-0.024879945,0.0007199552,0.010110901,-0.027789008,0.011729406,0.009883169,0.015581382,0.02246161,0.030247366,0.01816873,0.042680465,-0.035340145,-0.023548448,0.013604708,-0.059761614,-0.007952752,-0.007638533,0.012062586,-0.014057983,0.0028301508,-0.005995868,-0.018731467,0.0027717738,0.011626034,-0.028356306,-0.003328535,0.0154310055,0.015111148,-0.002552217,-0.0060965153,-0.005298255,-0.03145448,0.041238192,-0.032794323,0.023156818,-0.03470795,0.0251495,-0.045743454,0.03557876,0.01068623,-0.03315018,0.031714372,0.054470144,0.036413696,0.05886169,0.028714852,-0.05798715,-0.03692063,-0.050804082,0.021672688,-0.015305007,0.008535572,0.009321641,0.0018768162,-0.02518009
09ded865-5861-4827-b2c1-a1e6c4ee4d1e,-0.034835692,-0.046122342,0.028722674,-0.03400514,0.027266478,0.028362658,0.020218251,-0.041108042,0.03527957,-0.023136651,-0.009148717,-0.032366257,0.0013098442,0.008226942,0.022737116,-0.005031769,-0.023448111,-0.010109691,-0.006160276,-0.025744222,0.003933698,-0.024996752,-0.00095936493,-0.003776397,-0.022071114,-0.030338736,-0.005132808,0.020902073,0.002566697,0.039371315,-0.028127624,-0.024305979,-0.043778565,-0.023405483,0.0040669017,-0.014039212,0.008890285,0.0022930612,-0.003253492,-0.018699829,0.020024043,0.055190947,0.0067191804,-0.018896187,0.021707544,-0.022438541,0.01637399,0.027045563,-0.030018887,0.02082971,-0.04397489,0.06378156,-0.025398416,-0.031313047,-0.013321726,-0.0052395305,0.00657947,0.01785308,-0.014016107,-0.040810805,-0.024517568,0.0027426213,-0.03147658,0.03812106,0.021752654,-0.029871613,-0.010858617,-0.021203209,-0.016778737,-0.024325846,0.008992444,0.03303337,-0.03923949,-0.03437593,0.0012479385,0.0060181897,-0.016244264,0.018436946,-0.031551275,0.0031138165,-0.020495797,-0.0075826836,-0.014920464,0.011251561,0.02522234,-0.032174427,-0.01445346,-0.00448715,0.008826929,0.06392227,-0.002168892,0.027083717,0.021706965,0.03900294,-0.020771625,-0.037096117,0.007824586,0.0033673574,-0.012594009,-0.013633425,-0.0075466805,0.017461829,-0.047999367,-0.0078046382,-0.009357707,-0.014440188,0.011032422,0.007384407,0.020841522,-0.018312478,0.055840027,0.04802219,-0.014197022,-0.04713861,-0.0071135005,0.024867974,0.005494377,0.00047911066,-0.002108155,-0.003893719,0.0011355708,0.056141343,-0.06757146,0.028156616,0.015456432,0.005043524,-0.006616988,0.0054172114,0.0056571276,0.01874148,-0.018632652,0.015856499,-0.02498583,-0.0048191007,0.02164121,0.0012966162,-0.037318733,0.01988699,0.0152886575,-0.016698986,0.062499225,-0.022883527,-0.018491006,-0.0072485693,-0.020775406,-0.022481898,-0.0004804449,-0.020215767,-0.008262091,-0.06954322,-0.023343012,-0.034871954,-0.049216647,-0.0087966,0.017382285,0.037330046,-0.029044198,0.009707702,-0.024010163,0.00848982,0.012791184,0.007226129,-0.010257897,0.047159813,0.023330607,0.018759862,0.017617028,0.005802708,-0.023665955,0.014360421,-0.014482753,-0.0294913,-0.013900233,-0.016338935,0.006670135,0.0084904395,0.0041412464,0.0021747085,0.021658426,-0.0043589002,-0.01889896,-0.009705715,0.003766735,0.009836893,0.061584778,0.012782459,0.13361247,0.008571348,-0.03603475,0.010179585,0.021526985,0.008341821,0.018231483,0.00053159235,-0.025459329,-0.025030402,-0.061860036,0.008553935,-0.008125392,-0.02591453,0.0044081495,0.00046011683,-0.023765719,-0.02490486,0.01740842,0.005364531,0.0215741,-0.03700221,0.009661643,0.019751238,-0.016606528,-0.025324931,0.0036507796,0.020234082,0.016388796,0.3494632,-0.0058883703,-0.032289695,-0.019037826,-0.025764698,0.03331286,-0.00700035,-0.008518221,-0.010760411,0.067881234,0.024371348,0.039405603,-0.023333915,0.029989073,-0.036163222,0.0070788087,0.0040781004,-0.06448959,0.00056222116,0.0017805352,-0.008612892,0.002246398,-0.016661247,0.0042022197,-0.065795064,0.015009464,0.018670421,0.5327715,-0.033289418,-0.0113029,0.0019683174,0.011652745,-0.007813015,0.011398831,-0.023531064,0.007644291,-0.020800348,-0.05658357,0.04239836,0.022482727,-0.018712122,0.020981975,0.012841831,-0.019455034,-0.03553618,0.0010122652,0.048629906,-0.011071727,0.021344539,-0.060418937,-0.024805054,0.0018028627,0.026477331,0.04571552,0.0018706993,-0.027483322,-0.007763365,0.03516171,0.022772022,0.04322775,-0.008630101,0.022110676,0.0061603845,0.020123601,0.01711322,-0.0011573936,0.0124596525,0.013935539,-0.009275256,0.030653192,0.029163323,0.015722884,-0.020449828,0.03536576,0.104861334,0.011840405,-0.0071594967,-0.006193453,0.014485104,0.008193694,0.0005715491,0.005820465,0.025852779,0.023443932,-0.038800605,-0.023826342,0.013727238,0.05179187,-0.025030332,0.041733753,-0.023472926,-0.063471876,-0.0138108665,-0.034580424,0.003264295,0.030694107,0.056876544,0.029694315,0.041071154,0.0005233934,0.008039649,0.010321718,0.0268331,0.030085478,-0.08925633,0.021013677,0.05261588,-0.002821683,0.01201097,0.041216712,-0.010948,0.011536346,-0.020120488,-0.00070413435,-0.029982692,-0.012090754,-0.017254537,0.017271724,0.00579346,-0.010590852,-0.02974151,0.0036701318,0.032109212,0.017265279,-0.016376482,0.024724472,0.0087798955,0.053228077,0.004960623,-0.018204933,0.046789818,0.038360827,0.0077491985,0.03903026,-0.0448592,-0.0076168757,-0.007828893,0.012291821,-0.0023040958,-0.028088626,-0.02894516,0.008897878,-0.018877067,-0.0062014568,0.004324326,0.020448085,-0.017355913,0.055559337,-0.0013897661,0.0024964223,-0.0044320137,-0.0047304104,-0.012096513,-0.02129864,0.0042547276,0.014515281,0.019126393,0.036056522,-0.0012383289,0.009164548,0.014667126,0.06571908,-0.008513659,-0.013717519,-0.035110656,0.012060068,-0.014928817,-0.052365474,0.018036136,-0.034085702,-0.02342871,0.006618697,-0.011214528,-0.003572712,-0.04959381,0.043530423,-0.029159283,0.0015856749,-0.021282624,-0.026427375,-0.04209795,-0.0037560868,0.008094261,-0.0048624002,0.029839266,0.03511609,0.028706715,-0.046361554,0.012475485,0.031078508,0.043080624,0.012841103,-0.003408655,0.013564891,-0.014290549,0.043742478,0.0020515744,-0.015364799,0.014713774,-0.012704909,0.0058811507,0.0130300755,-0.01849268,-0.0011046604,-0.0062563117,0.004664687,-0.0062990543,0.03322574,-0.027716758,2.928284e-05,0.021541633,-0.011908046,-0.028256796,-0.040663004,0.035571426,-0.032062285,-0.033372395,0.056479488,0.00015739014,0.025450451,-0.008028721,0.024204995,0.012217537,0.025049709,0.0040097553,0.012618962,0.019151691,0.01855503,0.0032667918,-0.038846523,-0.028824624,-0.006959968,0.02048288,-0.034905545,0.012061701,-0.016221732,-0.012578794,0.022262972,0.0073394454,0.002656003,0.032150947,0.047618758,-0.02595253,0.022155765,0.026206173,-0.014024777,0.015804151,0.057672154,-0.03174094,0.050463982,-0.027127165,0.0039069406,-0.004907231,0.01766921,-0.0061580297,0.03384895,-0.002059138,-0.011113414,0.065686084,0.010454781,0.035241544,0.02626334,0.023496477,-0.066741295,-0.00031835304,-0.0016873175,0.058290783,0.0064194007,-0.0067101093,-0.031696375,0.021378137,0.0021476308,-0.00027851982,-0.020578977,-0.05123508,-0.0005870878,-0.025089253,0.016886678,0.005776558,0.03378796,0.056323532,-0.017781278,-0.0009952398,0.019559119,-0.056029383,0.004179488,-0.0129512865,-0.029841306,0.00051313004,-0.108461484,-0.019226365,0.012568614,0.002582447,0.01840843,-0.002943628,0.06726192,0.054714147,0.0135331005,-0.009659005,0.009678361,-0.0011814978,-1.9959309e-05,0.027308997,-0.012415759,-0.03305325,-0.015720632,-0.015907759,0.035817306,0.020887986,0.0013358442,0.0006563186,0.0010640791,0.004095504,0.04002035,-0.0033150457,0.017754206,-0.025749676,-0.02997756,0.017262664,0.009483353,0.0045323423,0.023784928,-0.0058359234,-0.03090529,-0.013249128,-0.00273505,0.038162872,0.027255967,0.034242485,0.023096332,0.010614535,0.039075054,0.052837238,-0.029553741,0.0633425,0.024584485,-0.0026807054,-0.060964484,0.062481843,0.021484941,-0.0035889258,0.028666448,-0.0027944352,0.024536248,0.0062493896,0.0111544905,-0.016921269,-0.00975285,0.024421556,-0.004711183,0.032907344,-0.032889802,0.018916592,0.021089224,0.0068121855,0.008593432,-0.0033538383,-0.05618218,-0.02948734,0.016044535,-0.0039429218,-0.016951898,0.0008072876,0.0013989668,-0.0128389,-0.0068855877,0.0068760533,0.00043405083,0.0045919255,-0.032554854,-0.005305874,-0.03800417,0.017823748,0.016111411,-0.0029635667,-0.027923938,-0.027178796,-0.028067205,0.011740664,-0.02048629,0.022071447,-0.019484598,-0.0047925618,0.009924094,-0.006326524,-0.020259412,0.008077276,0.033870555,-0.047028463,-0.021817766,-0.042391807,-0.005124383,0.011945458,-0.023726333,0.0048257336,0.0064054737,0.02688539,-0.028813642,0.03218685,0.0049070623,-0.008871281,-0.0022141081,-0.0034187865,0.0210837,0.011360103,-0.006163563,0.00072779856,-0.013978447,-0.00302632,-0.021750862,-0.0009239021,-0.056703012,-0.036039162,0.009146415,0.009465001,0.101367265,-0.035784833,-0.030375058,0.015468446,-0.0021193516,-0.010657223,0.053362124,-0.011981546,0.052243967,-0.024840929,0.029745843,-0.042143356,-0.021067142,-0.0017840188,0.0011558398,-0.011392293,-0.008863385,-0.015841424,5.640451e-05,-0.13755953,-0.033444572,-0.0122477785,-0.021845043,-0.03102172,-0.031793613,-0.01266955,-0.018715635,-0.044019718,-0.03411263,-0.006276384,-0.024568995,0.026293281,-0.02780804,-0.028934559,0.003483117,0.017256424,0.01934721,0.027382836,-0.07579576,0.0028109064,0.0042526317,-0.030601867,-0.006841414,-0.0019619314,0.007643971,-0.00062025315,-0.0043654055,0.013807965,-0.009641072,0.034177937,0.032845847,-0.0071463273,-0.0068366285,-0.023536451,0.0076397806,0.0075591286,0.00023266752,0.02473563,-0.03469778,-0.013920237,0.08941558,0.004268634,-0.0025439023,-0.0006605112,0.08098566,0.05127858,-0.0009347666,-0.027235787,0.013062171,0.014801907,0.015075105,0.03305573,-0.010394254,0.003497326,-0.010819586,0.012181879,-0.002563105,-0.03915799,-0.016108992,-0.03024292,-0.0030497555,0.052266862,-0.0042032367,0.015812837,0.010392386,-0.06851292,0.0030665419,0.012445665,0.043674193,-0.026266657,0.0031338444,0.014123821,0.0240246,0.016085934,-0.047567654,0.03832873,0.007601,-0.009484683,0.047024284,0.06748199,0.002373479,0.004499251,-0.0061984938,-0.009996587,-0.0034388278,-0.0059310393,0.054783925,0.011656207,-0.024141815,-0.012752975,-0.028369578,0.011896552,0.004271851,-0.03426754,-0.0035471262,-0.006334254,-0.043844935,0.039191917,-0.027423138,0.026604224,-0.004849835,-0.0124307675,0.058197435,0.06559342,0.007656072,-0.027956005,0.04011318,0.01244566,0.019792406,0.031292856,0.0011144385,-0.038290378,-0.0007863668,0.031299196,-0.018441625,0.027549641,0.015351464,0.0013447938
5a700df5-2559-4eb8-93d5-a5b6d6998d81,0.035810966,-0.001411287,0.014291287,0.0020972693,0.029633448,-0.0044955784,0.014113885,-0.001751253,0.049248602,-0.0038492677,-0.027130585,-0.04002685,-0.0111710485,0.003997864,0.024394777,0.027830228,0.022054642,-0.010525862,-0.0014185377,-0.02680731,0.0003402738,-0.032399844,-0.024360586,0.010945625,0.0077552223,0.013629791,0.015692677,-0.030913709,-0.009698344,-0.032609373,-0.012473331,0.00028049247,0.023876999,-0.004178502,0.052150935,0.013933934,-0.012959371,-0.00031210665,0.021410467,-0.021092039,0.0070822383,-0.011510596,0.0062084906,0.0004454956,0.013274185,-0.0031833244,0.028153477,0.0011547335,-0.016411955,0.051411685,-0.022118522,-0.0053880876,0.013960887,-0.036939364,-0.002618891,-0.044362385,-0.015589449,-0.009355253,0.0013503539,-0.0032415993,0.062531255,-0.024765732,0.00097586494,-0.012603791,0.0004306333,-0.036956314,0.020163618,0.014290948,0.0044516027,-0.014657055,-0.013764928,-0.05519471,-0.0056600426,0.011331257,-0.025924787,-0.010886152,-0.016763303,-0.008223201,-0.0005690635,-0.006115309,-0.0104078455,0.0071562747,0.0048440504,0.020789748,0.019366782,0.007301339,0.010437384,-0.03081369,0.019597556,0.016646564,0.027645782,-0.0017304756,0.0139347995,-0.00014693747,-0.02413614,-0.0037614668,0.00942569,0.039171163,-0.014130219,0.0057903365,-0.021176342,-0.011262707,0.053545434,0.033615652,-0.00060400757,0.03323911,-0.020061594,0.030286051,-0.004265396,0.00057780015,-0.01243777,0.00944965,-0.011609288,-0.021271812,-0.01991899,-0.0073656905,-0.0026788295,-0.0069714827,-0.0091477465,-0.0258621,-0.0334239,0.0010119643,-0.038376592,0.021334669,-0.013083247,0.040554743,0.022020906,-0.004380523,-0.008924293,0.006921755,0.01393444,0.013566997,0.024922919,0.0051823617,-0.0137588335,0.016740533,-0.01606406,-0.0013789403,-0.020301959,0.00636026,0.049979337,-0.0040400755,0.0055221906,-0.017663447,0.016242508,-0.017738402,0.006197376,0.027315462,0.008854228,0.0045796484,-0.01563022,-0.023348665,-0.07470669,0.012852078,-0.0073399087,0.009767582,-0.0061500706,-0.045369074,-0.018689543,0.009788027,0.00998406,0.0028909878,-0.010940557,-0.013430226,-0.005021031,-0.03262932,-0.002889607,-0.012322973,-0.024545562,-0.008806716,-0.02326292,-0.009845942,0.031763993,-0.006089783,-0.006015621,0.0021288556,-0.008562288,0.02126536,0.0051643406,0.0010090155,0.010806648,-0.0041892263,0.011768236,-0.010138901,0.0777803,0.004725254,0.0285401,0.049269773,-0.041422334,-0.014504114,-0.017503083,0.009067095,-0.034337856,0.012955696,0.028728174,-0.0071528717,0.010530891,-0.017785123,0.036324978,-0.022354571,0.021583803,-0.009864153,0.003163958,0.028083168,0.019082338,-0.003186103,-0.0019878638,-0.070032135,-0.00778821,0.028192388,-0.015249107,-0.00016443677,0.026486566,0.03730454,-0.027323356,0.43613896,-0.01574923,-0.006443253,0.025220985,-0.052390214,0.03111345,0.014280064,0.0042805225,-0.001912997,0.10026411,0.035356887,-0.029503338,0.0027649845,0.012010988,-0.002175417,0.002849554,0.014081577,-0.037598096,-0.013134793,0.050541155,-0.025892623,-0.0047692433,-0.022494351,-0.011085888,0.016138118,0.049223874,0.0034779834,0.56873715,0.009969183,0.015578319,-0.021410272,-0.0010371485,0.006190572,1.9606729e-05,-0.008203307,-0.0031512855,0.012019901,-0.038948353,-0.018541431,0.020588253,-0.0012144137,-0.020041866,0.005719718,0.0615781,-0.004765595,0.031585176,-0.010055548,-0.021028515,-0.005706111,0.008277545,-0.017124247,-0.0342231,-0.053728774,0.058821928,-0.01915278,0.0050530685,0.01687577,0.024313629,0.0047814744,0.033278257,0.032563824,0.00366463,-0.051209934,0.02595364,0.030086003,-0.03765661,0.009414244,-0.006403085,-0.009110817,-0.007959476,-0.0033736262,0.017097829,0.02309493,0.02680661,0.046187453,0.003645998,0.0022559604,0.024077596,-0.0122265285,-0.012340594,-0.014127088,0.007112066,0.012812876,0.008055033,0.034727722,-0.018586095,-0.03270649,0.0021665532,-0.016426144,0.041028485,0.000115779694,-0.0078363735,-0.014372996,-0.024211595,0.029582737,-0.014082028,0.0077144112,0.013591749,0.03584929,0.0058921855,-0.008870629,0.01819604,0.023379462,0.02078961,-0.06471313,-0.0311845,0.094069496,-0.015728427,-0.006795292,0.00378002,0.0112483185,0.024255402,0.016429823,-0.018652527,-0.0096541345,0.0054905144,0.010039416,0.0003825783,0.0194019,0.00801629,0.006252619,-0.012551469,0.019351317,-0.02119509,0.01362064,0.009096942,0.03602481,0.0146887805,-0.016536046,0.026654227,0.071447276,0.018835358,-0.012036854,0.052245587,0.016371336,-0.012718227,-0.012319024,-0.0061377776,0.009349938,0.005332691,-0.006990187,0.0024982325,0.047631163,-0.023210544,0.006779555,0.00882173,-0.024848208,-0.10876147,0.012628837,0.013422122,-0.0069597736,0.010599886,0.008495415,0.020514833,-0.029219931,-0.009126378,0.0017316927,0.044726312,-0.009395496,0.015335593,-0.006808613,-0.010726272,0.0058199135,-0.009406026,0.008941233,-0.020166328,-0.032404974,0.011824462,-0.007910069,-0.013507844,-0.015000109,-0.0036129828,-0.01407664,0.007833325,-0.0056143403,0.035971243,0.011246941,-0.053612642,0.007790221,-0.014148087,-0.037331678,0.012701585,-0.004078627,-0.0069902698,-0.0072542746,0.01422046,0.028452078,-0.0067833564,0.0101878,-0.009184217,-0.0057367473,-0.024765829,0.021697273,0.0969547,-0.009583361,0.016189324,-0.0019408796,0.013473074,0.017296411,0.016901297,-0.011156776,0.0022927783,0.005448395,0.0020737445,-0.0023350385,0.035749637,0.0044036205,0.038855784,0.02813569,0.024107572,-0.015856422,-0.008135359,0.03903846,-0.042687044,-0.0013363003,0.00081904995,-0.033953585,-0.014618055,0.01309429,0.02441005,0.009507534,-0.03100237,0.008437766,-0.016880875,-0.0013278447,0.03226186,-0.000953788,0.019415146,0.0037652964,-0.012877357,-0.022571128,0.013475391,-0.029948136,0.015186763,-0.020149423,-0.02976816,0.018399509,0.027222093,-0.004661029,0.0034228594,0.032245103,-0.007305452,-0.011699113,-0.006573162,0.012328823,-0.032694157,0.022050489,0.034226183,0.04667213,0.026664607,-0.0061985627,0.018566737,0.0042692637,0.0110985115,0.0042337547,0.012058234,-0.0011499601,0.025209304,-0.009731899,-0.0032484874,-0.030155253,-0.03474902,0.00032722353,-0.023991479,-0.020624988,-0.010905354,-0.008910414,0.0060465205,0.005222667,-0.0067946697,-0.0029293709,-0.0048769177,-0.0054482757,-0.019132545,0.043347795,0.022642475,0.011261544,0.019686628,0.050456475,0.03302323,0.015670426,-0.033319026,-0.017066399,-0.0062455945,-0.023966216,-0.006653586,0.0007436943,0.010907944,0.027763367,-0.031467006,0.04733739,0.014869595,0.014390165,-0.004911657,-0.009132083,-0.036158934,0.012207434,-0.023625888,-0.0148678785,0.006282907,-0.0133229615,-0.0038596762,-0.014260372,-0.002456239,0.009823494,-0.03949386,0.038164746,0.0484326,-0.00612113,-0.009986409,-0.021391142,-0.04400581,0.0060688835,0.013953982,0.0024264422,0.031006468,-0.023151658,0.019246688,0.044829953,0.0065799295,-0.009008581,0.02473426,0.011820346,0.010926572,0.03767394,0.009303693,0.020297874,-0.010950694,-0.00517344,-0.0010890067,0.0064103794,0.015238729,0.01830763,-0.018675977,0.06725346,-0.01416069,-0.0423629,-0.05983582,0.01061023,-0.020185567,0.015422283,0.056873467,-0.020972397,0.03497049,0.018459374,0.005642376,0.004240567,0.09027556,0.00030264774,-0.021038039,0.035580616,-0.0016724014,-0.025217129,-0.020232072,-0.033702172,0.007048035,-0.022797719,-0.016502785,0.0003856843,-0.017645726,0.011386143,0.005576463,-0.015561713,0.005969263,-0.0021971504,-0.011419907,0.030808093,0.0035061983,-0.026146075,-0.000979636,0.0019973514,0.005342775,0.025953773,0.013377142,0.019813979,-0.037783578,-0.002699853,-0.0033968461,0.010555325,0.00047274242,-0.0019129207,-0.027079657,0.0050233584,-0.034543693,0.00057346007,-0.0117229475,0.012412269,0.023493618,0.02060994,0.0067365677,-0.025219906,0.032033704,-0.0014076602,0.00096197095,-0.04437979,0.063334964,0.030074097,-0.09608165,0.037573863,-0.005547502,-0.011376726,0.016893286,0.02162704,-0.008892437,-0.015684599,0.0075315135,0.0015824109,-0.019664817,0.006895023,0.0031451497,-0.008551911,-0.047541674,0.033786636,-0.05763602,0.006499977,0.04080186,-0.039231375,0.011574535,-0.032462798,0.019765126,-0.009838495,0.031505276,-0.0016496512,0.033054505,0.004584514,-0.017959697,0.0011930318,-0.036811464,-0.00906307,-0.003613108,0.004367631,-0.014904869,-0.017823514,0.032791775,-0.033245657,-0.043942366,-0.012360141,0.0067348173,-0.047863845,-0.02718026,-0.020374076,0.04400069,-0.026763797,0.0032014642,-0.021193754,0.014862238,0.017289221,-0.16247426,0.0115257455,-0.0087926285,-0.040444117,-0.014460138,0.03754047,0.050358366,-0.025776848,0.0034443287,-0.01546792,-0.0104827685,0.013144597,0.025622174,-0.022389842,0.02035713,-0.0010106628,-0.021718653,-0.0025936535,-0.0014381227,-0.007206875,0.013999395,-0.0023443913,0.034559526,0.016726322,0.008803789,-0.006084912,0.023801267,-0.0006444055,0.116179526,0.015935358,0.011043843,-0.0012106373,0.050381675,0.05609403,0.027450856,0.007501225,-0.045500886,0.0019316154,0.023902103,-0.010124568,0.020765869,-0.034040283,-0.006340198,-0.03884791,-0.024179159,-0.024676332,0.04406801,-0.027941603,0.035588164,0.021913208,0.006165766,-0.013706299,-0.019673022,-0.0056656287,-0.013610163,-0.012329015,0.0051865163,0.01583627,0.0062749777,-1.1378492e-05,-0.027473683,-0.004452233,0.0011577255,0.047407594,0.01248794,-0.0047055394,0.007677597,0.0031029494,0.016075639,0.011679547,-0.0025763123,0.00441722,-0.01762338,-0.023257254,-0.0010645911,0.019074496,0.0037068392,0.010478732,0.026385533,0.012135364,0.027661743,-0.06112362,-0.010437364,-0.015512993,-0.019559527,0.009657689,0.01309042,0.013303495,0.00560072,0.0021223107,-0.035002865,0.059881084,-0.0056320736,-0.010606098,0.01856188,0.00087967835,0.0025754804,-0.016341176,-0.020239173,0.009139917,0.024811398,0.015592482,0.008761471,-0.039945956,0.0110038,0.043541096
e95807d3-cc2a-4b21-9fa2-f092b559a321,-0.00875057,-0.0318127,0.02300858,0.009528532,0.020428507,0.020015333,-0.008344749,-0.025395555,0.025359748,-0.00622159,-0.009579514,-0.0034387487,0.026121054,0.014906262,-0.01651967,0.017648699,-0.0005952557,0.018681271,-0.006961624,0.013935539,0.009007721,-0.00063108257,-0.03976863,0.030633263,-0.0072660907,-0.016143477,0.08305226,0.017902112,-0.0020466961,-0.0004215151,-0.025519857,0.010595809,-0.006738693,-0.01428661,0.031804603,0.012809702,0.029075803,0.031588014,0.031897403,-0.008590443,0.037893586,-0.027020076,0.027877672,-0.08036233,-0.025605287,-0.020308265,0.006922331,-0.020249521,0.023286149,-0.0038183683,-0.061984472,0.038795114,-0.020415967,-0.043204952,0.007349934,-0.021147199,-0.015800552,-0.0069138994,0.018463774,-0.0013846537,0.043947518,0.008760333,0.00211552,-0.024975056,-0.03765773,-0.04789092,-0.008707787,0.019668764,-0.0002414652,0.027921848,-0.033390246,0.025441023,0.017018892,-0.026569758,-0.024956794,-0.017463934,-0.029961279,-0.049147297,0.017067712,-0.009808718,-0.00992382,0.045714382,-0.035567984,0.010004153,0.023748172,0.016052086,0.0071181417,0.003076637,0.016782884,0.025614891,-0.07276427,0.04031762,-0.0034289234,-0.025046274,0.011528135,0.027981538,0.083387844,-0.042417634,-0.015155291,-0.005771248,0.0074520707,0.014134906,-0.06375637,-0.0026694774,0.024471818,0.019632103,-0.03181234,0.013809811,0.02132096,-0.0036557948,0.0026107025,0.044261407,0.03519951,-0.015591132,-0.017945517,-0.009490971,0.023653839,0.004674233,-0.029984325,-0.0045143496,-0.015567841,-0.028851181,-0.12717734,-0.009436484,0.00453144,-0.021223778,-0.008799781,0.003948171,-0.014829695,0.03873472,-0.058591258,0.013209334,-0.01840742,-0.040322788,-0.0739803,0.005178364,0.004237547,0.005750845,0.025124077,-0.03796957,0.03230424,-0.0028913347,-0.074987315,-0.0047592423,0.021659352,0.022771562,0.03647909,0.0059203547,-0.0028814906,-0.0046928157,-0.017002717,0.028166072,-0.028597673,-0.002827571,0.012205711,0.03113296,-0.037109252,0.020399028,0.025607547,-0.03438495,0.019360576,0.020055195,0.024732528,0.03202251,0.035193972,0.023134701,-0.030954422,0.0029082813,-0.024018379,-0.005560135,-0.005767721,-0.0006978272,-0.025688656,-0.015366469,-0.027322965,-0.0019222916,0.0003735932,-0.00078438804,0.0069314535,-0.01716503,-0.027733965,-0.019574735,-0.02072679,0.0032832697,-0.006842814,0.007577196,0.1384955,-0.054182764,-0.034655426,-0.0330526,0.030583274,-0.033553295,0.022350775,0.00061172957,-0.023148835,-0.043272145,0.00075498584,-0.020496208,0.00918072,0.022139635,0.021320937,-0.012497744,-0.027559163,0.0039326074,0.011726997,-0.032597616,-0.0013989039,-0.051248852,-0.00038154869,-0.007526158,-0.06857189,0.0032217212,0.03902401,-0.015266092,-0.019948382,0.3583532,0.024682617,-0.0030034527,0.009253448,0.03253854,0.051718444,0.046581198,-0.03338987,-0.05471915,0.101372816,0.027577464,0.034166593,0.020321537,0.02098317,0.015414357,-0.048881926,-0.009340184,0.009497721,-0.024124715,0.03601145,-0.0400168,0.03638113,0.028170524,0.03883678,-0.07901707,0.05548985,-0.029392865,0.47280994,-0.05182233,-0.012802811,-0.023704704,0.039888043,-0.011540127,-7.02944e-05,-0.00016798626,-0.027544692,0.026280474,0.009953048,0.0148236,0.012062322,0.036367465,0.011559504,-0.0013667161,-0.012017058,-0.007823343,-0.019107904,0.022650687,-0.01612359,-0.01724182,-0.044979565,-0.03235195,0.015235312,-0.044767942,0.011789343,-0.03456348,0.008551076,-0.037515406,-0.018101178,0.015950274,0.023333378,0.022331025,0.006112172,-0.03954508,0.036188345,-0.044943955,0.06487449,0.021892074,0.0076744794,0.05207727,0.030110434,-0.003652756,0.02086294,0.02453575,-0.028897986,0.058587145,-0.029636119,0.02386981,0.013787862,0.014246531,0.017586675,-0.018878916,0.023480218,-0.010559693,-0.015998235,-0.010090675,-0.002516949,-0.0073774876,0.030491086,-0.023224434,-0.026443895,0.006057964,-0.016139539,0.03914801,-0.07895823,-0.010821475,-0.029201219,0.026747571,0.009926995,0.05456136,-0.015103366,-0.03119115,-0.02790806,0.045466207,-0.039656077,0.011847798,0.0072834557,0.03365257,-0.0032302965,-0.030996826,-0.043587863,-0.03425809,0.008606133,-0.000281248,-0.015549993,-0.02514015,-0.011011838,0.024469893,0.021403873,-0.0061437082,-0.02945193,0.00576468,0.0039045652,0.00046727146,-0.01412874,-0.016472839,-0.012580601,0.015424127,0.032828085,0.028144259,0.019957628,0.009498245,-0.002561904,-0.019310724,0.009811752,-0.012903052,-0.02385202,0.0042789094,-0.015251927,0.0074341744,-0.008458259,-0.01590927,-0.016704094,0.045389075,0.025478067,-0.019247193,0.01033065,0.026684174,-0.016915495,-0.02154658,0.008251459,0.0045776647,-0.004129201,0.03414498,-0.03988356,-0.016350409,-0.00959692,0.0064452714,-0.024168208,0.018835483,-0.019585893,-0.083715715,0.019955253,0.061642915,0.0023076315,-0.024610223,-0.004787319,-0.036845107,0.041698515,-0.017450713,-0.02232886,0.008082044,0.0049624327,0.010922071,0.0015623898,0.016789721,0.025283745,0.010626313,-0.02281479,-0.003452497,-0.018597916,-0.034384985,-0.004268136,0.01901369,-0.04489083,0.017309317,0.013641626,-0.025603818,0.0005512463,0.01621358,-0.01317353,-0.010325351,-0.06479773,0.008561969,-0.020189093,-0.0011403424,0.004919234,-0.046815626,-0.0060161515,-0.024495909,0.017533831,5.2740477e-05,-0.03248391,-0.00012931075,-0.04597861,0.021860776,1.9854133e-05,0.021619469,-0.026004765,0.0027669414,0.06472436,0.051695403,0.009271324,0.013188322,-0.01212081,0.025513157,0.04630693,0.023879228,-0.030626103,-0.014928552,0.036361955,-0.019636955,-0.0037121016,0.007739158,-0.016409166,-0.015324212,0.04162883,0.019028999,0.01473877,0.012485766,-0.012840156,-0.02243685,0.024685627,-0.016685452,0.009432361,-0.007266192,0.027456066,-0.03399699,-0.020498164,-0.006666104,0.021257244,-0.0017925197,0.01630211,-0.0152518675,0.029179534,-0.004274315,0.012836548,-0.049094506,0.0248568,-0.027347276,-0.014575313,-0.0101947775,0.016038513,0.03589938,0.0052345586,0.0535972,-0.04645643,0.010053717,0.01624792,0.04388003,0.006479544,-0.02369322,-0.028376779,-0.0052202893,-0.086118944,-0.0030602699,0.0028306113,-0.015336468,0.026773395,-0.018326923,-0.019128032,0.00445765,0.008165899,-0.027725188,-0.0013518097,-0.034350086,0.04734425,-0.0820653,-0.015096909,0.027404375,0.024314877,-0.021050561,-0.016495286,0.01820032,0.011853663,0.066332884,0.015376902,-0.0006431276,-0.009394048,-0.0011054458,0.01533519,-0.023071617,-0.0021116761,-0.026139982,-0.033684384,0.034111198,-0.04577008,-0.006820961,-0.020616896,-0.034389555,0.09317106,0.017850136,-0.020189479,0.025566753,-0.005920645,-0.035429724,0.003649829,-0.056745708,0.013317335,-0.002725884,0.013641597,0.015620648,-0.015925433,-0.008509427,-0.006311386,0.0023616436,0.03209548,-0.0043854737,0.020669905,0.0028766927,0.045014255,0.021265438,0.020949434,0.021147387,-0.015106842,-0.0061829304,-0.03496077,0.018363997,-0.022738764,-0.0033274093,0.018646596,0.007768814,-0.00994381,0.00804802,-0.03774652,0.09761983,-0.016018363,-0.004531606,0.028084006,0.011674055,0.0030391156,-0.0041329055,0.015043302,-0.027624274,-0.027165864,-0.021208614,0.021249404,0.01991758,0.023765398,0.02101744,-0.020031506,-0.029403735,-0.025165355,-0.017714743,-0.03664406,-0.0033882349,0.0019809483,0.017774936,0.010350705,-0.0066416617,-0.020344824,0.0060815937,0.017713761,0.0028386798,0.06762279,-0.010474646,0.036552105,0.00845934,-0.076672286,0.03198447,0.026696062,-0.0031269155,-0.04921903,-0.059697855,-0.0010165662,-0.016546147,-0.036627628,0.041542307,0.028282622,-0.019249395,0.030025668,0.010607539,-0.012385514,-0.022393024,-0.015051855,0.012567861,-0.009528145,0.017043829,0.0058826194,-0.013322171,-0.020797454,0.002444226,0.029732887,-0.028568054,-0.0053402726,-0.015174197,-0.030243296,-0.022517387,0.08856865,0.041630916,-0.0035977843,0.009665131,0.04462161,0.018037774,0.04261701,-0.03608961,0.01257119,0.033782613,0.035763666,0.038194653,-0.020933272,-0.010236636,-0.04464308,-0.030511552,0.031941757,0.012704394,0.029170532,-0.02892252,0.00085059914,-0.024509938,0.025154226,-0.01598517,-0.020274986,-0.008047519,-0.043981943,-0.0071670744,0.010544428,-0.080720544,-0.02375342,-0.04294759,-0.0020453155,0.023145186,-0.0034557818,-0.04624904,-0.007341335,-0.045978528,-0.035022654,-0.020684067,-0.052762512,-0.050721936,0.012872085,-0.020084038,0.009231707,-0.046676636,-0.0011720228,0.0033098056,-0.027839608,0.016786817,-0.07703792,0.04088894,-0.030404523,-0.054960173,-0.0077176993,0.016540928,-0.030120553,-0.07373055,-0.01353213,-0.027425356,-0.033949293,0.007010849,-0.00815619,-0.031960383,-0.021461535,0.01027904,-0.0050418894,0.040081862,-0.0013796441,0.01880927,-0.0037689994,-0.0043623424,-0.03636102,-0.008078037,0.040167216,-0.044852614,-0.035441324,0.021379836,0.038904294,0.002366255,-0.008913906,-0.045417238,0.03273997,-5.2416017e-05,0.0022665618,0.005604754,0.027698012,-0.02871336,0.0056767724,-0.0036277229,-0.020473354,0.016286213,-0.0057372963,0.019894041,-0.047601923,-0.011565455,-0.03643625,-0.03466202,0.023778785,0.007568128,-0.024349255,-0.04198243,0.0078014,0.008197315,-0.03212111,0.013998135,0.008907256,0.017957738,0.022177445,0.035753787,0.020924754,0.043377116,-0.032150917,-0.028933939,0.018276012,-0.048205547,0.005817594,-0.02625196,0.0074513834,-0.014293043,0.0049873553,-0.0023066,-0.0058113737,0.00011160701,0.010709393,-0.026615378,0.0041228184,0.01860769,0.013268017,0.0064224144,-0.005561844,-0.0074908347,-0.027314594,0.03825499,-0.025444765,0.017312152,-0.033268537,0.017463962,-0.050459675,0.04393126,0.010651094,-0.04159761,0.029647166,0.057799622,0.024295023,0.0512421,0.04386253,-0.061263654,-0.042306982,-0.046816643,0.035355777,-0.012173414,0.008144914,0.0031794559,0.0007979967,-0.01762862
8d51ce7f-af77-4014-8083-3a3d36c21499,0.008686039,0.003980376,0.03721283,-0.016323613,0.022284014,0.04100499,-0.0013138431,0.024220984,0.02833639,0.043203406,0.01478748,0.0058241873,0.023129592,0.0041482393,0.010984031,0.015957959,0.040800035,-0.02394172,0.016761614,-0.017643437,-0.027263602,-0.012089106,-0.01609953,-0.0058046686,-0.021376634,-0.012413064,0.0065091546,-0.005225292,0.022761118,0.0153998975,-0.006822452,0.013455163,-0.052041963,-0.034250934,0.0314424,-0.002418005,-0.009280227,-0.012040002,-7.339748e-05,0.022454565,0.005690648,0.01835414,0.044777147,-0.06219444,-0.04053496,-0.014476001,-0.016285963,-0.015614061,-0.0023128914,0.058271848,-0.008058654,0.0023271346,0.013957861,0.022564536,0.0095648095,0.016957548,0.020647142,0.011809996,0.0207148,-0.0055347923,0.049658835,-0.0087121595,-0.006160445,0.012123162,-0.017501572,-0.05357665,0.02230839,0.0008910554,0.003756486,-0.029190585,0.027140472,-0.026728649,0.013718639,-0.017578881,-0.022771856,-0.010787585,0.021639848,-0.0047541372,-0.0034012352,0.038367562,-0.03420297,-0.012259363,-0.016100794,-0.028823595,-0.012045562,-0.010380683,0.01769318,0.0065213963,0.0006966354,0.0016155839,-0.020697908,0.009791396,0.0037312906,0.014062508,-0.0029625136,-0.04856918,0.0008675741,-0.0065154,-0.00093119976,-0.007919565,-0.0324365,0.0067488663,-0.113065876,-0.0009810711,-0.0007612605,0.019088134,-0.02012756,0.021561978,-0.0025889743,0.03541628,0.018318027,0.008040818,-0.004745793,-0.0002811804,-0.012927071,-0.005332915,0.0041234503,0.028741844,-0.03132248,0.006973227,-0.023758436,0.02177502,-0.05703012,-0.028070781,0.04471243,0.0067001763,-0.035013903,-0.036247894,-0.017030057,-0.012982074,-0.0015945885,-0.045639668,-0.039764196,0.033822916,0.019777596,0.050817873,-0.010074915,0.00035531787,0.027421726,-0.03406761,0.104459815,0.018471284,0.016013775,-0.030161886,0.0047641424,0.0001970584,0.0121414475,0.008254092,-0.0025373693,-0.11924694,-0.018677926,0.023015523,-0.04277292,-0.007116949,0.00047492323,0.014667423,0.012078522,0.05189395,-0.030049816,0.016294336,-0.0037601807,0.013571971,-0.028427992,-0.04490342,0.0052617397,-0.023098387,-0.027194187,0.02421403,-0.009407212,-0.012308676,-0.0054795863,0.013959373,-0.051317934,-0.002883055,0.02244231,0.0024763166,0.010363645,0.000106841515,0.032902732,0.009198494,-0.0021167486,0.0024370141,-0.0257445,0.030503165,0.02875733,-0.027536275,0.060169138,0.05146459,-0.023803674,-0.056664474,-0.01001147,0.0008816949,0.024509171,-0.04276378,-0.0025789784,-0.030292155,0.02466264,-0.026513461,0.018655524,-0.00995304,0.0061854343,0.03109496,0.0002195037,-0.00897527,0.041564718,0.011576216,-0.0013823585,-0.012814874,0.0040476765,-0.0003648193,0.0057197665,0.008329666,0.03274497,-0.021335807,-0.008603876,0.39217085,0.016790899,0.0050928113,0.007824404,-0.0695044,0.010975229,0.04046812,-0.0033133454,-0.017786132,0.029483197,0.0025308728,-0.008811293,0.007804577,0.037602287,-0.00018191247,-0.004761344,-0.008281558,-0.0741021,0.019893775,0.03589708,0.01386166,-0.034889545,-0.019547343,0.030955132,-0.035527974,-0.010591744,0.010149726,0.54165906,-0.044239603,-0.027047094,0.0029463426,-0.005584833,-0.015290056,-0.005895491,0.015852856,-0.017491413,-0.002701577,-0.012180889,0.050142832,0.024975752,-0.011169469,-0.01594253,0.027425608,-0.015311661,-0.011530384,0.00070757774,-0.0060120826,-0.020663144,0.010639491,-0.026352761,0.019428907,0.019779345,0.010095395,0.011319045,-0.03382267,0.046034705,-0.016175756,0.028868567,0.0104581835,0.03837716,0.029458413,-0.008556791,-0.03832398,0.044443395,0.06455706,0.053432453,0.0096285185,0.00017397516,0.0032472876,-0.0061351503,-0.016471216,-0.013154515,0.034370895,0.017186169,0.0129713975,-0.0070590316,-0.011014899,-0.02731478,-0.006053111,0.005882543,-0.020732583,0.01878083,-0.022728307,0.014485721,-0.020883119,0.029759452,0.020425411,0.033485163,-0.008851131,0.058575556,0.022964695,-0.00025879146,-0.021407343,-0.025555214,0.020431357,0.012704578,0.044991255,0.01674712,-0.011060639,-0.00030850264,0.0042704237,0.007045999,0.025782347,0.0043778135,-0.054905735,0.03538528,-0.027504211,-0.011313571,0.0062226853,-0.021612795,0.02306665,-0.0066487715,0.035161167,0.018653482,-0.04110984,-0.02019718,-0.0061120344,-0.031227158,-4.82081e-05,-0.013448511,-0.024734339,0.020651424,0.005532735,-0.012021823,0.031173535,0.014895134,0.013467712,0.04158932,-0.003915516,0.027998919,0.046740044,0.012210607,0.0037207038,0.012167074,-0.014883343,-0.013347501,-0.03290764,-0.0066913157,0.020108286,-0.0014576063,0.0008402833,-0.0005148139,0.047506787,0.03232252,-0.032475922,0.019029627,-0.013219964,-0.021799523,0.012457733,-0.01494987,-0.014282848,-0.01011304,-0.01656114,0.004206827,-0.012112856,-0.0199279,0.020851886,-0.0058367522,0.010010893,0.016135361,-0.024155801,0.00069508236,-0.04119805,0.0012421499,0.030721264,-0.055438373,-0.028684273,0.0006971095,0.030462192,-0.013306507,0.0035275049,0.0008503828,-0.022591222,-0.0056224586,-0.048932172,0.0057196193,0.021245189,0.004110828,0.013812644,-0.003444465,-0.019872183,-0.013690811,0.022098634,0.014762422,0.032574326,0.055102974,-0.0107237715,-0.016080081,0.0007373615,0.017643927,-0.03202982,-0.016376797,0.031432662,0.08597472,0.004934848,-0.018743487,0.039289225,-0.016990703,0.023931282,0.036239352,-0.009777047,0.04015199,-0.024394691,-0.013677579,0.011084237,0.0654012,0.017938515,0.050115354,-0.012745313,0.042998776,0.0061251917,0.010763701,0.011811546,0.014193861,0.0076145246,-0.006872521,0.005357774,-0.03509147,0.0034294333,0.040361125,-0.009525282,-0.004904779,0.0035744086,-0.018829899,0.0027292778,0.039387636,-0.009717034,0.013521929,0.017339095,0.02317487,-0.020917177,-0.00932563,0.011964837,-0.029325966,0.029113993,-0.00092073093,-7.2400566e-05,0.049894415,-0.01100018,-0.006534312,0.0014796935,0.013922496,-0.032176353,-0.005847105,-0.025444862,0.045195248,0.008789012,-0.0067197033,0.10039541,0.017503522,-0.0131818745,0.0051418897,-0.032056466,0.0362298,0.03454131,-0.0020852124,0.010620106,0.015807142,0.019436322,-0.013231033,0.027832555,0.0021139449,0.007950495,-0.025438055,0.0029622843,0.018024618,0.007723354,0.0049491944,-0.02195863,-0.056151092,-0.0015992168,0.010923271,-0.031202843,0.028207088,0.008955354,-0.0048051984,-0.056191165,0.017334921,0.016603792,0.038350806,0.0010230235,0.005037611,-0.009709468,0.030312775,0.0018349178,-0.01112441,-0.015028484,-0.006463481,0.027402177,-0.025861152,0.014410617,0.011826005,0.021398561,-0.025673088,-0.036151666,-0.024248945,0.066295005,-0.025409611,-0.013623259,0.004251034,-0.0067445235,0.020485263,0.033782456,0.0038148188,-0.011741858,0.019501751,-0.05793504,0.061044484,-0.04117284,0.013268035,-0.008699393,-0.06284638,0.025879826,0.017924786,-0.0004958174,0.055299707,0.00596203,0.034833856,-0.019750644,-0.0011663036,0.030553896,0.018256068,-0.005047539,0.021562504,-0.007829602,0.016877677,0.034604073,-0.012941239,-0.030283103,-0.0043570963,-0.015062654,0.044112794,0.0038520794,-0.017395185,0.08549468,0.043212198,0.007640926,-0.011504075,0.020143973,-0.002559217,0.03315864,0.072008535,0.0026841476,0.0038818829,-0.0113568725,-0.005060227,-0.0025725728,0.03998892,0.024915643,0.031053819,-0.0026610177,-0.019092754,-0.010097492,0.06681181,0.0072376234,0.015449419,-0.013113364,-0.028920515,-0.016020305,0.0173972,0.005853139,-0.00033299238,0.0074377386,0.02156306,-0.023461318,-0.0064092632,-0.013196791,-0.03011697,0.00036381598,-0.026559431,-0.013832055,0.020419918,0.010257061,-0.0009702768,0.008360002,-0.010065547,0.016771188,0.016900107,0.0045716693,-0.03650092,0.009843368,0.0004483192,0.030349877,0.027572738,-0.011210782,-0.041624393,-0.03194243,0.004890421,-0.016411908,-0.016791107,-0.013361809,0.014055643,-0.026304558,-0.050338626,0.0008673537,0.040924575,0.029774446,-0.00044319112,0.03327809,0.016740426,-0.021815581,-0.003126219,0.0041634697,0.036686316,-0.008726942,0.0027578706,-0.0024493653,0.009251303,0.017268082,-0.030114653,0.010169738,-0.06640644,0.025199864,-0.00013539965,-0.0018530275,0.07521686,0.012239101,-0.028332919,0.016115582,-0.009052394,0.004268958,0.014799873,0.001536164,0.018227462,0.04995837,-0.03773467,0.008124552,-0.033193048,-0.00789504,0.028956858,0.017014233,-0.013553577,-0.0076577715,0.021711357,-0.05767488,-0.0012417283,0.023770023,0.0048637735,-0.05427432,-0.044089835,0.0034259658,0.023303434,0.0017890956,0.015831009,-0.010577087,-0.016811399,0.007534998,-0.07565001,-0.036432806,-0.02596695,0.024244754,-0.005988235,-0.001184466,-0.04877342,-0.008800367,-0.014118268,0.01396731,0.005951987,-0.0019890293,-0.021546487,-0.021159211,0.014909571,0.040655956,-0.04894408,0.02255581,0.021690488,0.03709765,-0.00032755677,-0.07981117,0.043896165,0.002751875,0.009430134,0.048183657,-0.062217493,0.0011814006,0.0598202,-0.014412547,0.009336409,-0.0063524763,0.07891161,0.049689587,0.010488446,-0.048111353,0.03395759,0.013326544,-0.009098361,0.031232525,-0.0046600415,0.021454481,0.013287267,-0.009401215,-0.018382378,-0.0037989884,-0.017238326,0.004262552,0.05218043,0.047567386,-0.019339884,0.012829898,0.006172451,-0.012928165,0.0044620414,-0.00019914289,0.025377814,0.004632824,0.0043668263,0.022376483,0.009426494,-0.05259574,0.033490967,-0.002861542,0.049147308,-0.04108006,0.0045703566,-0.02034035,0.0026702997,0.021966387,-0.012998817,-0.01173391,0.009092853,-0.014734403,0.016056921,-0.019682525,-0.0076284967,0.013867111,0.015896646,0.020259734,-0.0042298497,-0.04592015,-0.0013320259,-0.0042226263,0.010842292,0.02427283,0.017865086,-0.061663017,0.009295094,0.014553639,0.089014806,0.037060093,0.006936293,0.056799524,0.033480223,0.009486464,0.021324646,-0.0005015401,-0.024140308,-0.0012591999,-0.040028527,-0.037808303,-0.0050863028,0.039971016,-0.004818588,-0.013363066
77c13270-9ca5-4230-a6fe-dac1937518cc,0.035810966,-0.001411287,0.014291287,0.0020972693,0.029633448,-0.0044955784,0.014113885,-0.001751253,0.049248602,-0.0038492677,-0.027130585,-0.04002685,-0.0111710485,0.003997864,0.024394777,0.027830228,0.022054642,-0.010525862,-0.0014185377,-0.02680731,0.0003402738,-0.032399844,-0.024360586,0.010945625,0.0077552223,0.013629791,0.015692677,-0.030913709,-0.009698344,-0.032609373,-0.012473331,0.00028049247,0.023876999,-0.004178502,0.052150935,0.013933934,-0.012959371,-0.00031210665,0.021410467,-0.021092039,0.0070822383,-0.011510596,0.0062084906,0.0004454956,0.013274185,-0.0031833244,0.028153477,0.0011547335,-0.016411955,0.051411685,-0.022118522,-0.0053880876,0.013960887,-0.036939364,-0.002618891,-0.044362385,-0.015589449,-0.009355253,0.0013503539,-0.0032415993,0.062531255,-0.024765732,0.00097586494,-0.012603791,0.0004306333,-0.036956314,0.020163618,0.014290948,0.0044516027,-0.014657055,-0.013764928,-0.05519471,-0.0056600426,0.011331257,-0.025924787,-0.010886152,-0.016763303,-0.008223201,-0.0005690635,-0.006115309,-0.0104078455,0.0071562747,0.0048440504,0.020789748,0.019366782,0.007301339,0.010437384,-0.03081369,0.019597556,0.016646564,0.027645782,-0.0017304756,0.0139347995,-0.00014693747,-0.02413614,-0.0037614668,0.00942569,0.039171163,-0.014130219,0.0057903365,-0.021176342,-0.011262707,0.053545434,0.033615652,-0.00060400757,0.03323911,-0.020061594,0.030286051,-0.004265396,0.00057780015,-0.01243777,0.00944965,-0.011609288,-0.021271812,-0.01991899,-0.0073656905,-0.0026788295,-0.0069714827,-0.0091477465,-0.0258621,-0.0334239,0.0010119643,-0.038376592,0.021334669,-0.013083247,0.040554743,0.022020906,-0.004380523,-0.008924293,0.006921755,0.01393444,0.013566997,0.024922919,0.0051823617,-0.0137588335,0.016740533,-0.01606406,-0.0013789403,-0.020301959,0.00636026,0.049979337,-0.0040400755,0.0055221906,-0.017663447,0.016242508,-0.017738402,0.006197376,0.027315462,0.008854228,0.0045796484,-0.01563022,-0.023348665,-0.07470669,0.012852078,-0.0073399087,0.009767582,-0.0061500706,-0.045369074,-0.018689543,0.009788027,0.00998406,0.0028909878,-0.010940557,-0.013430226,-0.005021031,-0.03262932,-0.002889607,-0.012322973,-0.024545562,-0.008806716,-0.02326292,-0.009845942,0.031763993,-0.006089783,-0.006015621,0.0021288556,-0.008562288,0.02126536,0.0051643406,0.0010090155,0.010806648,-0.0041892263,0.011768236,-0.010138901,0.0777803,0.004725254,0.0285401,0.049269773,-0.041422334,-0.014504114,-0.017503083,0.009067095,-0.034337856,0.012955696,0.028728174,-0.0071528717,0.010530891,-0.017785123,0.036324978,-0.022354571,0.021583803,-0.009864153,0.003163958,0.028083168,0.019082338,-0.003186103,-0.0019878638,-0.070032135,-0.00778821,0.028192388,-0.015249107,-0.00016443677,0.026486566,0.03730454,-0.027323356,0.43613896,-0.01574923,-0.006443253,0.025220985,-0.052390214,0.03111345,0.014280064,0.0042805225,-0.001912997,0.10026411,0.035356887,-0.029503338,0.0027649845,0.012010988,-0.002175417,0.002849554,0.014081577,-0.037598096,-0.013134793,0.050541155,-0.025892623,-0.0047692433,-0.022494351,-0.011085888,0.016138118,0.049223874,0.0034779834,0.56873715,0.009969183,0.015578319,-0.021410272,-0.0010371485,0.006190572,1.9606729e-05,-0.008203307,-0.0031512855,0.012019901,-0.038948353,-0.018541431,0.020588253,-0.0012144137,-0.020041866,0.005719718,0.0615781,-0.004765595,0.031585176,-0.010055548,-0.021028515,-0.005706111,0.008277545,-0.017124247,-0.0342231,-0.053728774,0.058821928,-0.01915278,0.0050530685,0.01687577,0.024313629,0.0047814744,0.033278257,0.032563824,0.00366463,-0.051209934,0.02595364,0.030086003,-0.03765661,0.009414244,-0.006403085,-0.009110817,-0.007959476,-0.0033736262,0.017097829,0.02309493,0.02680661,0.046187453,0.003645998,0.0022559604,0.024077596,-0.0122265285,-0.012340594,-0.014127088,0.007112066,0.012812876,0.008055033,0.034727722,-0.018586095,-0.03270649,0.0021665532,-0.016426144,0.041028485,0.000115779694,-0.0078363735,-0.014372996,-0.024211595,0.029582737,-0.014082028,0.0077144112,0.013591749,0.03584929,0.0058921855,-0.008870629,0.01819604,0.023379462,0.02078961,-0.06471313,-0.0311845,0.094069496,-0.015728427,-0.006795292,0.00378002,0.0112483185,0.024255402,0.016429823,-0.018652527,-0.0096541345,0.0054905144,0.010039416,0.0003825783,0.0194019,0.00801629,0.006252619,-0.012551469,0.019351317,-0.02119509,0.01362064,0.009096942,0.03602481,0.0146887805,-0.016536046,0.026654227,0.071447276,0.018835358,-0.012036854,0.052245587,0.016371336,-0.012718227,-0.012319024,-0.0061377776,0.009349938,0.005332691,-0.006990187,0.0024982325,0.047631163,-0.023210544,0.006779555,0.00882173,-0.024848208,-0.10876147,0.012628837,0.013422122,-0.0069597736,0.010599886,0.008495415,0.020514833,-0.029219931,-0.009126378,0.0017316927,0.044726312,-0.009395496,0.015335593,-0.006808613,-0.010726272,0.0058199135,-0.009406026,0.008941233,-0.020166328,-0.032404974,0.011824462,-0.007910069,-0.013507844,-0.015000109,-0.0036129828,-0.01407664,0.007833325,-0.0056143403,0.035971243,0.011246941,-0.053612642,0.007790221,-0.014148087,-0.037331678,0.012701585,-0.004078627,-0.0069902698,-0.0072542746,0.01422046,0.028452078,-0.0067833564,0.0101878,-0.009184217,-0.0057367473,-0.024765829,0.021697273,0.0969547,-0.009583361,0.016189324,-0.0019408796,0.013473074,0.017296411,0.016901297,-0.011156776,0.0022927783,0.005448395,0.0020737445,-0.0023350385,0.035749637,0.0044036205,0.038855784,0.02813569,0.024107572,-0.015856422,-0.008135359,0.03903846,-0.042687044,-0.0013363003,0.00081904995,-0.033953585,-0.014618055,0.01309429,0.02441005,0.009507534,-0.03100237,0.008437766,-0.016880875,-0.0013278447,0.03226186,-0.000953788,0.019415146,0.0037652964,-0.012877357,-0.022571128,0.013475391,-0.029948136,0.015186763,-0.020149423,-0.02976816,0.018399509,0.027222093,-0.004661029,0.0034228594,0.032245103,-0.007305452,-0.011699113,-0.006573162,0.012328823,-0.032694157,0.022050489,0.034226183,0.04667213,0.026664607,-0.0061985627,0.018566737,0.0042692637,0.0110985115,0.0042337547,0.012058234,-0.0011499601,0.025209304,-0.009731899,-0.0032484874,-0.030155253,-0.03474902,0.00032722353,-0.023991479,-0.020624988,-0.010905354,-0.008910414,0.0060465205,0.005222667,-0.0067946697,-0.0029293709,-0.0048769177,-0.0054482757,-0.019132545,0.043347795,0.022642475,0.011261544,0.019686628,0.050456475,0.03302323,0.015670426,-0.033319026,-0.017066399,-0.0062455945,-0.023966216,-0.006653586,0.0007436943,0.010907944,0.027763367,-0.031467006,0.04733739,0.014869595,0.014390165,-0.004911657,-0.009132083,-0.036158934,0.012207434,-0.023625888,-0.0148678785,0.006282907,-0.0133229615,-0.0038596762,-0.014260372,-0.002456239,0.009823494,-0.03949386,0.038164746,0.0484326,-0.00612113,-0.009986409,-0.021391142,-0.04400581,0.0060688835,0.013953982,0.0024264422,0.031006468,-0.023151658,0.019246688,0.044829953,0.0065799295,-0.009008581,0.02473426,0.011820346,0.010926572,0.03767394,0.009303693,0.020297874,-0.010950694,-0.00517344,-0.0010890067,0.0064103794,0.015238729,0.01830763,-0.018675977,0.06725346,-0.01416069,-0.0423629,-0.05983582,0.01061023,-0.020185567,0.015422283,0.056873467,-0.020972397,0.03497049,0.018459374,0.005642376,0.004240567,0.09027556,0.00030264774,-0.021038039,0.035580616,-0.0016724014,-0.025217129,-0.020232072,-0.033702172,0.007048035,-0.022797719,-0.016502785,0.0003856843,-0.017645726,0.011386143,0.005576463,-0.015561713,0.005969263,-0.0021971504,-0.011419907,0.030808093,0.0035061983,-0.026146075,-0.000979636,0.0019973514,0.005342775,0.025953773,0.013377142,0.019813979,-0.037783578,-0.002699853,-0.0033968461,0.010555325,0.00047274242,-0.0019129207,-0.027079657,0.0050233584,-0.034543693,0.00057346007,-0.0117229475,0.012412269,0.023493618,0.02060994,0.0067365677,-0.025219906,0.032033704,-0.0014076602,0.00096197095,-0.04437979,0.063334964,0.030074097,-0.09608165,0.037573863,-0.005547502,-0.011376726,0.016893286,0.02162704,-0.008892437,-0.015684599,0.0075315135,0.0015824109,-0.019664817,0.006895023,0.0031451497,-0.008551911,-0.047541674,0.033786636,-0.05763602,0.006499977,0.04080186,-0.039231375,0.011574535,-0.032462798,0.019765126,-0.009838495,0.031505276,-0.0016496512,0.033054505,0.004584514,-0.017959697,0.0011930318,-0.036811464,-0.00906307,-0.003613108,0.004367631,-0.014904869,-0.017823514,0.032791775,-0.033245657,-0.043942366,-0.012360141,0.0067348173,-0.047863845,-0.02718026,-0.020374076,0.04400069,-0.026763797,0.0032014642,-0.021193754,0.014862238,0.017289221,-0.16247426,0.0115257455,-0.0087926285,-0.040444117,-0.014460138,0.03754047,0.050358366,-0.025776848,0.0034443287,-0.01546792,-0.0104827685,0.013144597,0.025622174,-0.022389842,0.02035713,-0.0010106628,-0.021718653,-0.0025936535,-0.0014381227,-0.007206875,0.013999395,-0.0023443913,0.034559526,0.016726322,0.008803789,-0.006084912,0.023801267,-0.0006444055,0.116179526,0.015935358,0.011043843,-0.0012106373,0.050381675,0.05609403,0.027450856,0.007501225,-0.045500886,0.0019316154,0.023902103,-0.010124568,0.020765869,-0.034040283,-0.006340198,-0.03884791,-0.024179159,-0.024676332,0.04406801,-0.027941603,0.035588164,0.021913208,0.006165766,-0.013706299,-0.019673022,-0.0056656287,-0.013610163,-0.012329015,0.0051865163,0.01583627,0.0062749777,-1.1378492e-05,-0.027473683,-0.004452233,0.0011577255,0.047407594,0.01248794,-0.0047055394,0.007677597,0.0031029494,0.016075639,0.011679547,-0.0025763123,0.00441722,-0.01762338,-0.023257254,-0.0010645911,0.019074496,0.0037068392,0.010478732,0.026385533,0.012135364,0.027661743,-0.06112362,-0.010437364,-0.015512993,-0.019559527,0.009657689,0.01309042,0.013303495,0.00560072,0.0021223107,-0.035002865,0.059881084,-0.0056320736,-0.010606098,0.01856188,0.00087967835,0.0025754804,-0.016341176,-0.020239173,0.009139917,0.024811398,0.015592482,0.008761471,-0.039945956,0.0110038,0.043541096
7f5ef064-5dc6-4f52-b338-dcfed7df2e0a,-0.0002822481,-0.008327812,-0.0027530903,0.011525536,0.02931775,0.01028864,0.0038363948,0.016802527,0.011748295,-0.011629846,0.020232793,-0.044802595,0.037537817,0.0013372792,-0.0097975815,-0.016879762,-0.021914354,0.028254235,-0.033339325,0.04667022,-0.025333341,-0.00035344044,-0.018374491,0.00871802,0.018795678,0.033585038,0.01039807,-0.010947907,0.0065176412,0.015756594,-0.01991037,0.056007218,-0.013220276,0.0124341315,-0.04425673,0.020634504,-0.04341834,0.015872223,0.011998255,0.018087303,0.013822065,0.038990535,0.00998714,-0.023995893,-0.026761416,0.072510146,-0.011679295,-0.025313074,-0.05376204,-0.019466242,-0.0373273,0.011264478,-0.015149159,-0.021992818,0.002653175,-0.004149791,0.028289845,0.016048612,0.00090653,0.006856612,0.049804218,-0.040835146,0.006015651,0.020147506,-0.08196517,0.019125177,-0.016423296,-0.0034965698,0.034088124,0.029793493,0.090858355,0.015531048,0.04218103,0.009814502,0.061773088,0.010343795,-0.015613103,-0.03199011,0.030257344,0.027124064,0.010319902,0.017278412,-0.051339816,0.00017433363,-0.011120308,-0.014924122,-0.019215992,0.018929878,-0.04472691,-0.0011946257,0.027228268,-0.00012935928,-0.018841898,0.030156901,0.014476634,0.0016515349,0.0013368999,-0.0060892995,-0.012083814,-0.008001645,-0.015149738,-0.017552245,-0.025216876,0.035912678,-0.026313309,0.007817747,0.03914012,-0.039300073,0.001239143,-0.020517332,-0.030815652,-0.011228,0.01099444,-0.04583636,0.007498573,-0.028393386,0.012988387,0.025418764,-0.035696775,-0.004333731,0.015865559,-0.0053985417,-0.042154472,-0.018982645,-0.012007741,0.0046651023,-0.014348846,0.037787873,0.0047583063,0.04079064,-0.030590368,-0.05032093,0.0003355709,0.015923431,0.0069949543,-0.0067321747,0.0010378731,-0.002632774,0.01919901,-0.034424502,0.108403556,-0.0103047,-0.026923625,-0.011140615,0.009772652,0.0038944136,-0.04963351,0.00399285,0.0070592123,-0.14541596,-0.025336044,-0.024564879,0.074535765,-0.03574204,0.038307615,-0.0238911,-0.047314454,0.027074976,0.0016036149,-0.020359114,-0.019278154,0.05064136,-0.0060950536,0.01829936,0.037021928,0.028296024,-0.007891143,-0.004982191,0.0023606247,0.013049734,-0.020684397,-0.004075045,-0.0015665947,0.007651467,0.0038189404,-0.0050817793,-0.020062145,-0.014644552,0.04157831,0.023594301,-0.0006072712,0.015575755,-0.019606562,0.009586576,0.030218184,-0.059705157,0.068912014,0.053821415,-0.046955794,0.044101547,0.0064542005,-0.022726798,0.01522613,-0.06625694,0.014728737,-0.006932287,-0.022673758,-0.010638789,0.016190978,-0.014180947,-0.0730196,0.0025348484,-0.033046465,0.00027992326,-0.03437124,-0.049079325,0.038156763,0.066819005,-0.02957205,0.005653478,0.04621858,-0.028887197,0.0064582094,0.042550787,-0.007900506,0.35078728,-3.478541e-05,0.006457259,-0.0037735666,-0.01639609,0.011187476,-0.023068143,-0.015973743,-0.069363534,0.15162808,-0.050709013,-0.048718028,-0.022977779,0.008197953,0.012395632,0.086284816,0.025225619,0.052122973,-0.018609041,-0.0066116513,0.0015797319,0.009746264,-0.011416962,-0.013913828,0.033938676,-0.041128397,-0.04081193,0.4477602,-0.04013802,0.0061266352,-0.033706672,-0.0117345,0.03866674,0.0060280543,0.024397235,-0.012838662,0.011209701,-0.049325343,0.0012748985,0.0079978835,0.0065974253,0.014721921,0.015095478,-0.028954362,-0.00012800175,0.00957576,-0.0057527153,-0.036484923,-0.031354696,0.027338246,0.0039047909,0.03420354,0.008282489,-0.006018542,4.231593e-05,-0.014922992,-0.016655251,-0.010964771,0.028616574,0.0021299531,0.005028996,0.09042677,0.019612113,-0.013815594,-0.033786673,0.047164775,0.027581858,7.071142e-05,0.03246498,-0.0023197557,-0.0103207715,-0.01905934,-0.0182283,-0.015356211,-0.037006885,0.014224423,-0.023899997,-0.015256754,-0.02107359,-0.005522408,-0.0086084595,-0.01812882,0.035605617,0.0020650688,-0.013924751,0.0037760236,0.010043474,-0.018984405,0.0059846593,0.0027101077,-0.0012625075,-0.008275678,-0.029205902,0.05752937,0.00147489,0.011993547,0.0022236053,0.009529042,0.006267958,-0.0026376282,-0.0054444834,-0.004112906,0.032970622,-0.006223844,0.044811998,-0.01202741,0.0020180151,-0.02151676,-0.015137614,-0.0018217618,-0.013916894,0.010689933,0.05672737,0.033294134,-0.002671614,-0.0062416047,-0.005196936,-0.020452643,-0.0023947456,-0.02119952,0.013173477,-0.0077739526,-0.03218349,-0.021202061,0.012873856,3.6060395e-05,0.0060199387,-0.010669299,-0.007357685,0.032123208,0.053187802,0.01348668,-0.0019019159,0.03424885,-0.019138256,0.03407842,-0.03294211,-0.010378425,-0.037862115,0.0058399565,-0.01935878,-0.015261876,-0.015782852,-0.027037188,0.0025451418,-0.0139512345,-0.014042272,-0.021359004,0.028614882,0.0030810358,0.015502523,0.0051194276,-0.022131043,-0.03502524,0.023978904,0.025728216,-0.028569452,0.028955251,0.0046654264,0.010588233,-0.02162317,-0.008336675,-0.0021126687,0.0018218737,-0.03067334,-0.018643182,0.013362055,0.029073516,0.008188833,0.02586302,0.008326207,-0.0028516275,-0.01065569,-0.029414851,-0.005126965,-0.016717397,-0.022022776,-0.0027451906,0.048020683,0.017244628,-0.004135605,-0.006384412,-0.0021180573,0.015768366,-0.04310668,0.013148138,0.049057085,0.0141550135,0.012439213,-0.047359582,-0.019248912,0.014526537,0.008617833,0.1480232,-0.026047902,0.022133654,0.0073840716,0.0026777943,-0.0037888458,-0.0037003923,-0.00095846393,-0.0090338,-0.028240725,0.053256124,0.08085564,0.08092243,-0.0025942917,-0.013143508,0.00703642,0.023004733,0.022770802,-0.0029071637,-0.026127966,-0.044872064,-0.031604722,-0.059546296,0.0035333757,0.04060177,0.026166204,0.058784105,0.008345162,0.010526621,0.014709386,-0.017812228,-0.005384497,0.030086413,0.005567056,0.032489073,-0.020012712,0.000792375,-0.02186627,0.028035397,0.025091479,0.009480138,0.014363095,0.008529453,-0.018174814,-0.070634834,-0.017631842,-0.006978769,0.013147319,-0.016204957,0.013008763,0.019342313,-0.011681978,0.007972561,-0.006839574,-0.024595147,0.0035406982,0.0011816876,-0.04233837,0.014167326,-0.026029985,-0.001494598,0.0340889,0.007432386,-0.020119164,0.020908793,-0.0036506387,0.03294524,0.061138794,0.0055807675,0.040731017,-0.04337529,0.0099197915,-0.0075712493,0.01729809,-0.029883606,-0.024577875,0.0014521158,-0.064395376,0.049397137,0.0177932,-0.06002659,-0.05219109,0.007497271,-0.08520291,-0.050755497,0.009550504,-0.009750154,-0.021209503,0.010078391,-0.049269844,0.04548987,0.015578553,0.058169212,0.015989313,0.031697795,-0.0011519353,-0.011763781,0.04282221,-0.021919077,0.014868786,-0.022950077,0.008936488,-0.021575525,0.04517984,0.036598668,0.022435764,-0.003376018,-0.011576879,0.0017670979,0.011422038,0.00967111,0.027740536,0.000108977285,-0.00019393931,0.086877175,-0.016058927,-0.01568457,0.03112178,-0.014045429,-0.077515215,0.03304211,0.017593708,0.01923762,0.03893517,0.060458854,0.0031515844,0.01754967,0.01481141,0.016634615,0.015503266,-0.019859545,0.010646312,0.009267046,0.011625892,0.024618903,0.054606363,0.038741983,-0.003066953,0.0035430244,-0.0018982922,0.002858598,-0.061899606,-0.0001792521,-0.020302216,0.051513072,0.046586946,0.009280876,-0.019620275,0.07739344,0.015891878,-0.009100346,-0.03170019,-0.009507135,-0.0010957071,0.0014879087,0.0150081385,-0.0067412453,0.037631564,0.032424465,0.023193358,-0.016273405,-0.013136236,0.023889076,0.009105823,-0.013508625,-0.0071081677,0.0039472096,-0.018251106,0.009042705,-0.01435047,-0.007390084,0.021616204,0.0040938295,0.005404343,-0.011092539,-0.02991284,0.044738654,0.012266186,-0.037858408,0.023085019,0.015736237,0.021009717,0.027399668,-0.04066206,-0.030395482,0.006687388,0.040112235,-0.041058768,-0.08152605,-0.0064475066,0.008942771,0.010932549,-0.011541936,-0.018968547,0.008040271,-0.009546337,-0.006559019,-0.03352294,0.023847044,-0.026984153,-0.030536436,0.009402235,-0.0060209436,-5.4019987e-05,0.030727327,0.026327537,-0.047959767,0.0011372917,0.061922543,-0.04418918,0.009743056,-0.034101248,-0.011379283,0.010385778,-0.01910502,0.01661356,-0.008130883,0.004065663,-0.083442256,0.027919453,0.02235886,0.016396476,0.041803718,0.032635685,-0.00035047505,0.03058789,-0.009095386,-0.027780201,0.009435747,0.0015494497,0.041032612,-0.01862743,0.0165479,-0.03466712,0.0007751024,-0.006313703,0.012073829,-0.011137788,-0.021695051,0.0034918913,0.049064815,-0.040405087,-0.020553917,-0.00056171836,-0.025908666,-0.070585206,0.036611363,0.010451843,-0.0047354903,-0.019671462,0.004765136,-0.0031610385,-0.0075490186,0.021816954,-0.0004615316,0.025279993,-0.00528911,-0.038745083,-0.026586004,-0.021413572,0.0066283983,-0.060682297,-0.013413175,-0.018623777,0.008108123,-0.04829908,-0.019929761,-0.0074267727,0.032707453,-0.0019750136,0.008942703,-0.0062774816,-0.008953513,0.03965178,-0.02218599,-0.013654849,-0.059903935,-0.011529937,-0.019872617,-0.009664597,0.020620158,0.022810984,0.12648115,-0.004736975,0.012271411,0.05709739,0.039619334,-0.021965364,0.0075884783,-0.030788185,0.021366984,-0.021142833,0.0330905,0.0032820534,-0.0038174465,-0.020271024,0.024820842,0.06120638,-0.015787587,0.0086705685,0.030866439,-0.022292744,-0.012501178,-0.0014598931,-0.02016921,-0.041036062,0.05807838,0.0021875068,-0.035979003,0.015551852,-0.006288082,0.024113284,-0.014196678,0.008695188,0.001643035,0.030932352,-0.01567083,0.031570677,0.01052226,0.0069250353,-0.004474214,-0.011409468,-0.008628701,0.012144695,-0.014778231,0.024763655,0.03669,-0.034526993,-0.0020993908,0.018849323,-0.027169071,-0.018920505,-0.008473498,-0.0146230655,0.015875293,0.045293946,-0.001290862,-0.0034356257,-0.05010547,-0.012610732,0.008410752,-0.018333659,-0.018133795,-0.020550698,0.080536075,-0.0009114553,-0.0025893562,0.011497058,0.03468219,-0.04302946,-0.03255896,0.0037060273,-0.028752886,-0.0116791045,0.0027030897,0.04185792,-0.032921553,0.009263725,-0.03432953,0.061973833
be7711aa-2245-4f41-9073-9dcf27b62311,-0.0002822481,-0.008327812,-0.0027530903,0.011525536,0.02931775,0.01028864,0.0038363948,0.016802527,0.011748295,-0.011629846,0.020232793,-0.044802595,0.037537817,0.0013372792,-0.0097975815,-0.016879762,-0.021914354,0.028254235,-0.033339325,0.04667022,-0.025333341,-0.00035344044,-0.018374491,0.00871802,0.018795678,0.033585038,0.01039807,-0.010947907,0.0065176412,0.015756594,-0.01991037,0.056007218,-0.013220276,0.0124341315,-0.04425673,0.020634504,-0.04341834,0.015872223,0.011998255,0.018087303,0.013822065,0.038990535,0.00998714,-0.023995893,-0.026761416,0.072510146,-0.011679295,-0.025313074,-0.05376204,-0.019466242,-0.0373273,0.011264478,-0.015149159,-0.021992818,0.002653175,-0.004149791,0.028289845,0.016048612,0.00090653,0.006856612,0.049804218,-0.040835146,0.006015651,0.020147506,-0.08196517,0.019125177,-0.016423296,-0.0034965698,0.034088124,0.029793493,0.090858355,0.015531048,0.04218103,0.009814502,0.061773088,0.010343795,-0.015613103,-0.03199011,0.030257344,0.027124064,0.010319902,0.017278412,-0.051339816,0.00017433363,-0.011120308,-0.014924122,-0.019215992,0.018929878,-0.04472691,-0.0011946257,0.027228268,-0.00012935928,-0.018841898,0.030156901,0.014476634,0.0016515349,0.0013368999,-0.0060892995,-0.012083814,-0.008001645,-0.015149738,-0.017552245,-0.025216876,0.035912678,-0.026313309,0.007817747,0.03914012,-0.039300073,0.001239143,-0.020517332,-0.030815652,-0.011228,0.01099444,-0.04583636,0.007498573,-0.028393386,0.012988387,0.025418764,-0.035696775,-0.004333731,0.015865559,-0.0053985417,-0.042154472,-0.018982645,-0.012007741,0.0046651023,-0.014348846,0.037787873,0.0047583063,0.04079064,-0.030590368,-0.05032093,0.0003355709,0.015923431,0.0069949543,-0.0067321747,0.0010378731,-0.002632774,0.01919901,-0.034424502,0.108403556,-0.0103047,-0.026923625,-0.011140615,0.009772652,0.0038944136,-0.04963351,0.00399285,0.0070592123,-0.14541596,-0.025336044,-0.024564879,0.074535765,-0.03574204,0.038307615,-0.0238911,-0.047314454,0.027074976,0.0016036149,-0.020359114,-0.019278154,0.05064136,-0.0060950536,0.01829936,0.037021928,0.028296024,-0.007891143,-0.004982191,0.0023606247,0.013049734,-0.020684397,-0.004075045,-0.0015665947,0.007651467,0.0038189404,-0.0050817793,-0.020062145,-0.014644552,0.04157831,0.023594301,-0.0006072712,0.015575755,-0.019606562,0.009586576,0.030218184,-0.059705157,0.068912014,0.053821415,-0.046955794,0.044101547,0.0064542005,-0.022726798,0.01522613,-0.06625694,0.014728737,-0.006932287,-0.022673758,-0.010638789,0.016190978,-0.014180947,-0.0730196,0.0025348484,-0.033046465,0.00027992326,-0.03437124,-0.049079325,0.038156763,0.066819005,-0.02957205,0.005653478,0.04621858,-0.028887197,0.0064582094,0.042550787,-0.007900506,0.35078728,-3.478541e-05,0.006457259,-0.0037735666,-0.01639609,0.011187476,-0.023068143,-0.015973743,-0.069363534,0.15162808,-0.050709013,-0.048718028,-0.022977779,0.008197953,0.012395632,0.086284816,0.025225619,0.052122973,-0.018609041,-0.0066116513,0.0015797319,0.009746264,-0.011416962,-0.013913828,0.033938676,-0.041128397,-0.04081193,0.4477602,-0.04013802,0.0061266352,-0.033706672,-0.0117345,0.03866674,0.0060280543,0.024397235,-0.012838662,0.011209701,-0.049325343,0.0012748985,0.0079978835,0.0065974253,0.014721921,0.015095478,-0.028954362,-0.00012800175,0.00957576,-0.0057527153,-0.036484923,-0.031354696,0.027338246,0.0039047909,0.03420354,0.008282489,-0.006018542,4.231593e-05,-0.014922992,-0.016655251,-0.010964771,0.028616574,0.0021299531,0.005028996,0.09042677,0.019612113,-0.013815594,-0.033786673,0.047164775,0.027581858,7.071142e-05,0.03246498,-0.0023197557,-0.0103207715,-0.01905934,-0.0182283,-0.015356211,-0.037006885,0.014224423,-0.023899997,-0.015256754,-0.02107359,-0.005522408,-0.0086084595,-0.01812882,0.035605617,0.0020650688,-0.013924751,0.0037760236,0.010043474,-0.018984405,0.0059846593,0.0027101077,-0.0012625075,-0.008275678,-0.029205902,0.05752937,0.00147489,0.011993547,0.0022236053,0.009529042,0.006267958,-0.0026376282,-0.0054444834,-0.004112906,0.032970622,-0.006223844,0.044811998,-0.01202741,0.0020180151,-0.02151676,-0.015137614,-0.0018217618,-0.013916894,0.010689933,0.05672737,0.033294134,-0.002671614,-0.0062416047,-0.005196936,-0.020452643,-0.0023947456,-0.02119952,0.013173477,-0.0077739526,-0.03218349,-0.021202061,0.012873856,3.6060395e-05,0.0060199387,-0.010669299,-0.007357685,0.032123208,0.053187802,0.01348668,-0.0019019159,0.03424885,-0.019138256,0.03407842,-0.03294211,-0.010378425,-0.037862115,0.0058399565,-0.01935878,-0.015261876,-0.015782852,-0.027037188,0.0025451418,-0.0139512345,-0.014042272,-0.021359004,0.028614882,0.0030810358,0.015502523,0.0051194276,-0.022131043,-0.03502524,0.023978904,0.025728216,-0.028569452,0.028955251,0.0046654264,0.010588233,-0.02162317,-0.008336675,-0.0021126687,0.0018218737,-0.03067334,-0.018643182,0.013362055,0.029073516,0.008188833,0.02586302,0.008326207,-0.0028516275,-0.01065569,-0.029414851,-0.005126965,-0.016717397,-0.022022776,-0.0027451906,0.048020683,0.017244628,-0.004135605,-0.006384412,-0.0021180573,0.015768366,-0.04310668,0.013148138,0.049057085,0.0141550135,0.012439213,-0.047359582,-0.019248912,0.014526537,0.008617833,0.1480232,-0.026047902,0.022133654,0.0073840716,0.0026777943,-0.0037888458,-0.0037003923,-0.00095846393,-0.0090338,-0.028240725,0.053256124,0.08085564,0.08092243,-0.0025942917,-0.013143508,0.00703642,0.023004733,0.022770802,-0.0029071637,-0.026127966,-0.044872064,-0.031604722,-0.059546296,0.0035333757,0.04060177,0.026166204,0.058784105,0.008345162,0.010526621,0.014709386,-0.017812228,-0.005384497,0.030086413,0.005567056,0.032489073,-0.020012712,0.000792375,-0.02186627,0.028035397,0.025091479,0.009480138,0.014363095,0.008529453,-0.018174814,-0.070634834,-0.017631842,-0.006978769,0.013147319,-0.016204957,0.013008763,0.019342313,-0.011681978,0.007972561,-0.006839574,-0.024595147,0.0035406982,0.0011816876,-0.04233837,0.014167326,-0.026029985,-0.001494598,0.0340889,0.007432386,-0.020119164,0.020908793,-0.0036506387,0.03294524,0.061138794,0.0055807675,0.040731017,-0.04337529,0.0099197915,-0.0075712493,0.01729809,-0.029883606,-0.024577875,0.0014521158,-0.064395376,0.049397137,0.0177932,-0.06002659,-0.05219109,0.007497271,-0.08520291,-0.050755497,0.009550504,-0.009750154,-0.021209503,0.010078391,-0.049269844,0.04548987,0.015578553,0.058169212,0.015989313,0.031697795,-0.0011519353,-0.011763781,0.04282221,-0.021919077,0.014868786,-0.022950077,0.008936488,-0.021575525,0.04517984,0.036598668,0.022435764,-0.003376018,-0.011576879,0.0017670979,0.011422038,0.00967111,0.027740536,0.000108977285,-0.00019393931,0.086877175,-0.016058927,-0.01568457,0.03112178,-0.014045429,-0.077515215,0.03304211,0.017593708,0.01923762,0.03893517,0.060458854,0.0031515844,0.01754967,0.01481141,0.016634615,0.015503266,-0.019859545,0.010646312,0.009267046,0.011625892,0.024618903,0.054606363,0.038741983,-0.003066953,0.0035430244,-0.0018982922,0.002858598,-0.061899606,-0.0001792521,-0.020302216,0.051513072,0.046586946,0.009280876,-0.019620275,0.07739344,0.015891878,-0.009100346,-0.03170019,-0.009507135,-0.0010957071,0.0014879087,0.0150081385,-0.0067412453,0.037631564,0.032424465,0.023193358,-0.016273405,-0.013136236,0.023889076,0.009105823,-0.013508625,-0.0071081677,0.0039472096,-0.018251106,0.009042705,-0.01435047,-0.007390084,0.021616204,0.0040938295,0.005404343,-0.011092539,-0.02991284,0.044738654,0.012266186,-0.037858408,0.023085019,0.015736237,0.021009717,0.027399668,-0.04066206,-0.030395482,0.006687388,0.040112235,-0.041058768,-0.08152605,-0.0064475066,0.008942771,0.010932549,-0.011541936,-0.018968547,0.008040271,-0.009546337,-0.006559019,-0.03352294,0.023847044,-0.026984153,-0.030536436,0.009402235,-0.0060209436,-5.4019987e-05,0.030727327,0.026327537,-0.047959767,0.0011372917,0.061922543,-0.04418918,0.009743056,-0.034101248,-0.011379283,0.010385778,-0.01910502,0.01661356,-0.008130883,0.004065663,-0.083442256,0.027919453,0.02235886,0.016396476,0.041803718,0.032635685,-0.00035047505,0.03058789,-0.009095386,-0.027780201,0.009435747,0.0015494497,0.041032612,-0.01862743,0.0165479,-0.03466712,0.0007751024,-0.006313703,0.012073829,-0.011137788,-0.021695051,0.0034918913,0.049064815,-0.040405087,-0.020553917,-0.00056171836,-0.025908666,-0.070585206,0.036611363,0.010451843,-0.0047354903,-0.019671462,0.004765136,-0.0031610385,-0.0075490186,0.021816954,-0.0004615316,0.025279993,-0.00528911,-0.038745083,-0.026586004,-0.021413572,0.0066283983,-0.060682297,-0.013413175,-0.018623777,0.008108123,-0.04829908,-0.019929761,-0.0074267727,0.032707453,-0.0019750136,0.008942703,-0.0062774816,-0.008953513,0.03965178,-0.02218599,-0.013654849,-0.059903935,-0.011529937,-0.019872617,-0.009664597,0.020620158,0.022810984,0.12648115,-0.004736975,0.012271411,0.05709739,0.039619334,-0.021965364,0.0075884783,-0.030788185,0.021366984,-0.021142833,0.0330905,0.0032820534,-0.0038174465,-0.020271024,0.024820842,0.06120638,-0.015787587,0.0086705685,0.030866439,-0.022292744,-0.012501178,-0.0014598931,-0.02016921,-0.041036062,0.05807838,0.0021875068,-0.035979003,0.015551852,-0.006288082,0.024113284,-0.014196678,0.008695188,0.001643035,0.030932352,-0.01567083,0.031570677,0.01052226,0.0069250353,-0.004474214,-0.011409468,-0.008628701,0.012144695,-0.014778231,0.024763655,0.03669,-0.034526993,-0.0020993908,0.018849323,-0.027169071,-0.018920505,-0.008473498,-0.0146230655,0.015875293,0.045293946,-0.001290862,-0.0034356257,-0.05010547,-0.012610732,0.008410752,-0.018333659,-0.018133795,-0.020550698,0.080536075,-0.0009114553,-0.0025893562,0.011497058,0.03468219,-0.04302946,-0.03255896,0.0037060273,-0.028752886,-0.0116791045,0.0027030897,0.04185792,-0.032921553,0.009263725,-0.03432953,0.061973833
