song_id,image_emb_0,image_emb_1,image_emb_2,image_emb_3,image_emb_4,image_emb_5,image_emb_6,image_emb_7,image_emb_8,image_emb_9,image_emb_10,image_emb_11,image_emb_12,image_emb_13,image_emb_14,image_emb_15,image_emb_16,image_emb_17,image_emb_18,image_emb_19,image_emb_20,image_emb_21,image_emb_22,image_emb_23,image_emb_24,image_emb_25,image_emb_26,image_emb_27,image_emb_28,image_emb_29,image_emb_30,image_emb_31,image_emb_32,image_emb_33,image_emb_34,image_emb_35,image_emb_36,image_emb_37,image_emb_38,image_emb_39,image_emb_40,image_emb_41,image_emb_42,image_emb_43,image_emb_44,image_emb_45,image_emb_46,image_emb_47,image_emb_48,image_emb_49,image_emb_50,image_emb_51,image_emb_52,image_emb_53,image_emb_54,image_emb_55,image_emb_56,image_emb_57,image_emb_58,image_emb_59,image_emb_60,image_emb_61,image_emb_62,image_emb_63,image_emb_64,image_emb_65,image_emb_66,image_emb_67,image_emb_68,image_emb_69,image_emb_70,image_emb_71,image_emb_72,image_emb_73,image_emb_74,image_emb_75,image_emb_76,image_emb_77,image_emb_78,image_emb_79,image_emb_80,image_emb_81,image_emb_82,image_emb_83,image_emb_84,image_emb_85,image_emb_86,image_emb_87,image_emb_88,image_emb_89,image_emb_90,image_emb_91,image_emb_92,image_emb_93,image_emb_94,image_emb_95,image_emb_96,image_emb_97,image_emb_98,image_emb_99,image_emb_100,image_emb_101,image_emb_102,image_emb_103,image_emb_104,image_emb_105,image_emb_106,image_emb_107,image_emb_108,image_emb_109,image_emb_110,image_emb_111,image_emb_112,image_emb_113,image_emb_114,image_emb_115,image_emb_116,image_emb_117,image_emb_118,image_emb_119,image_emb_120,image_emb_121,image_emb_122,image_emb_123,image_emb_124,image_emb_125,image_emb_126,image_emb_127,image_emb_128,image_emb_129,image_emb_130,image_emb_131,image_emb_132,image_emb_133,image_emb_134,image_emb_135,image_emb_136,image_emb_137,image_emb_138,image_emb_139,image_emb_140,image_emb_141,image_emb_142,image_emb_143,image_emb_144,image_emb_145,image_emb_146,image_emb_147,image_emb_148,image_emb_149,image_emb_150,image_emb_151,image_emb_152,image_emb_153,image_emb_154,image_emb_155,image_emb_156,image_emb_157,image_emb_158,image_emb_159,image_emb_160,image_emb_161,image_emb_162,image_emb_163,image_emb_164,image_emb_165,image_emb_166,image_emb_167,image_emb_168,image_emb_169,image_emb_170,image_emb_171,image_emb_172,image_emb_173,image_emb_174,image_emb_175,image_emb_176,image_emb_177,image_emb_178,image_emb_179,image_emb_180,image_emb_181,image_emb_182,image_emb_183,image_emb_184,image_emb_185,image_emb_186,image_emb_187,image_emb_188,image_emb_189,image_emb_190,image_emb_191,image_emb_192,image_emb_193,image_emb_194,image_emb_195,image_emb_196,image_emb_197,image_emb_198,image_emb_199,image_emb_200,image_emb_201,image_emb_202,image_emb_203,image_emb_204,image_emb_205,image_emb_206,image_emb_207,image_emb_208,image_emb_209,image_emb_210,image_emb_211,image_emb_212,image_emb_213,image_emb_214,image_emb_215,image_emb_216,image_emb_217,image_emb_218,image_emb_219,image_emb_220,image_emb_221,image_emb_222,image_emb_223,image_emb_224,image_emb_225,image_emb_226,image_emb_227,image_emb_228,image_emb_229,image_emb_230,image_emb_231,image_emb_232,image_emb_233,image_emb_234,image_emb_235,image_emb_236,image_emb_237,image_emb_238,image_emb_239,image_emb_240,image_emb_241,image_emb_242,image_emb_243,image_emb_244,image_emb_245,image_emb_246,image_emb_247,image_emb_248,image_emb_249,image_emb_250,image_emb_251,image_emb_252,image_emb_253,image_emb_254,image_emb_255,image_emb_256,image_emb_257,image_emb_258,image_emb_259,image_emb_260,image_emb_261,image_emb_262,image_emb_263,image_emb_264,image_emb_265,image_emb_266,image_emb_267,image_emb_268,image_emb_269,image_emb_270,image_emb_271,image_emb_272,image_emb_273,image_emb_274,image_emb_275,image_emb_276,image_emb_277,image_emb_278,image_emb_279,image_emb_280,image_emb_281,image_emb_282,image_emb_283,image_emb_284,image_emb_285,image_emb_286,image_emb_287,image_emb_288,image_emb_289,image_emb_290,image_emb_291,image_emb_292,image_emb_293,image_emb_294,image_emb_295,image_emb_296,image_emb_297,image_emb_298,image_emb_299,image_emb_300,image_emb_301,image_emb_302,image_emb_303,image_emb_304,image_emb_305,image_emb_306,image_emb_307,image_emb_308,image_emb_309,image_emb_310,image_emb_311,image_emb_312,image_emb_313,image_emb_314,image_emb_315,image_emb_316,image_emb_317,image_emb_318,image_emb_319,image_emb_320,image_emb_321,image_emb_322,image_emb_323,image_emb_324,image_emb_325,image_emb_326,image_emb_327,image_emb_328,image_emb_329,image_emb_330,image_emb_331,image_emb_332,image_emb_333,image_emb_334,image_emb_335,image_emb_336,image_emb_337,image_emb_338,image_emb_339,image_emb_340,image_emb_341,image_emb_342,image_emb_343,image_emb_344,image_emb_345,image_emb_346,image_emb_347,image_emb_348,image_emb_349,image_emb_350,image_emb_351,image_emb_352,image_emb_353,image_emb_354,image_emb_355,image_emb_356,image_emb_357,image_emb_358,image_emb_359,image_emb_360,image_emb_361,image_emb_362,image_emb_363,image_emb_364,image_emb_365,image_emb_366,image_emb_367,image_emb_368,image_emb_369,image_emb_370,image_emb_371,image_emb_372,image_emb_373,image_emb_374,image_emb_375,image_emb_376,image_emb_377,image_emb_378,image_emb_379,image_emb_380,image_emb_381,image_emb_382,image_emb_383,image_emb_384,image_emb_385,image_emb_386,image_emb_387,image_emb_388,image_emb_389,image_emb_390,image_emb_391,image_emb_392,image_emb_393,image_emb_394,image_emb_395,image_emb_396,image_emb_397,image_emb_398,image_emb_399,image_emb_400,image_emb_401,image_emb_402,image_emb_403,image_emb_404,image_emb_405,image_emb_406,image_emb_407,image_emb_408,image_emb_409,image_emb_410,image_emb_411,image_emb_412,image_emb_413,image_emb_414,image_emb_415,image_emb_416,image_emb_417,image_emb_418,image_emb_419,image_emb_420,image_emb_421,image_emb_422,image_emb_423,image_emb_424,image_emb_425,image_emb_426,image_emb_427,image_emb_428,image_emb_429,image_emb_430,image_emb_431,image_emb_432,image_emb_433,image_emb_434,image_emb_435,image_emb_436,image_emb_437,image_emb_438,image_emb_439,image_emb_440,image_emb_441,image_emb_442,image_emb_443,image_emb_444,image_emb_445,image_emb_446,image_emb_447,image_emb_448,image_emb_449,image_emb_450,image_emb_451,image_emb_452,image_emb_453,image_emb_454,image_emb_455,image_emb_456,image_emb_457,image_emb_458,image_emb_459,image_emb_460,image_emb_461,image_emb_462,image_emb_463,image_emb_464,image_emb_465,image_emb_466,image_emb_467,image_emb_468,image_emb_469,image_emb_470,image_emb_471,image_emb_472,image_emb_473,image_emb_474,image_emb_475,image_emb_476,image_emb_477,image_emb_478,image_emb_479,image_emb_480,image_emb_481,image_emb_482,image_emb_483,image_emb_484,image_emb_485,image_emb_486,image_emb_487,image_emb_488,image_emb_489,image_emb_490,image_emb_491,image_emb_492,image_emb_493,image_emb_494,image_emb_495,image_emb_496,image_emb_497,image_emb_498,image_emb_499,image_emb_500,image_emb_501,image_emb_502,image_emb_503,image_emb_504,image_emb_505,image_emb_506,image_emb_507,image_emb_508,image_emb_509,image_emb_510,image_emb_511,image_emb_512,image_emb_513,image_emb_514,image_emb_515,image_emb_516,image_emb_517,image_emb_518,image_emb_519,image_emb_520,image_emb_521,image_emb_522,image_emb_523,image_emb_524,image_emb_525,image_emb_526,image_emb_527,image_emb_528,image_emb_529,image_emb_530,image_emb_531,image_emb_532,image_emb_533,image_emb_534,image_emb_535,image_emb_536,image_emb_537,image_emb_538,image_emb_539,image_emb_540,image_emb_541,image_emb_542,image_emb_543,image_emb_544,image_emb_545,image_emb_546,image_emb_547,image_emb_548,image_emb_549,image_emb_550,image_emb_551,image_emb_552,image_emb_553,image_emb_554,image_emb_555,image_emb_556,image_emb_557,image_emb_558,image_emb_559,image_emb_560,image_emb_561,image_emb_562,image_emb_563,image_emb_564,image_emb_565,image_emb_566,image_emb_567,image_emb_568,image_emb_569,image_emb_570,image_emb_571,image_emb_572,image_emb_573,image_emb_574,image_emb_575,image_emb_576,image_emb_577,image_emb_578,image_emb_579,image_emb_580,image_emb_581,image_emb_582,image_emb_583,image_emb_584,image_emb_585,image_emb_586,image_emb_587,image_emb_588,image_emb_589,image_emb_590,image_emb_591,image_emb_592,image_emb_593,image_emb_594,image_emb_595,image_emb_596,image_emb_597,image_emb_598,image_emb_599,image_emb_600,image_emb_601,image_emb_602,image_emb_603,image_emb_604,image_emb_605,image_emb_606,image_emb_607,image_emb_608,image_emb_609,image_emb_610,image_emb_611,image_emb_612,image_emb_613,image_emb_614,image_emb_615,image_emb_616,image_emb_617,image_emb_618,image_emb_619,image_emb_620,image_emb_621,image_emb_622,image_emb_623,image_emb_624,image_emb_625,image_emb_626,image_emb_627,image_emb_628,image_emb_629,image_emb_630,image_emb_631,image_emb_632,image_emb_633,image_emb_634,image_emb_635,image_emb_636,image_emb_637,image_emb_638,image_emb_639,image_emb_640,image_emb_641,image_emb_642,image_emb_643,image_emb_644,image_emb_645,image_emb_646,image_emb_647,image_emb_648,image_emb_649,image_emb_650,image_emb_651,image_emb_652,image_emb_653,image_emb_654,image_emb_655,image_emb_656,image_emb_657,image_emb_658,image_emb_659,image_emb_660,image_emb_661,image_emb_662,image_emb_663,image_emb_664,image_emb_665,image_emb_666,image_emb_667,image_emb_668,image_emb_669,image_emb_670,image_emb_671,image_emb_672,image_emb_673,image_emb_674,image_emb_675,image_emb_676,image_emb_677,image_emb_678,image_emb_679,image_emb_680,image_emb_681,image_emb_682,image_emb_683,image_emb_684,image_emb_685,image_emb_686,image_emb_687,image_emb_688,image_emb_689,image_emb_690,image_emb_691,image_emb_692,image_emb_693,image_emb_694,image_emb_695,image_emb_696,image_emb_697,image_emb_698,image_emb_699,image_emb_700,image_emb_701,image_emb_702,image_emb_703,image_emb_704,image_emb_705,image_emb_706,image_emb_707,image_emb_708,image_emb_709,image_emb_710,image_emb_711,image_emb_712,image_emb_713,image_emb_714,image_emb_715,image_emb_716,image_emb_717,image_emb_718,image_emb_719,image_emb_720,image_emb_721,image_emb_722,image_emb_723,image_emb_724,image_emb_725,image_emb_726,image_emb_727,image_emb_728,image_emb_729,image_emb_730,image_emb_731,image_emb_732,image_emb_733,image_emb_734,image_emb_735,image_emb_736,image_emb_737,image_emb_738,image_emb_739,image_emb_740,image_emb_741,image_emb_742,image_emb_743,image_emb_744,image_emb_745,image_emb_746,image_emb_747,image_emb_748,image_emb_749,image_emb_750,image_emb_751,image_emb_752,image_emb_753,image_emb_754,image_emb_755,image_emb_756,image_emb_757,image_emb_758,image_emb_759,image_emb_760,image_emb_761,image_emb_762,image_emb_763,image_emb_764,image_emb_765,image_emb_766,image_emb_767
38fcebd3-1368-4afb-afe2-b7edaf8c29b0,0.0256116036,0.00592108723,0.0132952919,-0.0328650512,0.0164815132,0.00130939449,0.0165896788,-0.00919481926,0.0378076509,-0.0020887698,-0.0191764049,-0.00234676246,0.0246199667,-0.00128034432,0.0164020509,0.0118906386,0.0258388743,0.0359370075,-0.0191121232,-0.0165972058,-0.00785908569,-0.00777031574,-0.0142469183,0.0115950014,0.0176312737,-0.0139481509,-0.0212113392,0.0167990159,0.00283366954,0.012455429,-0.00244370382,0.0439195037,-0.00163238146,-0.0129396748,0.0223264564,0.0393105745,-0.0351716802,-0.0581709519,-0.0299225654,-0.0197167266,5.76560378e-05,-0.106059141,-0.00205046195,-0.0440437943,0.0151225766,-0.0194982812,0.00755502656,-0.0278861038,-0.0688417479,0.0253811013,-0.00512652751,0.0146983201,-0.0150471609,-0.0696166605,-0.00849446002,0.00588639267,0.00947060436,-0.0127711026,0.00934477895,-0.0418784544,0.00344828446,0.00642654207,-0.0562059022,-0.0135815069,0.0152263809,-0.0357009806,-0.00154272816,0.0102274101,0.0115821147,0.0108948443,0.0114221908,-0.0215482563,0.0195692629,-0.00194936362,-0.0673077777,-0.0152469762,0.0374219492,0.00073058228,0.0381680578,-0.0156254489,-0.0139170764,0.0245459974,-0.0629685894,-0.0214256924,-0.0120672695,0.0174152646,-0.0260986257,0.00533277728,0.0182493981,0.00586367259,0.00328579475,-0.0246072281,0.00326679274,-0.00876418781,-0.0147095723,-0.0429234691,0.0130716143,0.00300417328,-0.00346075441,-0.0242227558,-0.00144365209,-0.00914595649,-0.104118474,0.015185846,-0.0223935824,0.00326816994,0.0172013845,-0.00550373504,-0.0025934265,-0.00622750446,-0.0115426965,0.0150891449,0.035519626,-0.0764061585,-0.00733969361,0.0445456803,0.00204079272,0.00703207357,-0.00621794956,-0.0128191803,-0.00152187061,0.0273457151,-0.0441936143,-0.000971867412,0.00563841872,-0.00786915328,-0.0155879483,-0.0272376854,0.0258117206,-0.0102815749,0.000152387176,-0.000481603085,0.00423270138,-0.032853473,-0.0401604697,0.0225580782,-0.0137411188,-0.0344481468,-0.00953662395,0.00708354916,0.113950454,0.0174752604,-0.0274001043,-0.00287524913,-0.0118173677,-0.0335674547,0.0342317298,0.0247762036,-0.00287561328,-0.0762415007,-1.62557772e-05,-0.0010743062,-0.062478248,0.00798168592,0.0480400734,-0.0155004887,-0.0122668492,-0.0491758548,-0.0231371485,-0.0212555826,0.0195953101,0.0432239249,-0.0355156623,0.0258698631,0.0230268538,-0.0398098975,-0.00573194632,0.019565925,-0.0411201008,0.015295513,-0.00849675573,0.0091423858,0.02024379,-0.00896078441,-0.00825640187,0.00173234707,-0.001882429,-0.00349712675,0.036382135,0.0202938337,0.00950869359,0.0274522677,-0.00477187615,-0.00689939829,0.0183782075,-0.0104744742,0.0130878957,0.0512902886,-0.0536804684,-0.00280460296,0.017939169,0.0026703584,-0.0168362632,0.0475938395,-0.0167507976,-0.0106058586,-0.00409260346,-0.00109454384,-0.0121559044,0.0195108522,-0.00248225825,0.020032892,0.0122619998,-0.0140648661,-0.00129976741,-0.00355944829,0.0231891479,-0.0236024018,-0.00803186186,-0.021288557,-0.036331445,0.0184930246,0.00573661039,0.00805721618,0.0122764567,0.397443295,0.010146223,-0.000339220307,-0.00574277388,-0.00523144752,0.0296926461,0.019566264,-0.0164502431,0.00791187026,0.107127666,0.0181199946,-0.00457756314,-0.00977243669,0.00348338159,0.0101863984,0.0120741772,0.0219725464,-0.0610860623,0.0113147683,0.0210772417,-0.00305751641,-0.0115483422,-0.00989428721,-0.00302489591,-0.0322135389,0.0323596895,-0.0161577873,0.521609008,0.0298027936,-0.02141314,-0.0152782202,-0.0134396963,7.30117063e-06,0.00894481875,-0.00457944209,-0.0107620927,0.0143472236,-0.033759553,0.00921636727,-0.0239050314,0.000723602076,0.024588624,-3.95080897e-05,-0.0365415886,-0.0036357278,-0.0207243618,0.00160701701,-0.0385290831,0.000189233426,-0.0190891866,0.0460186489,-0.000417386444,0.00351140043,0.0113574332,-0.00963766873,0.00156349433,-0.0526294187,0.0103225596,0.0281016864,0.0222913045,-0.0180080608,0.0325059965,-0.00559442304,0.00408145739,0.00486313086,0.0338105932,-0.0109278969,-0.0180761293,0.0358405858,0.00842699967,0.0209684744,-0.0231514499,-0.00293229939,0.0248950273,-0.0549423583,0.0164768808,0.0198807511,-0.0185507406,0.0360163003,0.0115791559,-0.00713758962,-0.0145777725,-0.00859831832,-0.00702535361,-0.019274937,-0.00606073858,0.0436738841,-0.0332624651,0.0348082595,0.026435636,-0.0138737056,-0.000707767205,0.00335519062,0.0104268389,0.0269876868,0.00200977479,-0.0185533334,0.0220236946,0.0127323559,0.0227066074,-0.00723536685,0.0190571696,0.0569608249,-0.0164638907,-0.0565884262,-0.0287257824,0.0399557762,-0.0253865011,-0.0196640212,-0.021025816,-0.0463705249,0.00656858692,-0.00282590743,-0.0213886965,-0.0244236384,0.00958315562,0.0175235998,0.0358831808,0.000342170941,-0.0176771618,0.0060286154,0.0250335801,0.00240901811,-0.00278748223,0.00941733923,-0.0151514532,0.0553574152,0.053153798,-0.0378438085,0.0119982427,0.0225120597,0.0109951552,0.0013548024,0.0492182896,-0.0131903943,-0.0158534236,-0.0238556415,0.0207333211,0.00459292904,-0.0116235493,-0.00675711269,0.00418149447,0.0079092579,-0.0226125326,-0.00482100062,0.0168068521,-0.0435191281,0.0504809134,0.00382444193,-0.0135120312,0.00220774091,-0.00106882444,0.0229530185,0.00557884574,0.0073432466,7.31584878e-05,-1.68005081e-05,0.0382907689,-0.0206331573,0.0326165631,-0.0313759074,-0.0160871986,-0.00824028812,-0.0143033713,0.0240458101,0.0682093725,0.00842424668,-0.000535387604,-0.0116900792,-0.0422679111,-0.00147287175,0.0140328957,-0.00840565469,0.0221635811,0.00596394669,-0.000276145234,0.0161586069,0.0120783132,0.0196142122,-0.0202860702,-0.00545988511,0.00390096754,-0.0121100713,-0.00139991217,-0.0213241316,0.0042463243,0.096729964,-0.0336339399,-0.0176253617,-0.0116944602,-0.0186336432,-0.0261695534,0.00491202343,0.0808836147,0.00261368044,0.00373714766,-0.0043834378,0.0157497656,0.00591949234,0.0232123118,-0.0159995966,0.013567701,0.0022805559,0.0394265838,-0.020704573,0.088711068,-0.000972248847,0.0332580619,0.0180205554,0.0412513949,0.0116894059,0.0460744165,0.032680586,-0.0439102873,0.030176023,-0.00390590774,0.00173438562,0.0385637209,0.0193623323,0.0403590426,0.0353551246,0.0242594033,0.00565974042,0.00402393471,0.0131532047,0.0135123003,-0.00533771142,-0.0143622849,0.0321557149,-0.0153152263,-0.0059435782,0.0284712799,-0.0185040049,-4.29464199e-05,-0.0107871583,-0.00696429471,-0.0104136411,0.000964151579,-0.0254870225,-0.000559277483,-0.00942813698,0.0195665695,-0.0173308533,-0.0290111601,-0.0744772553,-0.0278021246,0.0158239212,0.0349583663,-0.0599468052,0.0198226441,-0.00445517944,-0.00958366692,0.0448097102,0.0289424174,0.0167568568,0.0112785921,0.00113720144,-0.00362659176,-0.0457398184,0.0114562074,0.00213609869,-0.0153231807,-0.00484936824,-0.0788773894,0.00911657233,-0.0211579967,-0.00739707565,-0.0224548765,0.0215805918,-0.0349457338,0.00764908176,-0.0182127003,0.0111548882,0.000438504096,-0.0746979415,-0.00321078766,0.0522819683,0.00152659498,0.0017266596,0.0191355012,0.0159957744,-0.0181655176,0.0222406108,0.0185819417,-0.0251110382,-0.0257152412,0.0171196088,-0.0171384607,0.0274747331,-0.14080134,-0.0212375633,-0.0207858067,-0.00170018699,0.00152026245,0.0187483206,0.00507827569,0.017901551,0.00497728027,-0.00875273626,-0.0224469099,-0.0183528252,-0.00109264755,0.0229239222,0.000920375576,-0.00737241888,-0.00917267054,-0.0311180931,0.0772987828,0.0181959383,-0.00473626563,-0.0274710506,0.00206579408,0.00307893916,-0.012312362,0.043319542,-0.0031629384,0.035518568,0.0325375125,0.0352895372,0.0213687047,-3.92230395e-05,0.0213726647,0.000594523037,0.0083218785,0.0081570996,0.0207983945,0.0253697056,0.0175814629,-0.0157734044,-0.0159218088,0.00604056939,0.0267794263,0.0189445447,-0.00276049599,0.0494221263,-0.000123628808,0.00447121495,-0.0531488508,0.0213659126,0.0147871962,-0.0152690168,0.0843201205,-0.0403204411,0.0358509868,-0.00357558974,-0.0219122618,0.00573163712,-0.0162291527,0.0135353776,-0.016294729,-0.0250407327,-0.0141610112,-0.00974787958,0.00440295134,-0.00393737154,-0.0310811736,-0.0304008983,-0.00594170485,0.00757644791,0.00983673427,-0.00829840451,-0.00956983678,0.0105634741,0.00553328497,-0.0343380906,-0.025754109,0.0311720762,0.00441550929,-0.0159189012,-0.00799944252,-0.0141949551,-0.0326189734,0.0146751562,0.0222060699,-0.0179302618,-0.0311990306,-0.0221409537,0.014581684,-0.00368628791,-0.046526663,0.027790783,0.021153545,0.00814680383,0.0134439887,-0.0189350098,-0.0654935241,0.0323253758,0.0112077538,-0.00498253666,0.0020508212,-0.031442076,-0.0116899805,0.0252505485,0.0468450747,0.0166323632,0.018325327,-0.00839362852,-0.0616004542,-0.00643410394,0.00907172728,-0.0270195287,0.0237194281,-0.00181190134,0.00611291034,-0.026094364,0.0071609891,0.0420461632,0.000107365027,-0.00928675476,-0.0176388565,0.0240903907,-0.0526720136,0.0198365897,-0.0257765073,-0.0148294624,0.0838148147,-0.109326929,0.0222620666,-0.00741339289,-0.000663863379,0.00931239035,-0.0155073758,0.00831936114,0.0143117364,-0.0314595103,0.0487515293,-0.0394717231,0.00528550986,-0.0238371119,0.00156326615,0.00449560443,0.011760952,-0.00715822773,-0.00130337058,-0.0461851619,-0.0118220011,-0.000733840745,-0.0533976965,-0.0408093631,0.00893186219,-0.0420690961,0.0104808705,0.00238081533,0.00500269374,-0.0145697547,0.0129706673,-0.00553773949,-0.0458727255,0.00195073953,0.0191598888,-0.0357595682,0.0296505131,0.0202903617,-0.0710242912,-0.072854206,0.00423712889,0.00314332475,-0.0473063961,0.0214650277,-0.0314003751,-0.0196495131,0.0206614956,0.0171528682,-0.0380192809,-0.0104214586,-0.0120195942,0.0332370214,-0.0166990645,-0.0693558902,0.0247490332,-0.00585500291,0.0058819619,0.0254264157,-0.0115117598,0.0155814122,0.107606456,0.0179164428,0.016299326,-0.00854453258,-0.0252815969,0.0173432995,-0.025698714,0.010001462,-0.0269246772,0.0319107883,0.0242424328,0.0129647236,-0.0373413712,-0.0126110064,-0.0306851845,0.00106694316,0.0270843394,0.0328206643,0.00913305115,-0.0134502286,-0.000189710219,0.0121317031,-0.00117168075,0.00959953293,0.0318621807,-0.00686648488,-0.0260959417,-0.0121466834,-0.00559645519,0.0167398285,-0.00192024885,-0.013131761,0.0128348814,0.00429051835,0.0224349871,0.0100878887,0.01074987,-0.0128615247,0.0564401336,-0.0174658149,-0.0244597271,-0.00325614121,-0.0186793115,0.0287453216,0.0299979653,0.000466565165,0.0194642898,-0.0175910853,-0.00420620292,-0.00120977685,-0.053206522,0.0119726378,0.0111656981,-0.0265983082,0.0221170317,-0.00255934359,0.012070382,0.0287455078,-0.0208202489,0.0341480933,-0.00661940174,-0.0142828189,0.0571262352,0.0079386523,0.0359698981,0.00893171877,0.0108949337,0.0250733886,0.0173170902,-0.0162443072,-0.00586790917,-0.0374864601,-0.0263208393,-0.011726304,-0.0303690173,-0.00295413774,-0.0258730873,0.0558008887
020d124a-eeb4-4c3a-8f6b-9f1f7dddeb5c,0.0109973671,-0.00688426942,-0.00256719813,0.0146408137,0.0395364203,0.00804951135,0.0563458018,-0.00227242638,0.00199852372,-0.0306357834,0.043006517,0.00666593481,-0.00223971205,-0.0163581874,0.00783860404,0.00265698461,-0.00613738177,-0.00752287824,0.00866426621,-0.0164366681,0.00371891679,0.0175090767,-0.00585885625,0.0551137179,0.0341271944,-0.00620778371,-0.0111583648,-0.015208194,0.00343414256,-0.00212094141,-0.0388362594,0.0032362598,0.013329776,-0.0188454781,0.0260247327,0.0323541723,0.0104036443,-0.0344756804,-0.0323919579,-0.0317028016,-0.0260005519,-0.0696722865,0.0020842771,-0.0108869998,0.00466303481,-0.0540462546,0.0239071567,-0.00978692807,-0.0792273656,0.00780551042,-0.00979853608,0.0122464737,-0.00785473455,-0.077510044,-0.0177796669,-0.00960897841,-0.00101184053,-0.0246228818,0.0114813913,-0.0153939789,0.0192086231,-0.0420272909,-0.0129570626,0.0234257057,0.00136463833,-0.0509530865,-0.00922165904,0.0347617306,0.00551417237,0.0167192481,-0.018662909,-0.0446661375,-0.0296164472,-0.0182243958,0.0297039039,0.00794643257,0.00906268228,0.0185394417,-0.0180115458,-0.0356606543,-0.0380937979,-0.00481790956,-0.0617995262,-0.0595348813,0.00318221166,-0.0312405843,0.00931929704,-0.0380151495,0.0128586115,-0.00514607225,-0.00661153812,0.00813504402,-0.00900960341,0.0182018932,-0.0342405625,0.0211123005,0.0501126312,0.000778397662,-0.0163473692,0.00628770469,-0.0204417817,-0.0156731401,-0.0246472191,0.000817689637,-0.0173130929,-0.0306921173,0.0151884919,-0.0210625716,0.00376068638,-0.0147850867,-0.00619322853,0.0427702293,0.0142585365,-0.0473211333,3.31914707e-05,-0.00602681097,0.00327573926,-0.0372872278,0.00911049265,-0.0388245098,-0.0429585204,-0.00703494437,-0.0639754683,0.0463524312,0.031473022,0.00940966327,-0.0173639711,0.0238334555,-0.00870410725,-0.0416959375,-0.0120644607,0.0129411966,-0.00594564248,0.0200418737,-0.0558474846,0.0245377179,-0.041806709,0.0182703752,0.0277221147,0.0168123785,0.0328056365,0.0140242595,-0.0313113295,-0.0226757079,0.0130990352,-0.0023851525,0.0419643149,0.00815600995,0.0170844682,-0.0793255046,0.0123744151,-0.00148732448,-0.0546971262,0.0300617553,-0.0223930329,0.0136283897,0.00549763162,-0.0696574301,-0.0241004974,-0.0197233129,-0.024741685,-0.000201367191,0.0113181639,0.0128883123,0.0240947343,0.00859595835,-0.05652491,0.00622950913,-0.0081223147,0.0419874489,-0.0385664292,-0.0077646384,-0.00576750981,-0.015641382,-0.00340671674,0.0150027517,-0.0232419483,-0.0117552914,0.0256871898,-0.0515601076,-0.0017876731,0.0245454125,0.0194121394,0.0248682853,0.0470117107,-0.0365672782,0.0858412832,-0.0146187386,-0.0618398078,0.00328120333,0.000909284339,-0.0028965082,0.0718422085,0.0406383276,0.0428111851,-0.022221636,-0.0285863709,0.067491971,-0.0212095287,0.0333702601,-0.0183366574,0.0199839901,-0.014616264,-0.0493659973,-0.0132940346,-0.0102964425,-0.0067826435,-0.00230437005,0.00141367363,-0.0528679118,-0.0560668744,-0.0308859888,-0.00522938836,-0.0248974673,-0.03157188,0.311548978,0.0226423144,-0.00730958208,0.0215726625,0.0204317886,0.00468398584,0.0422235876,-0.000353708921,-0.00296080974,0.116336778,0.00784184691,0.0426690057,0.0022074068,-0.00743540423,-0.0200154744,0.021290632,0.00984674785,-0.0492263101,-0.0270788521,0.0108823357,-0.00153150514,1.45118802e-05,-0.00455775019,0.0232784115,-0.0796364099,0.0435077734,-0.0500934161,0.50169462,0.0321930982,-0.00808809698,-0.00724027585,-0.00752132665,-0.00908099581,-0.0127821043,0.0164278541,0.0248744227,-0.0220363699,-0.0541829318,0.0343716778,0.0217167344,-0.0368996784,-0.0178358871,-0.0341141336,0.0314249396,-0.0229514297,0.0476687811,-0.00657678721,-0.0486690179,-0.00165891985,-0.0299788006,0.0349417105,0.0189127717,-0.0322232917,0.00112088094,-0.0118417721,0.0107842023,-0.011890132,0.025729062,0.0330854021,0.0038912273,-0.0122590736,-0.00864389353,0.0142778112,0.0143917901,-0.0376960002,0.0264633782,-0.00832679775,0.00107972627,0.0377542675,0.039641913,0.0133043369,-0.0429801084,0.00669103954,0.015278996,0.0396000408,0.00461587775,-0.0434404537,0.00115666876,0.0179765113,0.0284458008,-0.035197448,0.0178492088,-0.012464609,0.0175469033,-0.00378001994,-0.00201712153,-0.00650142273,0.00575911999,-0.0111042755,-0.00353483111,-0.00659671007,-0.00063492445,-0.0245545432,-0.0550936908,-0.0361864865,0.0105174966,-0.0406991243,0.0194312856,-0.0556679927,0.00433778437,0.029751651,0.00329362578,0.018159233,-0.000797790301,-0.125407755,-0.00475231372,0.0395700783,0.00531174429,-0.00180375797,-0.00201746169,-0.0170073621,0.00948922802,0.0276138075,-0.0079368148,-0.0601983033,-0.0735822991,-0.0222556647,0.0308585484,0.0135830501,0.0219948161,0.00300957449,0.0127049154,-0.0108927395,-0.0146864532,-0.0226958115,-0.001610704,-0.00846962165,-0.0548817329,0.00310948631,0.0519820675,0.0591515191,0.00970309041,-0.0589105748,-0.0143945105,-0.0471518971,0.00875599217,-0.0290268827,0.00453248667,-0.0185130704,-0.0109276865,-0.0210052542,0.0343921073,-0.0513574369,0.000679313438,-0.00142460375,0.0123414593,-0.0292588882,0.00581675489,-0.00456720823,-0.0189048871,-0.0189645868,-0.0480349362,-0.013021755,-0.0353130512,0.0177393425,0.00515880482,0.0141848214,0.059379641,-0.0343604498,0.0369376354,-0.0489133745,-0.0239568595,-0.0198655166,0.020288052,0.00847131852,0.0270174183,0.0249687284,0.0106582642,0.0208605397,-0.0156189734,-0.0256857499,-0.040840134,0.0240682233,-0.000174192071,-0.0402104706,0.0413326211,-0.0124344332,0.000243316623,-0.0433217771,-0.00137519545,-0.0309672263,-0.0253457408,0.000282014429,0.00403573224,0.0295811109,-0.0281880628,-0.00838043261,0.00696498947,0.063937217,-0.0111016082,-0.0292845257,-0.0159746706,0.038285777,0.0152694061,0.0244132411,-0.0120171625,-0.0114047434,0.010658633,-0.027545033,0.0080984924,-0.0234263297,-0.000960938341,-0.0284878239,0.0343459286,0.0396754779,0.0151394857,0.0155679313,0.0809950307,-0.0112505071,0.00360315037,0.0357406475,0.000387893844,0.0071205101,0.0573880412,-0.0101965386,-0.00352423615,-0.00823201798,-0.0507904515,0.0357872881,0.0270566307,-0.00828585122,-0.01913983,0.0360631011,0.029055791,0.0050002127,-0.0469694212,-0.00827366021,-0.0345466994,0.0345214866,-0.00128157134,-0.0321806185,-0.0245617125,-0.00731586199,-0.0473497733,0.00543176755,0.0243273694,-0.00527564762,0.0366610996,-0.0352289751,-0.00853664801,-0.008242012,-0.00724753877,0.0237057041,0.0106374705,-0.0413421206,0.0181676988,0.00771497888,0.0372149721,0.0165145267,-0.0122396294,-0.054772988,-0.0615614876,0.00293755322,0.053290382,0.0212298967,-0.0256318785,-0.0089136716,-0.00135731464,-0.0415482335,-0.0446388125,0.0152543262,0.0439656042,-0.0132171204,-0.0179332234,0.0223661046,-0.00386620453,0.0567335561,0.0443634093,-0.0191375688,-0.0742025524,0.0185855292,0.015773721,-0.0113157695,-0.0251158755,-0.00791641511,0.0235104132,0.0454826094,-0.0310569685,0.0151209198,-0.0229854938,0.0261161122,-0.00539441919,0.0306522008,0.0260425694,-0.0466687381,-0.0146196038,0.0171622094,0.00565531198,0.0240720063,-0.0418449454,-0.00682289107,-0.0316270329,0.00298066135,-0.00293187588,-0.0176347233,-0.00185517478,0.0122442059,0.0116559956,0.00695026293,0.0218914822,0.0266424417,0.0206987821,0.023061879,0.0101945885,0.0741237551,0.00975141209,-0.0122639742,0.0353619456,0.0125313466,0.0193200652,0.00171682867,-0.0544988289,0.0321490392,0.0246638842,0.0428860635,-0.0243198182,0.0335920304,0.0196880493,-0.027497761,-0.00900381152,0.0066057872,0.0105906436,-0.0315790698,0.0241322126,0.00755735347,-0.00981754437,0.0421760082,-0.00507346354,0.0399982147,0.00130687142,0.00808593631,0.03914015,0.0389821529,-0.0190926827,0.0029446769,0.0142602446,-0.0133130476,-0.0142150233,0.00864054356,0.012768954,0.0263159852,0.103838898,-0.0188424084,0.0174646247,0.0116647789,0.00419170503,0.0330036283,-0.00095301267,-0.0109362397,-0.0215662308,-0.028699927,-0.00175250764,-0.0126703614,0.00852664281,-0.0230766144,0.0254411157,-0.00855004601,0.0224067681,0.0387930609,0.0355379134,-0.0504808165,-0.00694503402,-0.0669587255,0.0174285322,-0.043976564,-0.0205094256,0.0424942859,0.000119371434,0.0114612207,-0.0306428391,-0.0108245024,-0.0347459801,-0.0214746408,0.00886527449,0.00405311026,-0.00487122498,-0.0121674286,0.0113402456,-0.0265857372,-0.00941617694,2.18619025e-05,0.00600671489,-0.0131596755,0.00532068685,0.0180307832,-0.0049978029,0.0162472669,-0.0282980464,0.0173149612,0.0151625955,0.000166482234,0.028599564,-0.0272753946,0.00770383747,-0.0155073814,0.0480384566,-0.020792976,0.0883441269,0.00362585718,-0.00926988292,-0.0105543351,0.0103188166,0.0238316469,0.00539909257,-0.0123443939,-0.0149194887,-0.000393867464,-0.0161879864,-0.00984628219,-0.0259224921,-0.0055206148,-0.0828633159,0.0164987631,0.0174722895,-0.00974899251,0.0394273512,-0.0695768297,0.0204323065,-0.0365555249,0.0110767735,0.0135940518,0.0377920493,-0.0331522301,-0.0358138345,-0.0287568029,0.0185912512,-0.0524304174,0.0252885427,-0.073189117,0.0131293712,0.00344989239,-0.0364068374,-0.0357554816,-0.00710254209,-0.0344274826,-0.00917379279,-0.026549086,-0.0326626487,-0.0452563018,-0.013183292,-0.00953358598,0.0251038987,-0.0129822036,-0.00270331954,-0.00523237139,0.0201967862,-0.0134107955,-0.0755213946,-0.00337682315,-0.0292771868,-0.0184330232,0.032574594,-0.00915075466,-0.0086274296,-0.076558806,0.0234639794,0.0131291281,-0.0438506976,-0.00770686474,-0.00825917441,0.0310726557,0.0534421094,0.0186589509,0.00748392753,0.0171348602,-0.0119083775,-0.01345265,0.0153039647,-0.0474161357,0.0209679119,-0.0303451698,0.0309842639,-0.0117143458,0.0254748166,0.0164357889,0.0687422529,-0.0269210227,0.0097408779,0.0183884799,-0.00981751643,0.0973562673,-0.00657164492,0.00322333421,-0.0125927646,-0.037953414,0.0257416293,-0.0109796505,-0.0101245437,0.0192269497,-0.00474553835,-0.00449684402,0.00702141272,0.012087171,-0.0029370382,-0.034699101,-0.0430633649,0.0258513428,-0.00693484163,0.000517990906,0.0456736423,-0.0406760499,-0.00055248139,-0.0162830129,0.0372420028,0.0182208717,0.0170320831,-0.00812441017,0.0254011713,-0.0248964243,0.00726205716,0.0149514321,0.0265971739,0.0254852902,0.0796154812,-0.00102139404,-0.0227532946,-0.0349330083,-0.0139223067,0.0512356274,-0.0036837447,-0.0455482528,-0.0202523246,-0.00192082359,0.0159948971,0.0188820455,0.0206366498,0.0371618532,0.021465579,0.0054071229,0.000570338394,-0.0316437148,0.00910590682,0.0260974467,0.0101960478,0.00111900258,0.0291186888,-0.0578272417,0.00763381692,0.0362836421,0.015267686,0.000629381801,0.0114390794,-0.0527691841,0.0492763594,0.00731032807,0.0231121145,-0.0274302717,0.00114497531,-0.00716715027,-0.0101954341,0.00337565597,0.0091429567,0.0221650917
1a0ef1b8-5fe7-41dd-8ccf-9e24ba3e9fb7,0.0266195536,0.00392086525,0.0134632271,-0.0331630446,0.0162664484,0.000597231381,0.0156628452,-0.00998920109,0.0374355279,-0.00310395868,-0.0208667088,-0.00247698254,0.0248922091,-0.00148185843,0.0165889338,0.0102067385,0.0247317515,0.0373973846,-0.0184278451,-0.0169681069,-0.00749156112,-0.00937726069,-0.01480857,0.0116189411,0.0174829848,-0.0131502105,-0.0199561063,0.0156005751,0.00418702327,0.0130972778,-0.00206361338,0.0445227772,0.00172314874,-0.0133286119,0.0194819868,0.0396896414,-0.0361641794,-0.0591791645,-0.0302788317,-0.0201253276,-0.000909299008,-0.105749138,-0.00339643843,-0.0434477292,0.0146609545,-0.0201818552,0.00728186965,-0.0286524817,-0.0693143234,0.0240896568,-0.00374300429,0.0155835906,-0.0141704455,-0.0688237399,-0.00893350039,0.00733243488,0.00968033168,-0.0123919984,0.00940707792,-0.0439452715,0.00463250699,0.00553317042,-0.0551307835,-0.0135517307,0.0146299843,-0.0346757956,-0.0011377685,0.0117795393,0.0116609661,0.0118132858,0.0105634043,-0.019996848,0.0194572359,-0.0011185453,-0.0660675541,-0.0154903615,0.037707977,0.00132141111,0.0374315307,-0.0152735636,-0.0140716173,0.0247386731,-0.0628042072,-0.0213872269,-0.0120592071,0.0176957175,-0.0267951749,0.00624909159,0.0187834166,0.00547978329,0.00264946627,-0.0264127403,0.00348167168,-0.00912540965,-0.0132541889,-0.0417588204,0.0141744921,0.000430410524,-0.00308105024,-0.025057381,-0.00209370139,-0.00864225719,-0.105033666,0.0156669579,-0.0208086297,0.00295782671,0.0173741672,-0.00605354598,-0.00281228358,-0.00570966536,-0.0124776587,0.0153471595,0.0353605263,-0.0746391863,-0.00907346141,0.0450298227,0.00221049669,0.00652032578,-0.00540844165,-0.0128667038,4.51737287e-05,0.0271322392,-0.0447555035,-0.000563239388,0.00674920296,-0.0086792307,-0.0151158934,-0.0296000876,0.0261696521,-0.00995857082,0.000766859273,-0.00085358147,0.00402479758,-0.0337927863,-0.0396074317,0.0231840927,-0.0118771186,-0.0348999314,-0.00936448853,0.00668486627,0.111836888,0.0184221622,-0.0273268651,-0.00383809186,-0.0109085068,-0.0330984257,0.0356274135,0.0250053275,-0.00244226214,-0.0740580186,-0.000918483769,-0.00121784664,-0.0606886856,0.00847610552,0.0472234637,-0.0154811619,-0.012637577,-0.0497210696,-0.0236825962,-0.0206308048,0.0199907143,0.0423775315,-0.0366017148,0.0246947613,0.0227502026,-0.0399200134,-0.00445708726,0.020980211,-0.0396560654,0.0152921602,-0.00800282322,0.00833501294,0.0187449064,-0.00665274821,-0.008156945,0.000886924565,-0.00271502836,-0.0047166422,0.0340055265,0.0200899411,0.0092085097,0.0274221394,-0.00526868552,-0.00641987659,0.0175329633,-0.0100210989,0.0121574691,0.0504098758,-0.0523516685,-0.00164764514,0.0176017992,0.00276815472,-0.0176884159,0.0472688675,-0.0171022136,-0.00992385577,-0.00329931173,-0.00176846178,-0.0114688408,0.0197186004,-0.00194464356,0.0202390756,0.0123786032,-0.014588628,-0.000546950323,-0.0031819155,0.0226769727,-0.023244122,-0.00926388148,-0.0200066566,-0.0378797315,0.0189335607,0.00615096278,0.00957876164,0.0130858747,0.398993522,0.0107816523,0.000466159108,-0.00601090211,-0.0027398956,0.028503485,0.0206337143,-0.015907092,0.00662729517,0.107281767,0.0182932671,-0.00381479855,-0.0107175531,0.0030815939,0.0103129158,0.011921851,0.0214331895,-0.0618855208,0.0112887369,0.0207211114,-0.00314883748,-0.010207233,-0.0106690861,-0.00254984666,-0.0322352611,0.0339525528,-0.016955832,0.521428049,0.0287431944,-0.0238812603,-0.0161962174,-0.013673435,0.000699415745,0.00972287916,-0.00549383508,-0.0108114593,0.0146407029,-0.0325410813,0.008162627,-0.0235532038,0.000829205848,0.0250395555,-7.04440245e-05,-0.0383227095,-0.00466877734,-0.0205644704,0.00168439304,-0.0390817113,-7.99716072e-05,-0.0197658557,0.046370782,-0.00172242208,0.00568768522,0.0108367503,-0.0109356092,0.00294514117,-0.0523514375,0.00993312616,0.0283986721,0.0204756465,-0.0181025751,0.0321218409,-0.00495379791,0.00436601602,0.00496467343,0.0341293551,-0.010745178,-0.0187946241,0.0363108143,0.00783823244,0.0209100712,-0.022850154,-0.00281263585,0.0232140273,-0.0560149327,0.0172658265,0.0192447454,-0.0179692525,0.0364998281,0.0114589706,-0.00586997857,-0.0147990556,-0.0061618546,-0.00708800135,-0.019154219,-0.0061808466,0.0445104465,-0.0327882469,0.0336618684,0.0262406711,-0.015055473,-0.00153811555,0.00242177676,0.00812490564,0.0271044392,0.000847399759,-0.0184848551,0.0214189719,0.0138066318,0.0231084488,-0.00687866285,0.0189485643,0.0573732592,-0.0161198135,-0.0551126227,-0.0282944273,0.0383431613,-0.0255626515,-0.0210095625,-0.0204283129,-0.0463417359,0.00667470228,-0.0027408246,-0.0209998246,-0.0234030541,0.00989284273,0.0163360015,0.036250215,-0.000802857801,-0.0173496306,0.00501264399,0.0255098417,0.00189703575,-0.000580777007,0.0082790358,-0.0147853475,0.0551287606,0.0535010248,-0.0378405116,0.0123556228,0.0250835363,0.0120229376,0.000648562855,0.0474627055,-0.0143716885,-0.0149857365,-0.0236222968,0.0212248825,0.00581025565,-0.0110791698,-0.00573317055,0.00392902642,0.00623589521,-0.0219885409,-0.00557512883,0.0170484204,-0.0446953997,0.0525774509,0.00394080766,-0.0145465937,0.00243055029,-0.00099234411,0.022921836,0.0060876389,0.0083280867,-0.00023285007,0.000460494804,0.0379168764,-0.0199965201,0.0326907821,-0.0320094824,-0.0190780349,-0.00926177111,-0.0150979506,0.0245065466,0.0683855116,0.00707541546,-1.31706056e-05,-0.0132097946,-0.0443999395,-0.000105942643,0.0143063962,-0.00862902496,0.0230187904,0.00677717943,-6.76342388e-05,0.0156725813,0.0116672246,0.0187377166,-0.0190062765,-0.00395255443,0.00373483985,-0.0128606865,-0.00145016529,-0.0218694769,0.00464272453,0.0986986086,-0.0332204513,-0.0172876567,-0.0109522054,-0.0185771175,-0.0255395826,0.0058965818,0.0807949379,0.00279881503,0.00396676874,-0.00451573636,0.01550656,0.00486109266,0.0242536869,-0.0162156187,0.013710659,0.00151989306,0.0384649001,-0.0208324082,0.0886577368,0.000372751907,0.0327658653,0.0180225112,0.0408323333,0.0128377285,0.0465694033,0.0332220979,-0.0438400432,0.0304675996,-0.00318647921,0.00187990931,0.0383299068,0.0188068766,0.0399630629,0.0353381447,0.0254151244,0.00544030406,0.00487208366,0.0147952549,0.0142276138,-0.00507671805,-0.0148577867,0.0328934379,-0.016816318,-0.0056921253,0.0287337266,-0.0193425659,0.000613118173,-0.011360894,-0.00630812766,-0.0101953316,0.00188363018,-0.024293825,-0.000243266899,-0.0104992567,0.0199923404,-0.0170243084,-0.0299219899,-0.0749337375,-0.0266687144,0.0145475715,0.03245949,-0.0591376685,0.0204616711,-0.00552027719,-0.00970396772,0.0455956273,0.0289573446,0.0174970869,0.01148724,0.000516206608,-0.0030245157,-0.0455484875,0.0122997025,0.000862637768,-0.0148158167,-0.00518273003,-0.077845946,0.00928870495,-0.0207818784,-0.00721780583,-0.0216994267,0.0211991202,-0.0373362117,0.00843675248,-0.0190000646,0.0114612505,0.000400661229,-0.0718109012,-0.00353854639,0.0525879934,0.000493638159,0.00283846771,0.0195560604,0.0157540794,-0.0176983085,0.022696808,0.0174165498,-0.0244830158,-0.0259793885,0.0177436937,-0.0165110957,0.0284683518,-0.140914097,-0.0214691125,-0.020693887,-0.00219979975,0.0012679412,0.0202070531,0.006793648,0.0172270238,0.00424964074,-0.00845502503,-0.0212708656,-0.0185931791,-0.000813236402,0.0220364146,-0.000145545986,-0.00677012699,-0.00856787246,-0.0307079367,0.0768541321,0.01815762,-0.00422346173,-0.0288265385,0.000720241689,0.00342872646,-0.0115059186,0.0428674966,-0.00389248901,0.0360520892,0.0306985658,0.0358393937,0.0223026983,-0.00070257776,0.0212851018,0.000777039735,0.00727713387,0.0073747877,0.0206251647,0.026206689,0.017215861,-0.0143233053,-0.0161558166,0.0062299748,0.0277176201,0.0175511856,-0.00292480062,0.0485283732,-0.000456027861,0.00367597793,-0.0512248948,0.0227697305,0.0167617053,-0.0157395173,0.0790707842,-0.0404509716,0.0355832689,-0.00349220191,-0.0209829714,0.00587366382,-0.0161371455,0.0136334561,-0.0151929231,-0.024450656,-0.0143331159,-0.00954410993,0.00545871584,-0.00331010763,-0.0315981619,-0.0302394368,-0.00599953998,0.00586801441,0.0103684748,-0.00888912566,-0.00908164214,0.00936866738,0.00598083856,-0.0342568494,-0.024798682,0.0310226977,0.00340011972,-0.0166987479,-0.00816190988,-0.01476778,-0.0333203785,0.0152171822,0.0222816356,-0.0168559197,-0.0319258869,-0.0203232598,0.0143430131,-0.00348158577,-0.0472773984,0.0283174794,0.0210605096,0.00690025929,0.0132580763,-0.0187209621,-0.0639462993,0.0335546136,0.0110251931,-0.00521840388,0.00149663317,-0.0308043323,-0.0117591638,0.0264115706,0.0477982983,0.0179148968,0.018602293,-0.00922538899,-0.0645899475,-0.00615143077,0.00856960006,-0.0277677495,0.0239149239,-0.00295516313,0.0058761118,-0.0265009794,0.00742079737,0.0407214537,0.000371294766,-0.00887087919,-0.0181246214,0.0244618114,-0.0519095697,0.0187336318,-0.0244510751,-0.0148655167,0.0853865668,-0.111084178,0.0228945203,-0.00850809366,-0.000889447518,0.00894678012,-0.0156237511,0.00813020021,0.0140424194,-0.0291457772,0.048570402,-0.0396552794,0.00478097331,-0.024603663,0.00109782908,0.0056906878,0.0118845152,-0.00702047907,-0.00217257487,-0.0470735952,-0.0113355089,-0.0019571695,-0.053774327,-0.0409350842,0.00835724082,-0.0418943204,0.0109953359,0.00366384606,0.00430176919,-0.0151920123,0.0136544295,-0.00586967543,-0.0462571345,0.00273957336,0.0194060504,-0.0355501361,0.0291211456,0.0208101459,-0.0715437755,-0.0726102367,0.00427747704,0.00373427221,-0.0483991131,0.0216627643,-0.0312742256,-0.0182001144,0.0206786115,0.0167227127,-0.0369895473,-0.00885897875,-0.0136293778,0.0337880738,-0.0161543079,-0.0712743998,0.0251204446,-0.00545304036,0.00499030156,0.0266049076,-0.011671585,0.015497583,0.107260995,0.0170182697,0.0154649243,-0.00842716824,-0.0242175329,0.0184935741,-0.0239352603,0.00958096422,-0.0269338191,0.0320438519,0.0241744667,0.0123589756,-0.03655589,-0.0113069853,-0.0320955999,-0.000231665792,0.025338348,0.0321669318,0.0110232215,-0.0144444089,1.08334443e-05,0.0119166179,-0.000359432393,0.0107648671,0.0314508267,-0.00583957229,-0.0251011979,-0.011568699,-0.00516829593,0.0157436244,-0.00138681335,-0.0138582215,0.0135227283,0.00417730585,0.0229687169,0.00916273333,0.0104709622,-0.012484082,0.0575457364,-0.017767638,-0.0228789635,-0.00287257833,-0.0186649114,0.0283777174,0.0294521619,0.000588418858,0.0182022937,-0.0188480001,-0.00381693896,-0.0029097395,-0.0513603613,0.0126995724,0.0103580682,-0.0254780725,0.0226890445,-0.00233712606,0.0114488238,0.0272281244,-0.0213329829,0.0366558097,-0.00645959331,-0.0135572776,0.0573943332,0.00720297312,0.0359524637,0.00917121582,0.0104393372,0.0249690805,0.017963361,-0.0157913379,-0.00560474675,-0.0364756472,-0.0273510125,-0.0108286878,-0.0319323875,-0.00237029092,-0.026044175,0.0567840226
a507334a-6a2a-4a4a-8138-1ecfc3f9b205,-0.004235378,0.00831492618,-0.0312871896,-0.0298434291,0.0207859855,0.0371251367,-0.0160678215,-0.0249537751,0.00919031166,0.011385113,-0.0262867268,-0.00349454302,-0.0125834337,0.00958950818,-0.0067393952,0.0209542401,0.0057736882,-0.00169884751,0.0114450613,-0.0179119166,-0.0294469967,0.00432980247,-0.0148063255,0.0110531319,0.00166976464,-0.031830404,0.0169379432,0.0376702286,0.0172965433,0.00312252762,-0.0778137892,0.0310093816,0.0269683283,-0.0136016719,0.0662268698,-0.00703592645,0.00670229318,-0.0350132436,-0.0351171829,-0.0269501358,0.00206306227,-0.00967425015,-0.00104764523,-0.00544388127,-0.0289962944,-0.020494407,0.0472711176,-0.00501982123,0.00231275032,0.00879732426,0.00584036671,0.0144471945,-0.000947807275,-0.0758538246,-0.0211973861,-0.0126409112,-0.0248983726,0.013924404,0.0195941161,-0.0326781608,-0.0301593915,-0.0273161419,0.0236443672,-0.033319205,-0.0709346086,-0.021837987,-0.0165704358,-0.00900104921,-0.0432766043,-0.0367184505,-0.0333729684,-0.000689148437,-0.0369408168,0.0131700318,0.0319051705,0.0140616726,-0.0340600051,-0.00682485895,-0.0106728598,0.0349450111,-0.00399453519,-0.0100659709,-0.0497063994,0.00593696255,0.00621845014,0.00256260787,0.00257919729,0.00515451562,0.0518072881,-0.00350573449,-0.032575991,-0.0238065962,-0.0522641353,0.0246854648,-0.0166367795,-0.0110638877,0.0461349599,-0.017423261,-0.00556350686,-0.0226416029,0.00634874729,0.0144531345,-0.0949507505,-0.0121971145,-0.0111466097,0.0376514159,-0.0213807616,-0.0225181822,0.0192322675,-0.014248996,0.0278978068,0.0389440581,0.00494933082,-0.0298484378,0.00841939915,-0.00658263173,-0.00865675882,0.00395336887,-0.011227957,-0.0143513009,0.00803046208,0.0193194598,-0.135817707,0.0144754611,0.0228077583,-0.026588792,-0.0327296816,-0.00467052357,-0.0118234437,-0.000713482499,-0.0208568573,-0.0205872655,-0.00811614096,0.0143241314,-0.0251127686,0.0241394565,-0.035463348,-0.0326455198,0.0316610448,-0.0193295386,0.0685096383,0.015444058,0.0182926692,-0.0337851159,0.019898409,0.00556770526,0.078272447,-0.0212483853,0.0294413958,-0.0635347292,0.0266824272,0.0134189948,-0.0611289851,-0.00605703378,-0.0024756752,-0.0244623926,-0.014457575,-0.00306810159,-0.00829003379,0.0120747602,0.0166354403,0.0129083414,0.0343685858,-0.0047249347,0.026136972,-0.0134709207,0.00466066832,0.00244847429,-0.0210744813,0.0169295892,-0.00385764567,-0.00938532688,-0.0141031593,-0.0270904507,0.00931994244,-0.0054363301,0.0209222566,-0.0249350965,0.0209080148,0.0050475169,-0.00860980712,5.71526252e-05,0.00955529325,-0.0227978807,0.0336625203,0.0228966307,0.101118475,0.0100561157,-0.0275659282,-0.02760043,-0.0113648614,-0.0275935847,0.0640117452,0.00561900577,0.00632532919,-0.0298530832,-0.0149573022,-0.00758466776,0.00824636966,-0.0308093522,-0.0427701436,-0.0265265871,-0.00484922295,-0.0403521247,0.0436147675,0.0078479033,0.00297421659,0.0082062846,0.0108721508,-0.0199962389,-0.0247282218,-0.0274114683,0.050367441,-0.00281696115,-0.0145761436,0.376533896,-0.0037307702,0.023509657,-0.00281736907,-0.0156639479,0.0313605033,0.0347633436,-0.0291759558,-0.0173303448,0.116387919,0.0211961605,0.0142670982,-0.0483747944,-0.00572119467,0.00944341999,-0.0254879501,-0.0117379744,0.013927768,-0.0208532587,-0.0206742827,-0.00472465577,-0.0266331155,-0.0102856327,0.0127346367,-0.0313842483,0.0597866699,0.0204243809,0.506300032,-0.0344662592,-0.0135469381,-0.0054442496,-0.00114399171,0.00482218619,0.0335980281,-0.00345384399,0.00734748272,-0.00912384596,-0.0346954688,0.0290563833,0.0166358426,-0.00651350338,0.00611060206,-0.0213357061,-0.0197402798,0.0247121304,0.0132271107,-0.00177947537,-0.0601885021,-0.0117580723,-0.0234287344,-0.00120880525,0.0125019019,-0.0282645877,-0.0786038339,-0.0527997054,-0.0053338781,0.00734713953,-0.0230325721,0.0356931277,-0.00206358591,-0.0313380957,-0.028728677,-0.0453220196,0.0420577079,0.0209907666,0.0184226241,0.0313550159,0.0181428995,0.0262754057,-0.00187260797,-0.0190322474,-0.0310308505,0.013297379,0.0357949845,0.027108876,-0.0158812944,0.015130139,-0.0114969071,0.0247838702,-0.0310453698,-0.015976632,0.0175404232,0.000372623414,-0.0237419643,0.0168975312,0.00309541216,0.00682654139,-0.00351013499,-0.00644669915,0.0341614597,0.00696307514,0.0393658169,-0.0153403021,-0.105167732,-0.0321182385,0.000375309552,-0.0101879165,0.050917726,0.0611316375,-0.00875996985,-0.000302450266,-0.0472832993,0.0124728829,0.00253622211,-0.0437530838,0.0374513231,-0.029856747,-0.0164192319,-0.0105844112,0.0384158157,-0.0241567176,0.0241240412,-0.000999354641,-0.0273271836,0.00491091423,-0.0228948053,-0.00487792119,0.020236833,0.0321925208,0.0218528602,0.00410511065,0.0257509332,0.000743973884,0.00210682745,-0.00340406178,-0.00451351982,0.000992247486,-0.013077721,-0.0157855954,0.0221880935,0.0558550432,0.0221489165,-4.26697079e-05,0.0311286747,-0.0483890735,0.00144496036,-0.00245784409,0.00617898302,0.0152307479,-0.0312237274,-0.0179094244,0.00325972307,-0.0268120971,0.00692397868,0.000839930901,0.0105870673,0.0445973761,0.0652853027,0.0074671614,0.00661546644,-0.00783438981,0.028172899,0.00313380919,-0.00828486774,-0.0209826119,0.0234285295,0.023630036,0.0732928067,0.00671471562,0.0148545811,-0.0501965694,0.00990924984,-0.0612268262,0.0184628293,-0.0130242975,0.00836312119,-0.00213212403,0.00670119934,0.0525180288,-0.0164041556,-0.0204609055,0.00957827084,-0.00399427069,-0.00555756409,-0.00983310584,0.021653872,0.0271999389,0.0355739146,0.0121864462,-0.00821932312,-0.0371539779,-0.00861158315,-0.000410792971,0.00555682182,0.000912274991,0.0548975393,0.0146107422,-0.0357422382,0.0370231196,-0.00562062906,-0.00270227832,-0.00303552905,0.0242154617,0.0155435195,0.00279526459,-0.00138713303,-0.0135857183,0.0244371593,-0.0115172761,-0.00436662091,0.0312073603,-0.0257398095,-0.0254997443,0.00478372257,0.0179634131,0.00445480831,-0.0213574376,0.0551052392,0.0269338749,0.0230207983,0.0626962855,-0.0096470844,-0.0463654548,0.0170847848,0.0254946072,-0.0389233492,-0.0124816122,-0.0210359655,-0.0353558138,0.0230666194,-0.015935652,-0.056866467,0.0369387493,-0.00369783607,0.0338937417,-0.0324376598,0.00136361062,0.0106311515,0.0720168203,0.0236331969,-0.0290335286,-0.000945269479,-0.00246915035,-0.0240012091,-0.0200612694,0.024980858,-0.015803583,-0.023185147,-0.00154679012,-0.0133433845,0.00324676093,0.0231693573,-0.0342575014,0.0296389982,0.0193419661,-0.00946119893,-0.0390180685,-0.0212289002,-0.0730992705,0.0310198423,0.0118534649,-0.00468564732,-0.0371328853,0.0260438658,0.017896533,-0.0081377374,0.0184230171,0.0988942757,-0.0160847027,0.00824296568,0.0108239278,-0.000762506272,0.0261532143,-0.0715593323,0.0135688279,0.00421634829,-0.000591353513,0.0128511675,0.00877616461,0.00988687389,0.0195510685,0.0198907014,0.00416965084,0.00562296296,-0.0100022089,0.0111162616,-0.0693316162,-0.00243401784,-0.0137504088,0.0132422978,0.0293356627,0.0157006849,-0.00231495779,0.0219457354,0.0131441457,0.0280684084,-0.00108983042,-0.0358168669,0.0237028152,-0.0679909512,0.0107089868,-0.0358114392,-0.00146079005,-0.0040526716,-0.0162021294,-0.0115413442,0.0418776348,0.02215649,0.0109353885,-0.00308503071,0.00774551928,-0.0163858868,0.0248707067,-0.0244116206,0.0219204649,-0.0135652758,0.00976045057,0.0398574583,-0.016466571,0.00496848673,0.0326441973,-0.018558586,0.0723157898,0.0441963896,0.00185809052,-0.0234208684,-0.0620074421,0.0255464017,-0.0170862973,0.0287520066,0.0085931113,-0.00581801776,-0.0258191656,0.00840727519,-0.0151119195,-0.0273511,0.0198813006,-0.000342391955,0.0182788298,0.0357413925,0.00942284428,-0.00481179822,0.006745853,0.0225214791,0.043382436,0.0171232782,0.00910422485,-0.0149416933,0.0356587693,0.01527505,0.0263195243,0.0495429114,0.00465902127,0.0345693342,-0.00988935959,0.0353327245,-0.0250709709,0.00158049073,0.0568609461,-0.0036595494,-0.0289003309,-0.0242756028,-0.0251038391,0.000391459267,-0.0156336036,0.0312077049,-0.0241603553,-0.0266664065,0.01951194,0.0162566788,-0.0309968777,-0.0283032302,-0.00252205809,-0.0293777678,0.000105938423,0.0198802967,0.0300414879,-0.0316909403,-0.00111727335,-0.0278099328,0.0064715757,-0.0102212634,-0.0416795462,0.0344305411,-0.00115334219,-0.028439546,0.0257216692,-0.0240675751,-0.0128223915,0.0136674624,0.00285775424,0.00160674925,-0.0112737119,0.0405000225,-0.00930278935,-0.0356931835,0.0375424437,-0.0371728055,-0.0178120285,-0.00155360356,-0.0340031311,-0.00691051129,-0.0194219835,0.00438367296,-0.0153817367,-0.0114233224,0.0139637487,0.0938159972,0.0201082285,-0.0139016286,-0.0119567867,-0.0336252265,-0.0209815651,0.0192436893,0.00762492185,0.00790363271,-0.00295380293,-0.0176736899,0.00900486577,0.0197548904,0.0435032062,-0.035783466,-0.0332584903,0.023021346,0.00185260386,0.0467195846,-0.0401836857,-0.0218328349,0.0122656496,-0.0277711898,0.00581313716,0.0215647314,-0.0322039947,0.0126048131,0.0154000437,0.0230953563,-0.0248232372,0.0268669073,-0.034684334,0.0209404416,0.0240864884,-0.0421053097,-0.00811762549,-0.0205212291,-0.0832852572,0.0148305669,0.0100284973,-0.0530307442,-0.0293639377,-0.0171085112,-0.0584051609,0.0110097649,-0.0355232432,-0.0306463074,0.0100429421,0.0308399908,-0.0153723117,-0.0424661599,-0.00371542061,-0.0100886906,0.0132410908,-0.0361958928,0.0628934205,-0.0521681868,-0.0583445951,-0.00602556439,0.0177208018,-0.00442428328,0.00222121249,0.0397284143,-0.0153734554,-0.0109001501,0.00998353586,-0.0209902786,0.0564515367,0.020861201,0.0616769493,0.00210308027,-0.0480634905,-0.00495212665,-0.0200460404,0.0119209047,-0.0278283302,-0.0403258838,0.0273458157,0.0672543719,-0.00220718537,-0.0355449431,-0.020760376,0.020461889,0.0410128422,-0.00753743667,-0.0288322214,-0.0439072065,-0.0227635056,-0.0102363853,-0.030242864,0.020234935,-0.00344754104,-0.00906564854,0.00275402144,-0.00200562784,0.026303282,-0.00520297093,-0.0352952294,0.00706354063,-0.0156854168,0.000705391576,0.0239091124,0.0134096574,-0.017273739,0.00988896471,-0.000646031054,-0.0121135889,-0.00860831793,0.010262087,-0.0151086571,0.00676309504,-0.00606983202,0.017550515,-0.0342537016,0.0029330398,-0.0215511415,0.0482496433,0.0023325556,0.00863832235,0.00339240977,-0.0168445427,-0.00692678103,0.0394909419,0.0112290801,0.0156135745,-0.00348311942,-0.0194805097,-0.0171406046,-0.0251891408,-0.0246458985,-0.00737091107,-0.00393541018,-0.012927142,0.0272627752,-0.0449165665,0.0195369814,0.0328174904,-0.0251631904,-0.0396105014,0.0696179047,0.0364414863,0.0439849086,0.0210427269,0.0273976587,0.0317398123,-0.0361433513,-0.021850666,-0.0380515158,-0.00309162866,-0.0317138135,-0.0110315606,0.00925570168,-0.0129074547,0.0290768221,-0.0180030074,0.0120708495
f7f0aa07-995a-4d8d-897b-70bfeef59109,0.00358496909,-0.026952168,-0.0154512255,-0.00792362541,0.0236050654,0.0155154038,0.0257616565,0.0097343279,0.0372628979,0.0234463215,-0.0591786616,0.0111385304,-0.00403200649,0.0353486836,0.0113886176,0.003801696,-0.00345269078,0.016550025,0.0297468342,0.0515574962,0.00111395761,-0.0521214418,-0.0240061171,-0.0203217007,0.0135958213,-0.0135006998,0.0241775289,0.0137754753,0.00811246503,0.00580545282,-0.0161791258,-0.0436176956,-0.0255305395,-0.011807478,0.0132166035,0.0319586881,-0.0294275172,0.00256319321,-0.0118011059,-0.00885162316,0.0222522989,-0.0294675995,-0.00265031029,0.0247998443,0.0240408555,-0.0122726513,0.021119725,0.0189634431,-0.0289726257,0.0790665969,-0.00689528091,0.0275896452,0.0341401733,-0.046066463,0.00572084496,-0.0588336736,-0.00368270325,-0.0191019829,0.010889601,-0.0678003654,0.0550929531,0.000232152757,-0.0252689943,-0.0389601886,-0.0416940413,-0.0105218543,-0.032352142,-0.000661157654,0.0021751707,0.023181323,-0.00785949733,-0.0390338488,-0.0233360101,-0.029861737,-0.00276281824,0.0184654593,-0.0267986879,-0.0166228767,0.0291441139,0.030726919,0.0221909229,0.0238313116,-0.0437050425,0.0238882285,0.00195740908,0.0139005724,-0.00446590828,-0.00755537301,-0.0117803533,-0.0106877591,-0.00924762059,0.00251733302,0.0241253264,0.00194470794,-0.0298487414,-0.0454171896,0.027982017,0.0123507809,0.00231889356,-0.00196163519,0.00547179533,0.0162138883,-0.0934927836,-0.0146068996,0.0284273326,-0.00509760249,-0.0182184502,-0.0151018603,-0.0240429882,0.0103048356,0.00964423828,-0.0131709464,0.0226898044,0.00523333903,0.0112798372,0.0106802415,-0.0106486334,0.0267576743,0.00663132546,-0.0452549271,0.0442213006,0.0363346525,-0.12028899,-0.0255957022,0.00763353566,-0.00379884359,0.015254356,-0.0391193479,-0.00678815087,0.011780872,0.000309858238,0.0255125128,-0.0129306065,0.00340367691,-0.05536329,0.00126630324,-0.00593541795,-0.0164633654,0.0183856487,-0.0393849388,0.0760254115,-0.00243658316,-0.0181485061,0.00451891264,0.0258978847,-0.0165821072,0.0758659691,-0.035147965,0.0150179677,-0.0355923213,0.0147638284,-0.00542912679,-0.0228834692,-0.020150438,0.030256182,-0.0227424353,-0.0530827418,-0.0806193501,-0.0439657345,0.0151600428,-0.0106361592,-0.0241786819,0.00376935885,-0.000984174898,0.0136571573,-0.0333687328,-0.0187740661,-0.00575947901,-0.0312709659,-0.0145845367,-0.0359437689,-0.0361876562,0.0101168742,-0.00956338365,0.00651763519,-0.019608764,-0.00023917832,0.0324651003,0.0146727823,-0.0180124678,-0.00622957433,-0.0375792384,-0.039551653,-0.0281696543,0.051363904,0.00595222227,0.0238097124,0.0251403507,0.0207116362,0.0136268344,-0.00428207964,-0.0172673184,0.0320369489,-0.0392466858,0.0181324482,-0.0127782663,-0.0427074097,-0.0339675546,0.0657772273,0.0077048419,0.0571283884,0.0241240785,0.00719907554,-0.00990344863,0.0132189579,-0.0410924852,0.0080852611,0.0165832322,0.0454527438,-0.036472626,-0.0390474647,-0.0220900811,0.0350694992,-0.0748397633,0.0456578024,0.359095007,0.0472884327,-0.0153625328,-0.0117988409,0.0204268694,0.0257053711,0.0420854501,-0.0134526864,-0.033091668,0.0543946698,-0.0197634846,0.00379736279,-0.0222151633,0.0199499037,0.0355163887,0.0298213437,-0.0151398303,-0.0342067629,-0.00575170247,0.0141788125,-0.0141373146,0.0132396696,-0.00575177139,0.0185771119,-0.0426207855,-0.00719171716,-0.0101403799,0.527226508,0.00141166965,0.0216630455,-0.0104529494,0.015403552,0.00279715867,-0.00168631435,-0.0230740979,0.0126855932,0.0330438651,-0.0519414432,-0.00332392449,0.0265321378,-0.00267283944,0.0110495007,0.0168740805,-0.0389840007,0.00451482739,-0.00816441048,-0.00177575718,-0.000279108208,0.0442277677,-0.00763285486,-0.00133484078,-0.0119083459,0.0160584748,0.0385325029,-0.027799895,-0.00540959882,-0.0491347611,-0.00515619526,0.042418424,0.00485249888,-0.00972303841,-0.0065667578,0.00099327683,0.022190392,-0.00599518977,0.0337898284,0.0284104608,0.0122733824,-0.0223219376,0.0147123858,-0.0416545756,-0.0205691885,0.0700238794,0.00841778331,0.0346122086,-0.0372020565,0.0178821497,-0.013395818,0.00991974398,0.0399925932,-0.0286629759,0.0287347957,-0.0320349373,-0.0108394166,0.0189433321,-0.00621828344,0.00292580714,0.0381752588,0.0146135576,0.0843486935,-0.000546547177,-0.0193174668,0.0166017208,-0.000626723806,0.0250470284,0.0220919047,0.0187596083,0.0542138033,0.0363055244,0.0110527081,0.000291169767,0.0376066826,0.0624750443,-0.00876144692,-0.0554322116,-0.0324179493,0.0929386094,-0.00769442646,0.0287832823,0.018833233,-0.0442744009,0.0250872597,0.0306418426,-0.0225193687,-0.0114402492,0.0017696392,-0.00945676677,0.0221292693,-0.0367098935,-0.0183162801,-0.06786713,0.0458835177,0.00036475205,-0.00264775194,0.00777861523,0.00294069294,0.0254652034,0.00368371047,0.0115660224,0.0147669567,-0.00718343584,0.0186760481,0.0196228288,-0.0305286925,0.0327694193,-0.0297471434,-0.0154987015,0.0476231053,-0.0204414576,-0.0244736988,0.0374126919,-0.0535787567,-0.0252960622,-0.0029111919,0.0123593463,0.0268572811,-0.02818764,-0.0730585754,0.00903673656,-0.00434546079,0.0200270284,0.020862747,-0.012666502,-0.0191759933,-8.58212024e-06,-0.0110564474,0.0254306365,0.00261699175,-0.00386620243,-0.0219256803,-0.0200641733,0.0308215227,-0.0262387693,0.00156220305,-0.0238209907,-0.000804690761,-0.0217884034,0.0275213644,0.0187224448,0.020305058,0.0109276595,-0.00587230455,-0.0190749466,-0.0186719224,-0.0306003839,0.0258744173,0.00851228088,-0.0119934715,0.036049515,-0.00198303605,-0.0242730752,-0.0110520963,0.00491348235,0.0350651667,-0.00531403674,0.00533317029,0.0506532229,0.00706587918,-0.00330474996,-0.00460185716,-0.00148569164,0.020532215,0.0125548877,0.0854468644,-0.0036386603,0.0156480167,-0.0148371886,0.0444614626,0.0152811818,-0.00115153333,-0.00567830959,0.0104622375,0.00775195239,0.00952582806,0.0230658799,0.0602204129,-0.0328520648,0.0113694649,-0.000957474695,0.0271849949,0.0337836482,0.0164992418,-0.0403048694,-0.0269688684,0.0187231768,0.0163110755,0.00223930064,-0.0545511097,-0.0118539585,0.0154754948,-0.00188201736,-0.0295279231,0.0209160168,-0.00962081924,-0.00570889702,-0.00669534504,0.0231477115,0.0144108348,0.0415522046,0.00566392718,-0.0130439019,0.00322380289,0.0036859063,-0.00785777252,-0.0206859149,-0.00358021515,-0.0388403982,-0.0302151944,-0.014904405,0.0365880243,-0.0114014475,0.00444796868,-0.000715444563,-0.0100320857,-0.0242703669,0.0333386213,-0.00121932139,0.0224906579,-0.0390709452,0.00696534663,0.00961968582,0.0204555336,0.0382762179,-0.00903208088,0.018520033,-0.051125288,0.0205423702,0.0403213166,-0.0200986508,0.0193194561,0.0110776536,-0.00178277085,0.0104114767,-0.0120493043,0.0287134014,-0.0156984534,-0.0098590143,-0.00350818806,-0.0206292551,-0.0489991754,0.0242458154,-0.0111967931,-0.00316354958,-0.0262760837,-0.0442631766,-0.0229644347,-0.079562813,0.00751456479,0.0430396609,0.0471651927,-0.00425313273,-0.0113365995,-0.0184695739,0.0368824117,0.0326173417,0.00377682853,-0.0078860065,-0.0220259912,0.0165120084,-0.0138209006,-0.0202658344,-0.0503966399,0.0188307129,-0.000474546745,0.0140789542,0.0100526903,0.000493271044,0.0117649129,0.0209706184,0.00323855015,0.0160722937,-0.0105313985,-0.0206551924,0.0089774793,0.0232870262,0.0419450887,-0.00393128255,0.0206743702,-0.0215066299,0.00244766171,0.0349233523,-0.0255052075,0.0141944103,0.0118295969,0.074589625,0.0551427007,-0.0351444632,-0.0250420496,0.0359613411,-0.0209828503,-0.00885876268,-0.0032915615,-0.0155443652,-0.00374230463,-0.0127518345,-0.0133697409,0.0158029534,-0.0251911357,0.0492523201,0.00349624688,-0.0369820744,0.0204803385,-0.0128320195,-0.0127789639,0.0276231281,0.021495061,-0.019612452,-0.0494893976,0.0144813061,-0.0329002663,-0.00310459919,0.0851402357,-0.00686101429,0.0243491791,-0.0174503308,0.025092205,-0.0276207905,0.00950761419,0.0177991837,-0.00281383144,-0.0173736736,-0.0373838283,-0.0278019831,0.012619311,0.00818937644,0.0208953414,-0.04156854,-0.00875768624,0.0262172278,-0.00346127781,-0.0116502801,0.0173382517,0.00987010915,-0.00462439517,0.011833922,-0.0134050464,0.0461442694,-0.0141423047,-0.0309134834,-0.0225247685,-0.0392755531,-0.0611937866,-0.0498150848,0.0202214662,0.00173600041,-0.0189695526,-0.00227393187,0.0219241101,0.00682318071,-0.00739314919,0.0019019238,-0.00936979335,0.0403528214,0.0427810773,-0.0101104705,0.00500225276,0.0119779939,0.00402120454,0.00210306211,-0.0195600986,-0.0170814265,-0.012620599,0.00846759323,-0.0184256267,-0.0137323383,0.0522495471,0.000614841701,-0.0550640188,0.0107618095,-0.00623762095,-0.00878138468,0.034982577,0.0186674036,-0.00149746693,0.0599653125,0.0310018454,0.063532114,0.0229099635,0.00954408757,-0.0162903294,0.0182200782,-0.0713987499,0.0229227934,-0.0127536831,-0.0181410778,0.0452765636,-0.0635559261,-0.00329044042,0.0315632708,0.013925788,-0.00381312217,0.042549964,0.0210378468,0.00432493212,0.00582032558,0.0155702196,-0.00339547964,-0.0204351284,-0.0486522205,-0.0186164603,0.0334346332,0.0154991681,-0.0114986366,0.0195008926,-0.0280171465,0.0213665944,0.0102401348,-0.0881323144,-0.0447200947,0.00125685986,-0.0265682284,0.00637158332,-0.0205887482,0.0143822134,-0.0171826221,-0.00438770792,0.00249451445,-0.0405634604,-0.0154595934,0.00467155781,0.0197651424,-0.0649369061,0.0250494666,-0.0152522279,-0.0300239939,-0.0180575438,0.0063715647,-0.0392993726,0.0252547599,0.00518537359,-0.00673929229,0.00663744193,0.0146746058,-0.0311135743,0.0281048026,-0.00978289824,0.0115922065,-0.0112086814,-0.0368463546,0.0942707434,0.00378185348,-0.00452012103,0.0107969828,-0.0298709106,-0.0101027843,0.0812375993,0.0270062145,0.0326829217,-0.0221340824,0.0355413631,-0.00887476001,-0.00414121803,0.0199554041,-0.00998421665,-0.0104612885,-0.0133899963,0.0169787239,0.0313861743,-0.00191280839,-0.00287849712,-0.00688098371,-0.0522652566,0.0309522618,0.0222728122,-0.0218530633,0.0195933413,0.0507499985,-0.00384955667,-0.0390238985,0.0125123188,-0.0418233536,0.0173245165,-0.0216391925,-0.00946780108,-0.00206878548,-0.0233406611,0.00408583274,-0.0102292597,-0.00261448976,0.00650022645,-0.00540416641,0.0441441834,-0.0194172673,-0.0147267235,0.0308410358,-0.0214893315,0.0223795436,-0.00833894219,0.0115463706,-0.00476408005,0.0513547473,-0.0269328021,-0.00833249278,-0.0153504452,-0.018231133,-0.0179054178,-0.0126176048,-0.00200100522,-0.0093371952,-0.0189219005,0.000292598299,-0.0068736379,0.0232353713,0.0165546592,-0.059408363,-0.0160559602,0.0133322868,0.0446226001,0.0454885215,0.0391943082,0.0348846354,0.0248943586,-0.0214431714,-0.00988177769,0.0125831198,-0.0253778733,0.000551673409,-0.00521275168,-0.0103791934,0.00448876712,-0.0086329449,0.0382847078,-0.059698347
e50569aa-5590-4304-9f99-7556ae55dcfa,-0.0443669334,-0.025985891,0.0399800204,-0.0263994616,0.030272482,-0.0312044024,-0.00433136616,0.0139846755,0.0349938795,-0.0188693758,0.0266806409,0.00199087476,0.0191471409,0.0125004239,-0.0204017386,0.0283350945,0.00432190113,-0.0285532605,0.0188337564,0.00631025247,0.0350637101,-0.0132997138,-0.0168712214,-0.0243514869,0.0126703363,-0.019168783,0.00579670724,-0.0238819923,-0.0111822747,0.0566790216,-0.0179507751,0.0172723457,-0.00194419082,0.0150854709,0.00656290306,0.0254012235,-0.014320544,0.00348021579,0.0123476544,-0.0103341909,0.0150690293,-0.0468436964,0.0249656457,-0.00787158217,-0.020248089,-0.0143845025,0.0037598901,0.00620332919,-0.0279775597,-0.0455692448,-0.0252488032,0.0214139,0.0248969756,-0.0637536496,0.0741733536,-0.0257048123,0.00939723849,0.0753735974,-0.0345528536,-0.0545466207,0.0560241938,-0.0276178475,-0.00608071359,-0.0249061938,-0.00437394762,0.00499608601,0.0184201971,0.0342601538,-0.0142798414,-0.0330456421,-0.0152241141,-0.0207789242,0.004405485,-0.0268922839,0.0145173911,0.0154137183,-0.0181940589,-0.0300063919,0.0436657295,0.0522286557,-0.0180786401,0.0299650747,-0.0618449524,-0.0178645998,-0.0385049768,-0.0128159467,-0.0181657989,-0.0245875139,0.00324962474,0.0399703197,-0.00814251136,-0.0639761165,-0.0119008441,-0.0173086952,-0.00833758898,-0.0103020463,0.0210784003,0.00825319532,-0.0174864847,-0.0419639722,-0.0203333292,0.030848911,-0.0434442572,-0.0223941691,0.00313966023,-0.0157794598,-0.00965524837,-0.0274755247,0.0229713917,-0.0132839875,0.00246548676,-0.00440585148,-0.00717199827,0.0178853497,0.00151747244,-0.0443595164,0.00611235341,0.00826581474,-0.0336656459,-0.0210289191,0.0209825393,-0.027676871,-0.0214066748,-0.0156220822,0.00285907974,-0.000985482126,0.00130464847,0.0503107943,-0.0126412781,-0.00529604312,-0.0125449067,0.017241938,-0.00648816116,-0.0168076791,-0.0647742748,0.0107160518,-0.0701742694,-0.0048786765,0.0164723173,0.0336387306,0.132927045,0.0305249058,0.0114538455,-0.0159659255,0.0150220394,-0.0150228944,0.0395475924,-0.0656135455,-0.0296379235,-0.0828169286,0.00500531308,-0.0347853564,-0.0772051811,0.0172772259,0.00108383072,-0.00607065903,-0.0283279754,-0.0536891483,-0.0160272364,-0.0253034905,-0.00209621084,-0.0162656438,0.00772261573,-0.00787918083,0.0255971681,0.00759745296,0.013083024,-0.0423430614,-0.0345937423,-7.61628398e-05,-0.0312101934,0.00340333255,-0.0351721905,-0.0399133824,-0.0145976935,-0.00937265716,-0.0104932813,0.0219265465,0.0475749709,-0.00716737844,0.00704381661,-0.00480328174,0.00644593919,-0.00933421589,0.00326325628,0.0174401104,0.114502095,-0.00186205201,-0.0164390821,0.0136767523,0.0154580381,-0.0305611603,0.003643031,-0.00721517717,-0.00916621555,-0.0535558201,-0.0133177713,-0.0197140239,0.00705347862,0.0128685413,-0.0300779343,-0.00345297833,0.0604124852,-0.0399698131,0.0363371745,-0.00720603252,0.00376067613,0.00333604403,-0.0219359361,-0.0236602165,-0.0438381545,0.0107509932,0.0293914601,-0.0046577258,-0.0145857474,0.326045513,0.0259187203,-0.0257690344,0.00747381942,-0.0351703651,-0.0214234386,0.0672964379,0.0208034478,-0.00262547471,0.1158785,0.0326530822,-0.0492636971,0.00185803755,0.0191212464,-0.00128394307,0.01259863,0.0046370537,-0.0272529759,0.0252894778,-0.0177886337,0.025511045,-0.0486837998,0.0104629286,-0.0136101004,-0.0346718468,0.0409308374,-0.0112700509,0.496068507,0.0347490944,-0.00794631615,0.00763202552,0.0110882968,-0.00346490368,0.0444791019,-0.0221279338,-0.0177344829,0.0330105536,-0.054595992,0.0160777308,0.0160987396,-0.0149312923,0.0103668682,-0.0151165696,0.0264402591,-0.00807429478,0.00830784068,0.00897331908,-0.0417038575,0.00659945467,-0.0404700153,-0.0279771425,0.0172002688,-0.0292348582,0.0317208394,-0.00775242457,0.0171270128,-0.0190084167,0.0022706918,-0.0412236117,-0.00183318777,0.00916870311,0.0595831648,-0.0416640788,0.00839592237,-0.0122787207,0.0718825012,0.0395558588,0.0211771689,0.0351871736,-0.0156084737,-0.0250193719,-0.02520754,-0.0555331036,0.0444376767,0.0554024875,-0.0212185346,0.0455555394,-0.0234378371,0.0140399802,0.0373815969,0.0129156373,0.0313322842,-0.0113234269,0.00395633467,-0.0180895962,-0.0100841867,0.00516198296,-0.0117626423,0.0205536671,0.0490622744,0.00775669375,-0.0282787103,-0.0315137915,0.049660258,0.0162676889,0.0386224389,0.044537276,0.00944902375,0.03027693,0.0443271548,-0.0175206661,0.0304675475,0.0106230136,0.006018613,-0.0852018818,0.0346201584,0.0892869309,-0.02512227,0.0106067136,0.00172693352,-0.00375600951,-0.0185076576,-0.0181392226,-0.0350022055,-0.0101051349,-0.00403640699,-0.00348697533,0.00570993684,-0.00396430586,-0.00723754335,-0.0273063462,0.0114578009,-0.0123621598,-0.0240093973,-0.00896484591,-0.0470916927,0.0529720522,-0.0408780985,-0.0253916699,-0.000160208525,-0.0144814355,0.0207576845,0.0327353291,0.015149286,-0.0462286286,-0.0301083047,0.0213754196,-0.0380787067,0.0219303127,-0.00416923547,0.0222612191,-0.0431883857,-0.036614202,0.0184691977,-0.00305045652,-0.00446924148,0.0414005853,0.0163021758,0.00538323447,0.0321507528,-0.040791858,0.0124543943,-0.0472901613,0.022957528,-0.0223705191,0.0157357361,0.00826770999,0.0594944768,-0.00997861847,0.00518461829,-0.00814743247,-0.00786525384,-0.0117378514,0.0537117645,-0.00568303699,-0.0279190503,0.00315888226,0.0220144894,0.0133115603,0.00932020508,-0.0167688057,-0.0302529484,-0.0064786328,0.0228620153,-0.0332910083,-0.0394796655,0.0175811853,0.0211605355,-0.0295210779,0.0146482373,-0.00903839525,-0.0155881681,-0.0156527087,-0.010713907,0.0544582866,0.00638291053,0.058469262,-0.0216538571,0.0388904475,0.00858859345,-0.0393057913,-0.0055623767,0.0295688976,0.031021893,0.011397521,0.0546555147,0.0211356357,-0.01195083,0.0162324142,0.0257419981,-0.0427147895,0.0114853159,-0.0273567922,0.00205557863,0.0530323423,-0.0398780368,0.036693152,0.0643924028,0.020177763,0.0324137993,0.0365681164,-0.0356064998,-0.0114323124,0.00795984454,-0.00502968254,-0.00775552122,0.00922155753,-0.0240193978,0.0332634673,0.0594979115,-0.0389051326,0.031837929,-0.0213808976,0.0248323064,0.0344496407,-0.0151838325,-0.0256673563,0.0231255889,0.0559845045,-0.0469462052,-0.00724513642,0.0132929543,-0.00943890028,-0.0141505748,0.0474376455,0.0144953215,-0.00737790857,-0.0465314128,-0.00313482317,-0.0414225124,0.0207209401,-0.0254690573,-0.0200805776,0.0130430562,-0.0433651283,0.0572474338,0.0258477163,0.0789030418,0.0157098211,0.00528972363,-0.0101510379,0.0278652273,-0.0358032845,0.00190084882,0.0089637991,0.0203382839,-0.0151347015,0.0121151414,-0.0248751696,0.0229324624,-0.00981343631,0.0178942345,-0.019527521,-0.0452849455,0.058182165,0.00190707122,0.0291229729,0.00244427798,0.00240767607,-0.0712452605,-0.00905524381,0.0108027942,-0.00288109411,-0.0414700732,-0.0330130048,-0.023784969,-0.0176002625,-0.00718154898,0.00491030747,0.000831889745,0.0127445022,0.022297008,0.010738479,-0.0328200348,0.0306195579,-0.018682126,0.0167626925,0.000466309051,0.0233948007,-0.0815846846,0.0123822438,-0.0156746674,0.0305294041,0.0189804975,-0.0413194075,0.00442411657,-0.00433083437,0.0201442726,0.00499892794,0.0269766916,0.0161539223,0.0297145564,0.0503626615,0.0127498554,0.00547108008,0.0469213985,0.0376924239,0.0685196593,-0.00712318951,-0.0162413605,0.017117532,-0.0555252992,0.0420535654,0.066178523,0.0253590643,-0.0445680916,-0.0270344745,0.0050317375,0.0103854341,-0.00492386753,0.00874050427,0.0278964788,-0.00236169435,0.0361595489,-0.00874376204,-0.0202043205,0.0199670736,0.00922368281,0.0428677835,0.00928626582,-0.00800063647,0.0610323474,0.00670163194,0.000808346143,0.00497159036,-0.0276360065,-0.00151220581,-0.0336613953,0.0371774174,-0.0129176788,-0.00601840951,0.0633884296,0.00813027192,0.00928461365,-0.0186051652,-0.0182754882,-0.0195377711,0.00385727291,-0.0190968327,-0.0189990588,-0.0292833261,-0.00408919808,-0.0303040277,0.0663088039,-0.0195816774,0.00255019241,-0.0208497699,-0.0339099057,0.0450949222,-0.0142585589,0.0104134083,-0.000262068177,0.0321094953,0.0137538454,-0.0547483563,0.00797638763,-0.0173111707,-0.0123594049,0.00703202281,0.0047295941,-0.0128712188,-0.0415342189,0.0141339935,0.0129756322,-0.00305668195,-0.00174018415,-0.00342180277,-0.0139428191,-0.0202592239,-0.0333336405,0.0108348047,0.00599002745,-0.0445483439,0.0165474284,0.00253586052,-0.0159847662,-0.0335726254,-0.0127640013,-0.0160833858,-0.0019532179,-0.0472223088,-0.00327519234,0.011362277,-0.0391247682,0.00761679187,-0.000177385358,-0.00959366653,0.0104208384,0.0259579848,-0.0207833275,-0.0357562713,0.00513920886,-0.0274681337,-0.00633183494,0.0224001985,0.0230709426,0.0545474179,-0.00614657206,0.0266967341,-0.00263690366,0.000568449264,-0.0516410843,0.0272362437,-0.0142448861,-0.00403770106,0.050327085,-0.0334034972,0.0139712794,-0.000181766227,0.00302467705,0.0345356502,0.0271125454,-0.0110381451,-0.01064693,-0.0446771123,-0.0350926667,-0.00888266135,0.0220339745,-0.0359003805,0.020720711,0.00744833425,-0.00500928797,-0.0160387792,-0.0282878354,-0.0482354611,-0.0360193513,0.014871031,-0.0443143286,-0.0527796037,-0.0315192714,-0.00903849676,0.0144258356,-0.0129123684,-0.00214657583,0.0111973202,0.0583611466,-0.0139775295,-0.00377368508,-0.00466254586,-0.00998161267,-0.00671862811,-0.0121195093,0.0155237094,-0.0201664362,-0.0398023203,0.00282342476,0.00563154789,-0.0452389121,0.0102885133,-0.00464689266,0.00651888736,0.017852962,0.0174896158,0.0161860157,0.0257502329,0.0196976848,-0.00324954255,-0.00648273993,-0.0743363798,0.0184611827,-0.0107476544,0.00178063544,-0.0620444603,-0.0478147678,-0.0080026323,0.0546209179,0.0236705057,0.0219469629,-0.0189931691,-0.0194403138,0.0254416168,-0.0202659275,-0.0260933992,-0.038030643,-0.0340555795,-0.019304527,0.0419207811,0.0111326193,0.0231039245,-0.0110982098,0.0323541537,-0.0210873559,-0.0181571133,0.017745601,-0.0422814749,0.00310381642,0.0553466082,0.0177212618,0.0361098871,0.0103408583,-0.0300887451,-0.00488876877,-0.01743659,0.0078652408,0.0120781371,-0.0159021672,0.0102288248,-0.0133500006,-0.0309604667,-0.0233940948,-0.0246361997,0.00684798649,-0.0487475209,0.0396617502,0.00640160171,-0.0228387732,-0.00183489546,-0.0145465564,0.0158293284,0.00825367309,-0.0264520701,-0.0600418299,0.00866732467,0.0199607573,0.0185485929,-0.0421156324,0.0319724344,0.00154789456,0.0329649672,0.0193245299,0.00357517088,-0.0252593923,0.0212517213,-0.0118708611,-0.00177795009,-0.0230008829,-0.0497265197,-0.0112116653,0.0430393033,0.0426259302,-0.0344399363,0.036000751,-0.0026165077,0.000334635522,0.0582794175,-0.025484506,-0.00748299342,0.00923013501,0.0263017826,-0.00810300931,0.00675422838,0.00500647165,0.0328847207
e744a972-ace7-4566-b09a-7c89d11bc21e,-0.0135348504,-0.0298022218,0.000386454019,-0.00442458177,0.0346809477,0.0234894939,0.00471334625,-0.0222368781,-0.0111256661,-0.00475804275,-0.0072119059,0.00914503634,0.0174603648,0.0243469048,0.025874408,0.0137343081,0.0495446101,-0.0197284389,-0.00157083536,0.0145758931,-0.0509242676,0.0143685965,-0.0562156886,0.0660140216,0.016076019,-0.00719624292,0.000974467664,0.0397841334,-0.0315319002,0.0223773792,-0.074340865,-0.00724967476,0.00610007066,0.00408468349,0.0294271093,0.0104388492,-0.0053894585,-0.0217704158,-0.0382335484,-0.0419592783,0.0107251443,-0.102748744,0.0267056227,0.0140295895,0.0149072651,-0.00945335068,0.0212137606,-0.0316706784,-0.0247815419,-0.0273278821,-0.0266157836,0.0355118103,-0.0464279987,-0.0467527248,-0.0318381526,0.0131198298,-0.011657347,-0.0175851956,-0.00978731923,-0.0350000374,-0.0221268032,-0.044309672,-0.0482566953,-0.012903004,-0.0755887851,-0.00108595693,0.0111049786,-0.0183827374,-0.00477850717,-0.0400926471,0.0241206437,0.0245158821,-0.0159165915,-0.0339701176,0.0216658898,0.0236982908,-0.0193927214,0.00224776263,-0.000318911945,-0.0228860062,-0.0197296981,0.0173137467,-0.0620477945,-0.0160135981,0.00509537989,0.00152485911,0.016286416,-0.00598844932,0.0254151281,0.00498683145,0.000660962134,-0.0276368689,-0.0479722358,0.0211207308,-0.0112316413,-0.0469978042,0.0184088238,0.0446134061,-0.00565721095,-0.0154612958,-0.00147541089,0.00929194409,-0.0675454438,-0.0355189517,-0.0227061585,0.000509380538,-0.0223540943,-0.0286804922,0.0445104577,0.00186534179,0.0012229631,-0.00826766528,0.0130604608,-0.0521211103,-0.0081000803,-0.0122751379,0.0189996827,-0.00774612045,0.0146698533,-0.0308898147,-0.0146558294,0.0143931536,-0.053905867,0.00444193138,0.00370286941,-0.0275943391,-0.0217966791,-0.0106544141,0.0151379667,0.0097046122,0.00991796982,-0.000954477,-0.00542667415,0.0233189389,-0.0138171744,0.0219688956,-0.0284557119,-0.0111338953,0.0107261697,-0.0191583578,0.116956592,0.00748765795,-0.0116676362,-0.0126561364,0.0645563975,-0.0273913834,0.0803887099,-0.0199670568,0.010256866,-0.0445732214,0.0382566527,0.00105413783,-0.0683080629,-0.0297309738,0.00867572613,0.0279072709,-0.0174832661,-0.0210723169,-0.0372295342,0.00762427505,0.00221367134,0.0168695841,0.0199684575,-0.00400770083,-0.0125973886,-0.0135610681,0.00502779055,0.0100026829,-0.0361003168,-0.014338553,-0.0182204582,0.0059631397,-0.00161683187,-0.0158148576,-0.0411643684,-0.0208654162,-0.0221019462,0.00122681016,0.0700461268,-0.00603039609,0.0285763964,0.00210083998,-0.01608615,-0.0136961853,0.0272099413,-0.0182685386,0.0682942271,0.0174737647,-0.0647868961,-0.0104438802,0.00289887772,-0.0139270443,-0.00843714643,0.0215920471,0.0333934054,-0.0332897045,-0.0260698777,-0.0156518463,0.0239456259,0.0176429469,-0.0598218888,-0.0103634447,0.0136965318,-0.039433144,0.00152708951,0.00282384828,0.0120411776,0.0129897473,-0.0168581549,-0.0208049528,-0.0318730362,0.0283723772,0.0256999861,0.0315974206,-0.0359900221,0.372677267,0.0138112716,-0.0240126513,0.00977250841,-0.0454853028,0.06443654,0.0390065052,-0.0103041399,0.0117743341,0.0907774419,0.0294865575,0.0360489339,-0.00423180591,-0.029042637,-0.0279519744,-0.0135704568,-0.0363435932,0.051389467,-0.00541239232,-0.0179904848,0.0338987298,-0.00691189151,-0.0325483792,0.0249354728,-0.00364902522,0.0567847937,-0.0318453647,0.490880907,-0.0295958817,0.0125208544,0.00268120738,-0.0268412344,0.0189273804,-0.00650547724,0.0137943886,-0.00863019191,-0.0049364306,-0.0779964328,0.0141695077,0.0121961059,-0.0612156205,-0.0328149945,-0.0116633093,-0.00879351981,-0.00199746247,-0.000388638582,-0.00447807554,-0.0577938519,-0.0246775541,-0.0025755011,0.0119973142,0.0369620062,0.00967112556,0.00790204573,-0.0382143334,-0.0430593006,-0.00451237708,-0.0247059651,0.0369701646,0.0607098639,0.00380295468,0.0351118073,0.0120729599,0.0221106913,-0.0107712569,0.0396466441,0.0138359759,-0.014296947,0.0672806948,-0.0215625223,-0.000763812219,-0.00996165909,0.0165159795,0.0697197765,-0.00918214396,0.0148377251,-0.0143132946,-0.0244230274,-0.00416711671,-0.00618180353,-0.0317315795,0.00420787651,-0.00680265576,-0.0176995657,0.00848801807,-0.00251665292,0.0219151136,-0.00273527647,0.0315214694,0.0362818316,-0.00331218075,0.0101619232,-0.0419950038,-0.0154925333,0.01181533,0.0285921022,0.00358462124,0.050006181,0.0122746741,-0.0142894611,-0.0121080186,-0.0428760424,-0.00375942071,-0.0182367396,-0.0825327709,0.0229695514,-0.0185889248,-0.0200778861,0.0449128784,0.0209710151,-0.0227887928,0.0107135056,-0.0103213517,-0.00191076624,-0.0128519079,-0.0355208404,0.0062026321,0.0186632872,0.000437247014,-0.00627506804,0.0185681563,0.0089808125,0.0143921683,-0.0194695387,0.00522983447,0.00195709011,0.00845662411,-0.0531536341,0.0282569882,0.00214343029,-0.0100835571,-0.000545239134,0.00501717813,0.00777375372,-0.0310171414,-0.00245348155,-0.011076034,0.0312259346,0.00871907268,-0.000778905523,0.013507287,0.023483159,-0.0278261211,-0.0156550221,-0.0126035372,0.0448207445,0.0203384254,0.0422686823,0.0187024698,0.0324371122,0.020622246,-0.00121280435,0.0109569123,0.0263124965,0.0264624152,0.0266594645,-0.000730470172,0.0734679773,0.00797513407,0.0181736555,-0.0418416299,-0.0162331052,-0.0245451853,0.0270275958,-0.0177756902,0.0150948307,0.0182727315,0.0349986255,0.0356496498,0.00523361564,0.035819497,0.0196347889,-0.0598957911,0.007831214,-0.0455079116,0.0550761782,0.00205174764,0.0278585404,-0.00517398166,0.000682252285,-0.00123073487,0.00468986295,0.00468023308,0.0229500681,0.0432681143,-0.00524888793,0.0588181019,-0.000918144651,0.000116633848,-0.0285332277,-0.0150636155,-0.0308525786,0.0112081459,-0.0250223763,0.0110793374,0.00475829188,0.0073156883,0.0544753894,0.0027535439,0.00148416869,-0.00190451962,-0.0012953243,-0.000815309118,0.0265556294,0.037492279,0.0512274988,-0.0176150203,-0.00956093799,0.00506414054,-0.00216381322,0.0666809082,0.00633886456,-0.0124579286,-0.000546098279,0.0187511835,0.00850634184,-0.00535180094,-0.0198960677,-0.010865299,0.0388539732,0.00165797642,-0.0107055716,0.0327858999,0.0151334582,0.0124132335,-0.0461506285,0.0330683477,0.00655436004,0.0341403894,0.00635120366,-0.0159248244,-0.0267184302,-0.0257414188,-0.0521336347,0.0239353366,0.0228158124,0.00427469844,-0.0203448534,-0.00592801534,0.00485646538,0.00359470118,0.0171542335,-0.0304985512,0.00731829228,-0.0196812395,-0.0266373232,-0.031867139,0.0947914124,-0.00393729191,-0.0140539827,-0.031915158,0.00200589979,0.034063492,0.00316860504,0.00719362078,-0.0290837754,0.0352556296,0.0399688296,-0.0179217905,-0.00869430136,0.0269603953,-0.00703450898,0.0289215222,-0.0427433178,0.0197929572,0.000774918997,0.00832755677,-0.005237523,0.0435495898,-0.0657177567,-0.00640579872,-0.00903378427,0.00481066806,-0.038089212,-0.0514985919,0.000205058255,-0.0448504128,0.0500772707,0.0154912053,0.0129551282,0.0303445719,-0.0119634597,0.0610357709,0.0306712594,0.0288910773,-0.0157780424,0.00194057182,-0.00389835006,0.0434469841,-0.099703148,0.00192098832,-0.00797196291,-0.0120961927,0.000770431594,0.0225620102,0.00329759973,0.0365890786,0.0339169204,-0.0392853618,-0.0131035177,0.0301246494,-0.0251146145,0.0429243371,0.008245348,0.0321770497,-0.00358514953,0.0015792147,0.0199501496,0.0378407836,-0.0289855637,0.0209047571,-0.0268792044,0.0651108995,-0.000624362379,0.038082812,-0.0188236609,-0.0162943937,0.0115260389,-0.00471332576,-0.0065553626,0.00898641255,0.0254577789,0.00648778025,0.0434619337,-0.0107171386,-0.0324636474,-0.014822931,-0.0361078158,0.0521136597,-0.0131420912,0.0057792021,0.0312670954,0.00113941811,-0.0190115534,-0.0068601449,0.0100141438,0.0122455452,-0.0597235523,0.0276268795,-0.033830855,-0.0216120239,0.108034216,-0.0247565228,0.0202094223,0.0058419439,0.0269050524,-0.0212079976,0.0405049883,-0.00791268796,-0.00552899623,-0.0141679412,-0.0413466506,-0.018146893,-0.0201834925,-0.0417967252,-0.0136651723,7.01755998e-05,-0.00136260875,0.0155869238,0.0272037946,-0.00944199041,0.0128847342,0.00114044675,-0.0018294655,-0.0261152722,-0.0320644826,0.00536925485,-0.00320505025,0.0158128962,-0.00433188071,0.0288893264,-0.0429964066,-0.0285866018,0.0185294077,-0.0141583597,-0.0235816762,-0.0184693709,0.00842526928,0.0182306468,0.0223471224,-0.0139276171,0.00439462438,-0.0246750265,0.0499184094,0.0196087584,-0.00537506398,0.0303512234,-0.025551673,0.0168584734,0.0227658693,-0.0229340028,0.0180570446,-0.0103478981,-0.0085652722,-0.0111074392,-0.0121433735,-0.0139735006,0.0209104866,-0.000470774248,-0.014670372,-0.0159136988,0.0145273106,0.0227750558,0.00511926739,-0.0198639873,-0.00525912968,0.00919416267,-0.0305444747,-0.0720677078,-0.0348637402,-0.0096152043,-0.0732997134,0.0208112467,-0.0309279766,-0.00683298102,0.0797889084,-0.0588612445,-0.00662552472,0.00262037106,-0.0411472395,0.0188059956,0.0251725353,0.0157565642,-0.0159795936,-0.0290428475,0.0455169454,-0.0068368176,0.019047264,-0.0252778381,-0.0328344591,-9.57196899e-05,-0.0374480188,-0.0101570487,-0.0107721752,-0.041398257,-0.00384648098,0.0203835145,-0.0225511733,-0.0523531623,-0.00716794562,0.001117612,-0.00565102836,-0.0599631481,-0.0130045973,0.0262558851,-0.0172942784,-0.0186652355,-0.0193987004,0.0271583386,0.0236926656,-0.0508845933,-0.00882777665,0.0220967662,-0.0444483422,-0.0437009484,-0.0208004452,0.0175469983,-0.03320482,0.00882147532,0.0303831771,-0.0403645672,-0.0187089071,-0.00680262782,-0.0164311081,0.0297398213,0.0120727494,0.0069616125,0.0236424264,-0.0401309617,0.0244088676,0.0140359048,0.0135598248,-0.0234716702,-0.0239141881,0.00508014578,0.0700514466,0.00928179454,-0.0226552766,-0.0237857439,-0.0369088091,-0.00511049572,0.00808124244,-0.0412632115,-0.0316821821,0.0120365778,0.0293217786,-0.0243626274,0.0103889788,-0.0394995585,-0.0171832964,-0.00967530254,0.00420653168,0.0136026237,0.0239664521,-0.0273591783,-0.0376945324,-0.00540510751,0.00218694843,0.0176916029,0.0308297984,-0.100560293,-0.0116374651,0.0188102759,-0.0111977216,0.0115229506,0.00516969198,-0.0214809012,0.0252723098,-0.00130337942,-0.0379010774,-0.00558570819,0.0217082407,-0.0246038921,0.054717198,0.0131486692,0.0151198003,-0.00162048417,-0.0270208716,0.0206174534,0.0558760576,0.0177386571,-0.0271161441,-0.0256847087,-0.0327579491,-0.0122581637,-0.0035033552,0.013128778,0.021762507,-0.0039220145,0.00625710748,-0.00503637968,-0.0237536691,0.0114588663,0.0282654334,0.0109646693,-0.0283421036,0.0186931714,-0.0368225239,0.0536773577,-0.00786442496,0.0157887749,0.031254258,-0.0379738621,-0.014717239,-0.00978891365,0.0170479417,-0.0421609581,0.00843918417,-0.0151188392,0.00235596555,0.0128774792,-0.00592162693,0.0456566028
8eeca29a-988d-4fa3-af73-32067ca27358,0.0266195536,0.00392086525,0.0134632271,-0.0331630446,0.0162664484,0.000597231381,0.0156628452,-0.00998920109,0.0374355279,-0.00310395868,-0.0208667088,-0.00247698254,0.0248922091,-0.00148185843,0.0165889338,0.0102067385,0.0247317515,0.0373973846,-0.0184278451,-0.0169681069,-0.00749156112,-0.00937726069,-0.01480857,0.0116189411,0.0174829848,-0.0131502105,-0.0199561063,0.0156005751,0.00418702327,0.0130972778,-0.00206361338,0.0445227772,0.00172314874,-0.0133286119,0.0194819868,0.0396896414,-0.0361641794,-0.0591791645,-0.0302788317,-0.0201253276,-0.000909299008,-0.105749138,-0.00339643843,-0.0434477292,0.0146609545,-0.0201818552,0.00728186965,-0.0286524817,-0.0693143234,0.0240896568,-0.00374300429,0.0155835906,-0.0141704455,-0.0688237399,-0.00893350039,0.00733243488,0.00968033168,-0.0123919984,0.00940707792,-0.0439452715,0.00463250699,0.00553317042,-0.0551307835,-0.0135517307,0.0146299843,-0.0346757956,-0.0011377685,0.0117795393,0.0116609661,0.0118132858,0.0105634043,-0.019996848,0.0194572359,-0.0011185453,-0.0660675541,-0.0154903615,0.037707977,0.00132141111,0.0374315307,-0.0152735636,-0.0140716173,0.0247386731,-0.0628042072,-0.0213872269,-0.0120592071,0.0176957175,-0.0267951749,0.00624909159,0.0187834166,0.00547978329,0.00264946627,-0.0264127403,0.00348167168,-0.00912540965,-0.0132541889,-0.0417588204,0.0141744921,0.000430410524,-0.00308105024,-0.025057381,-0.00209370139,-0.00864225719,-0.105033666,0.0156669579,-0.0208086297,0.00295782671,0.0173741672,-0.00605354598,-0.00281228358,-0.00570966536,-0.0124776587,0.0153471595,0.0353605263,-0.0746391863,-0.00907346141,0.0450298227,0.00221049669,0.00652032578,-0.00540844165,-0.0128667038,4.51737287e-05,0.0271322392,-0.0447555035,-0.000563239388,0.00674920296,-0.0086792307,-0.0151158934,-0.0296000876,0.0261696521,-0.00995857082,0.000766859273,-0.00085358147,0.00402479758,-0.0337927863,-0.0396074317,0.0231840927,-0.0118771186,-0.0348999314,-0.00936448853,0.00668486627,0.111836888,0.0184221622,-0.0273268651,-0.00383809186,-0.0109085068,-0.0330984257,0.0356274135,0.0250053275,-0.00244226214,-0.0740580186,-0.000918483769,-0.00121784664,-0.0606886856,0.00847610552,0.0472234637,-0.0154811619,-0.012637577,-0.0497210696,-0.0236825962,-0.0206308048,0.0199907143,0.0423775315,-0.0366017148,0.0246947613,0.0227502026,-0.0399200134,-0.00445708726,0.020980211,-0.0396560654,0.0152921602,-0.00800282322,0.00833501294,0.0187449064,-0.00665274821,-0.008156945,0.000886924565,-0.00271502836,-0.0047166422,0.0340055265,0.0200899411,0.0092085097,0.0274221394,-0.00526868552,-0.00641987659,0.0175329633,-0.0100210989,0.0121574691,0.0504098758,-0.0523516685,-0.00164764514,0.0176017992,0.00276815472,-0.0176884159,0.0472688675,-0.0171022136,-0.00992385577,-0.00329931173,-0.00176846178,-0.0114688408,0.0197186004,-0.00194464356,0.0202390756,0.0123786032,-0.014588628,-0.000546950323,-0.0031819155,0.0226769727,-0.023244122,-0.00926388148,-0.0200066566,-0.0378797315,0.0189335607,0.00615096278,0.00957876164,0.0130858747,0.398993522,0.0107816523,0.000466159108,-0.00601090211,-0.0027398956,0.028503485,0.0206337143,-0.015907092,0.00662729517,0.107281767,0.0182932671,-0.00381479855,-0.0107175531,0.0030815939,0.0103129158,0.011921851,0.0214331895,-0.0618855208,0.0112887369,0.0207211114,-0.00314883748,-0.010207233,-0.0106690861,-0.00254984666,-0.0322352611,0.0339525528,-0.016955832,0.521428049,0.0287431944,-0.0238812603,-0.0161962174,-0.013673435,0.000699415745,0.00972287916,-0.00549383508,-0.0108114593,0.0146407029,-0.0325410813,0.008162627,-0.0235532038,0.000829205848,0.0250395555,-7.04440245e-05,-0.0383227095,-0.00466877734,-0.0205644704,0.00168439304,-0.0390817113,-7.99716072e-05,-0.0197658557,0.046370782,-0.00172242208,0.00568768522,0.0108367503,-0.0109356092,0.00294514117,-0.0523514375,0.00993312616,0.0283986721,0.0204756465,-0.0181025751,0.0321218409,-0.00495379791,0.00436601602,0.00496467343,0.0341293551,-0.010745178,-0.0187946241,0.0363108143,0.00783823244,0.0209100712,-0.022850154,-0.00281263585,0.0232140273,-0.0560149327,0.0172658265,0.0192447454,-0.0179692525,0.0364998281,0.0114589706,-0.00586997857,-0.0147990556,-0.0061618546,-0.00708800135,-0.019154219,-0.0061808466,0.0445104465,-0.0327882469,0.0336618684,0.0262406711,-0.015055473,-0.00153811555,0.00242177676,0.00812490564,0.0271044392,0.000847399759,-0.0184848551,0.0214189719,0.0138066318,0.0231084488,-0.00687866285,0.0189485643,0.0573732592,-0.0161198135,-0.0551126227,-0.0282944273,0.0383431613,-0.0255626515,-0.0210095625,-0.0204283129,-0.0463417359,0.00667470228,-0.0027408246,-0.0209998246,-0.0234030541,0.00989284273,0.0163360015,0.036250215,-0.000802857801,-0.0173496306,0.00501264399,0.0255098417,0.00189703575,-0.000580777007,0.0082790358,-0.0147853475,0.0551287606,0.0535010248,-0.0378405116,0.0123556228,0.0250835363,0.0120229376,0.000648562855,0.0474627055,-0.0143716885,-0.0149857365,-0.0236222968,0.0212248825,0.00581025565,-0.0110791698,-0.00573317055,0.00392902642,0.00623589521,-0.0219885409,-0.00557512883,0.0170484204,-0.0446953997,0.0525774509,0.00394080766,-0.0145465937,0.00243055029,-0.00099234411,0.022921836,0.0060876389,0.0083280867,-0.00023285007,0.000460494804,0.0379168764,-0.0199965201,0.0326907821,-0.0320094824,-0.0190780349,-0.00926177111,-0.0150979506,0.0245065466,0.0683855116,0.00707541546,-1.31706056e-05,-0.0132097946,-0.0443999395,-0.000105942643,0.0143063962,-0.00862902496,0.0230187904,0.00677717943,-6.76342388e-05,0.0156725813,0.0116672246,0.0187377166,-0.0190062765,-0.00395255443,0.00373483985,-0.0128606865,-0.00145016529,-0.0218694769,0.00464272453,0.0986986086,-0.0332204513,-0.0172876567,-0.0109522054,-0.0185771175,-0.0255395826,0.0058965818,0.0807949379,0.00279881503,0.00396676874,-0.00451573636,0.01550656,0.00486109266,0.0242536869,-0.0162156187,0.013710659,0.00151989306,0.0384649001,-0.0208324082,0.0886577368,0.000372751907,0.0327658653,0.0180225112,0.0408323333,0.0128377285,0.0465694033,0.0332220979,-0.0438400432,0.0304675996,-0.00318647921,0.00187990931,0.0383299068,0.0188068766,0.0399630629,0.0353381447,0.0254151244,0.00544030406,0.00487208366,0.0147952549,0.0142276138,-0.00507671805,-0.0148577867,0.0328934379,-0.016816318,-0.0056921253,0.0287337266,-0.0193425659,0.000613118173,-0.011360894,-0.00630812766,-0.0101953316,0.00188363018,-0.024293825,-0.000243266899,-0.0104992567,0.0199923404,-0.0170243084,-0.0299219899,-0.0749337375,-0.0266687144,0.0145475715,0.03245949,-0.0591376685,0.0204616711,-0.00552027719,-0.00970396772,0.0455956273,0.0289573446,0.0174970869,0.01148724,0.000516206608,-0.0030245157,-0.0455484875,0.0122997025,0.000862637768,-0.0148158167,-0.00518273003,-0.077845946,0.00928870495,-0.0207818784,-0.00721780583,-0.0216994267,0.0211991202,-0.0373362117,0.00843675248,-0.0190000646,0.0114612505,0.000400661229,-0.0718109012,-0.00353854639,0.0525879934,0.000493638159,0.00283846771,0.0195560604,0.0157540794,-0.0176983085,0.022696808,0.0174165498,-0.0244830158,-0.0259793885,0.0177436937,-0.0165110957,0.0284683518,-0.140914097,-0.0214691125,-0.020693887,-0.00219979975,0.0012679412,0.0202070531,0.006793648,0.0172270238,0.00424964074,-0.00845502503,-0.0212708656,-0.0185931791,-0.000813236402,0.0220364146,-0.000145545986,-0.00677012699,-0.00856787246,-0.0307079367,0.0768541321,0.01815762,-0.00422346173,-0.0288265385,0.000720241689,0.00342872646,-0.0115059186,0.0428674966,-0.00389248901,0.0360520892,0.0306985658,0.0358393937,0.0223026983,-0.00070257776,0.0212851018,0.000777039735,0.00727713387,0.0073747877,0.0206251647,0.026206689,0.017215861,-0.0143233053,-0.0161558166,0.0062299748,0.0277176201,0.0175511856,-0.00292480062,0.0485283732,-0.000456027861,0.00367597793,-0.0512248948,0.0227697305,0.0167617053,-0.0157395173,0.0790707842,-0.0404509716,0.0355832689,-0.00349220191,-0.0209829714,0.00587366382,-0.0161371455,0.0136334561,-0.0151929231,-0.024450656,-0.0143331159,-0.00954410993,0.00545871584,-0.00331010763,-0.0315981619,-0.0302394368,-0.00599953998,0.00586801441,0.0103684748,-0.00888912566,-0.00908164214,0.00936866738,0.00598083856,-0.0342568494,-0.024798682,0.0310226977,0.00340011972,-0.0166987479,-0.00816190988,-0.01476778,-0.0333203785,0.0152171822,0.0222816356,-0.0168559197,-0.0319258869,-0.0203232598,0.0143430131,-0.00348158577,-0.0472773984,0.0283174794,0.0210605096,0.00690025929,0.0132580763,-0.0187209621,-0.0639462993,0.0335546136,0.0110251931,-0.00521840388,0.00149663317,-0.0308043323,-0.0117591638,0.0264115706,0.0477982983,0.0179148968,0.018602293,-0.00922538899,-0.0645899475,-0.00615143077,0.00856960006,-0.0277677495,0.0239149239,-0.00295516313,0.0058761118,-0.0265009794,0.00742079737,0.0407214537,0.000371294766,-0.00887087919,-0.0181246214,0.0244618114,-0.0519095697,0.0187336318,-0.0244510751,-0.0148655167,0.0853865668,-0.111084178,0.0228945203,-0.00850809366,-0.000889447518,0.00894678012,-0.0156237511,0.00813020021,0.0140424194,-0.0291457772,0.048570402,-0.0396552794,0.00478097331,-0.024603663,0.00109782908,0.0056906878,0.0118845152,-0.00702047907,-0.00217257487,-0.0470735952,-0.0113355089,-0.0019571695,-0.053774327,-0.0409350842,0.00835724082,-0.0418943204,0.0109953359,0.00366384606,0.00430176919,-0.0151920123,0.0136544295,-0.00586967543,-0.0462571345,0.00273957336,0.0194060504,-0.0355501361,0.0291211456,0.0208101459,-0.0715437755,-0.0726102367,0.00427747704,0.00373427221,-0.0483991131,0.0216627643,-0.0312742256,-0.0182001144,0.0206786115,0.0167227127,-0.0369895473,-0.00885897875,-0.0136293778,0.0337880738,-0.0161543079,-0.0712743998,0.0251204446,-0.00545304036,0.00499030156,0.0266049076,-0.011671585,0.015497583,0.107260995,0.0170182697,0.0154649243,-0.00842716824,-0.0242175329,0.0184935741,-0.0239352603,0.00958096422,-0.0269338191,0.0320438519,0.0241744667,0.0123589756,-0.03655589,-0.0113069853,-0.0320955999,-0.000231665792,0.025338348,0.0321669318,0.0110232215,-0.0144444089,1.08334443e-05,0.0119166179,-0.000359432393,0.0107648671,0.0314508267,-0.00583957229,-0.0251011979,-0.011568699,-0.00516829593,0.0157436244,-0.00138681335,-0.0138582215,0.0135227283,0.00417730585,0.0229687169,0.00916273333,0.0104709622,-0.012484082,0.0575457364,-0.017767638,-0.0228789635,-0.00287257833,-0.0186649114,0.0283777174,0.0294521619,0.000588418858,0.0182022937,-0.0188480001,-0.00381693896,-0.0029097395,-0.0513603613,0.0126995724,0.0103580682,-0.0254780725,0.0226890445,-0.00233712606,0.0114488238,0.0272281244,-0.0213329829,0.0366558097,-0.00645959331,-0.0135572776,0.0573943332,0.00720297312,0.0359524637,0.00917121582,0.0104393372,0.0249690805,0.017963361,-0.0157913379,-0.00560474675,-0.0364756472,-0.0273510125,-0.0108286878,-0.0319323875,-0.00237029092,-0.026044175,0.0567840226
