song_id,lyrics_emb_0,lyrics_emb_1,lyrics_emb_2,lyrics_emb_3,lyrics_emb_4,lyrics_emb_5,lyrics_emb_6,lyrics_emb_7,lyrics_emb_8,lyrics_emb_9,lyrics_emb_10,lyrics_emb_11,lyrics_emb_12,lyrics_emb_13,lyrics_emb_14,lyrics_emb_15,lyrics_emb_16,lyrics_emb_17,lyrics_emb_18,lyrics_emb_19,lyrics_emb_20,lyrics_emb_21,lyrics_emb_22,lyrics_emb_23,lyrics_emb_24,lyrics_emb_25,lyrics_emb_26,lyrics_emb_27,lyrics_emb_28,lyrics_emb_29,lyrics_emb_30,lyrics_emb_31,lyrics_emb_32,lyrics_emb_33,lyrics_emb_34,lyrics_emb_35,lyrics_emb_36,lyrics_emb_37,lyrics_emb_38,lyrics_emb_39,lyrics_emb_40,lyrics_emb_41,lyrics_emb_42,lyrics_emb_43,lyrics_emb_44,lyrics_emb_45,lyrics_emb_46,lyrics_emb_47,lyrics_emb_48,lyrics_emb_49,lyrics_emb_50,lyrics_emb_51,lyrics_emb_52,lyrics_emb_53,lyrics_emb_54,lyrics_emb_55,lyrics_emb_56,lyrics_emb_57,lyrics_emb_58,lyrics_emb_59,lyrics_emb_60,lyrics_emb_61,lyrics_emb_62,lyrics_emb_63,lyrics_emb_64,lyrics_emb_65,lyrics_emb_66,lyrics_emb_67,lyrics_emb_68,lyrics_emb_69,lyrics_emb_70,lyrics_emb_71,lyrics_emb_72,lyrics_emb_73,lyrics_emb_74,lyrics_emb_75,lyrics_emb_76,lyrics_emb_77,lyrics_emb_78,lyrics_emb_79,lyrics_emb_80,lyrics_emb_81,lyrics_emb_82,lyrics_emb_83,lyrics_emb_84,lyrics_emb_85,lyrics_emb_86,lyrics_emb_87,lyrics_emb_88,lyrics_emb_89,lyrics_emb_90,lyrics_emb_91,lyrics_emb_92,lyrics_emb_93,lyrics_emb_94,lyrics_emb_95,lyrics_emb_96,lyrics_emb_97,lyrics_emb_98,lyrics_emb_99,lyrics_emb_100,lyrics_emb_101,lyrics_emb_102,lyrics_emb_103,lyrics_emb_104,lyrics_emb_105,lyrics_emb_106,lyrics_emb_107,lyrics_emb_108,lyrics_emb_109,lyrics_emb_110,lyrics_emb_111,lyrics_emb_112,lyrics_emb_113,lyrics_emb_114,lyrics_emb_115,lyrics_emb_116,lyrics_emb_117,lyrics_emb_118,lyrics_emb_119,lyrics_emb_120,lyrics_emb_121,lyrics_emb_122,lyrics_emb_123,lyrics_emb_124,lyrics_emb_125,lyrics_emb_126,lyrics_emb_127,lyrics_emb_128,lyrics_emb_129,lyrics_emb_130,lyrics_emb_131,lyrics_emb_132,lyrics_emb_133,lyrics_emb_134,lyrics_emb_135,lyrics_emb_136,lyrics_emb_137,lyrics_emb_138,lyrics_emb_139,lyrics_emb_140,lyrics_emb_141,lyrics_emb_142,lyrics_emb_143,lyrics_emb_144,lyrics_emb_145,lyrics_emb_146,lyrics_emb_147,lyrics_emb_148,lyrics_emb_149,lyrics_emb_150,lyrics_emb_151,lyrics_emb_152,lyrics_emb_153,lyrics_emb_154,lyrics_emb_155,lyrics_emb_156,lyrics_emb_157,lyrics_emb_158,lyrics_emb_159,lyrics_emb_160,lyrics_emb_161,lyrics_emb_162,lyrics_emb_163,lyrics_emb_164,lyrics_emb_165,lyrics_emb_166,lyrics_emb_167,lyrics_emb_168,lyrics_emb_169,lyrics_emb_170,lyrics_emb_171,lyrics_emb_172,lyrics_emb_173,lyrics_emb_174,lyrics_emb_175,lyrics_emb_176,lyrics_emb_177,lyrics_emb_178,lyrics_emb_179,lyrics_emb_180,lyrics_emb_181,lyrics_emb_182,lyrics_emb_183,lyrics_emb_184,lyrics_emb_185,lyrics_emb_186,lyrics_emb_187,lyrics_emb_188,lyrics_emb_189,lyrics_emb_190,lyrics_emb_191,lyrics_emb_192,lyrics_emb_193,lyrics_emb_194,lyrics_emb_195,lyrics_emb_196,lyrics_emb_197,lyrics_emb_198,lyrics_emb_199,lyrics_emb_200,lyrics_emb_201,lyrics_emb_202,lyrics_emb_203,lyrics_emb_204,lyrics_emb_205,lyrics_emb_206,lyrics_emb_207,lyrics_emb_208,lyrics_emb_209,lyrics_emb_210,lyrics_emb_211,lyrics_emb_212,lyrics_emb_213,lyrics_emb_214,lyrics_emb_215,lyrics_emb_216,lyrics_emb_217,lyrics_emb_218,lyrics_emb_219,lyrics_emb_220,lyrics_emb_221,lyrics_emb_222,lyrics_emb_223,lyrics_emb_224,lyrics_emb_225,lyrics_emb_226,lyrics_emb_227,lyrics_emb_228,lyrics_emb_229,lyrics_emb_230,lyrics_emb_231,lyrics_emb_232,lyrics_emb_233,lyrics_emb_234,lyrics_emb_235,lyrics_emb_236,lyrics_emb_237,lyrics_emb_238,lyrics_emb_239,lyrics_emb_240,lyrics_emb_241,lyrics_emb_242,lyrics_emb_243,lyrics_emb_244,lyrics_emb_245,lyrics_emb_246,lyrics_emb_247,lyrics_emb_248,lyrics_emb_249,lyrics_emb_250,lyrics_emb_251,lyrics_emb_252,lyrics_emb_253,lyrics_emb_254,lyrics_emb_255,lyrics_emb_256,lyrics_emb_257,lyrics_emb_258,lyrics_emb_259,lyrics_emb_260,lyrics_emb_261,lyrics_emb_262,lyrics_emb_263,lyrics_emb_264,lyrics_emb_265,lyrics_emb_266,lyrics_emb_267,lyrics_emb_268,lyrics_emb_269,lyrics_emb_270,lyrics_emb_271,lyrics_emb_272,lyrics_emb_273,lyrics_emb_274,lyrics_emb_275,lyrics_emb_276,lyrics_emb_277,lyrics_emb_278,lyrics_emb_279,lyrics_emb_280,lyrics_emb_281,lyrics_emb_282,lyrics_emb_283,lyrics_emb_284,lyrics_emb_285,lyrics_emb_286,lyrics_emb_287,lyrics_emb_288,lyrics_emb_289,lyrics_emb_290,lyrics_emb_291,lyrics_emb_292,lyrics_emb_293,lyrics_emb_294,lyrics_emb_295,lyrics_emb_296,lyrics_emb_297,lyrics_emb_298,lyrics_emb_299,lyrics_emb_300,lyrics_emb_301,lyrics_emb_302,lyrics_emb_303,lyrics_emb_304,lyrics_emb_305,lyrics_emb_306,lyrics_emb_307,lyrics_emb_308,lyrics_emb_309,lyrics_emb_310,lyrics_emb_311,lyrics_emb_312,lyrics_emb_313,lyrics_emb_314,lyrics_emb_315,lyrics_emb_316,lyrics_emb_317,lyrics_emb_318,lyrics_emb_319,lyrics_emb_320,lyrics_emb_321,lyrics_emb_322,lyrics_emb_323,lyrics_emb_324,lyrics_emb_325,lyrics_emb_326,lyrics_emb_327,lyrics_emb_328,lyrics_emb_329,lyrics_emb_330,lyrics_emb_331,lyrics_emb_332,lyrics_emb_333,lyrics_emb_334,lyrics_emb_335,lyrics_emb_336,lyrics_emb_337,lyrics_emb_338,lyrics_emb_339,lyrics_emb_340,lyrics_emb_341,lyrics_emb_342,lyrics_emb_343,lyrics_emb_344,lyrics_emb_345,lyrics_emb_346,lyrics_emb_347,lyrics_emb_348,lyrics_emb_349,lyrics_emb_350,lyrics_emb_351,lyrics_emb_352,lyrics_emb_353,lyrics_emb_354,lyrics_emb_355,lyrics_emb_356,lyrics_emb_357,lyrics_emb_358,lyrics_emb_359,lyrics_emb_360,lyrics_emb_361,lyrics_emb_362,lyrics_emb_363,lyrics_emb_364,lyrics_emb_365,lyrics_emb_366,lyrics_emb_367,lyrics_emb_368,lyrics_emb_369,lyrics_emb_370,lyrics_emb_371,lyrics_emb_372,lyrics_emb_373,lyrics_emb_374,lyrics_emb_375,lyrics_emb_376,lyrics_emb_377,lyrics_emb_378,lyrics_emb_379,lyrics_emb_380,lyrics_emb_381,lyrics_emb_382,lyrics_emb_383,lyrics_emb_384,lyrics_emb_385,lyrics_emb_386,lyrics_emb_387,lyrics_emb_388,lyrics_emb_389,lyrics_emb_390,lyrics_emb_391,lyrics_emb_392,lyrics_emb_393,lyrics_emb_394,lyrics_emb_395,lyrics_emb_396,lyrics_emb_397,lyrics_emb_398,lyrics_emb_399,lyrics_emb_400,lyrics_emb_401,lyrics_emb_402,lyrics_emb_403,lyrics_emb_404,lyrics_emb_405,lyrics_emb_406,lyrics_emb_407,lyrics_emb_408,lyrics_emb_409,lyrics_emb_410,lyrics_emb_411,lyrics_emb_412,lyrics_emb_413,lyrics_emb_414,lyrics_emb_415,lyrics_emb_416,lyrics_emb_417,lyrics_emb_418,lyrics_emb_419,lyrics_emb_420,lyrics_emb_421,lyrics_emb_422,lyrics_emb_423,lyrics_emb_424,lyrics_emb_425,lyrics_emb_426,lyrics_emb_427,lyrics_emb_428,lyrics_emb_429,lyrics_emb_430,lyrics_emb_431,lyrics_emb_432,lyrics_emb_433,lyrics_emb_434,lyrics_emb_435,lyrics_emb_436,lyrics_emb_437,lyrics_emb_438,lyrics_emb_439,lyrics_emb_440,lyrics_emb_441,lyrics_emb_442,lyrics_emb_443,lyrics_emb_444,lyrics_emb_445,lyrics_emb_446,lyrics_emb_447,lyrics_emb_448,lyrics_emb_449,lyrics_emb_450,lyrics_emb_451,lyrics_emb_452,lyrics_emb_453,lyrics_emb_454,lyrics_emb_455,lyrics_emb_456,lyrics_emb_457,lyrics_emb_458,lyrics_emb_459,lyrics_emb_460,lyrics_emb_461,lyrics_emb_462,lyrics_emb_463,lyrics_emb_464,lyrics_emb_465,lyrics_emb_466,lyrics_emb_467,lyrics_emb_468,lyrics_emb_469,lyrics_emb_470,lyrics_emb_471,lyrics_emb_472,lyrics_emb_473,lyrics_emb_474,lyrics_emb_475,lyrics_emb_476,lyrics_emb_477,lyrics_emb_478,lyrics_emb_479,lyrics_emb_480,lyrics_emb_481,lyrics_emb_482,lyrics_emb_483,lyrics_emb_484,lyrics_emb_485,lyrics_emb_486,lyrics_emb_487,lyrics_emb_488,lyrics_emb_489,lyrics_emb_490,lyrics_emb_491,lyrics_emb_492,lyrics_emb_493,lyrics_emb_494,lyrics_emb_495,lyrics_emb_496,lyrics_emb_497,lyrics_emb_498,lyrics_emb_499,lyrics_emb_500,lyrics_emb_501,lyrics_emb_502,lyrics_emb_503,lyrics_emb_504,lyrics_emb_505,lyrics_emb_506,lyrics_emb_507,lyrics_emb_508,lyrics_emb_509,lyrics_emb_510,lyrics_emb_511,lyrics_emb_512,lyrics_emb_513,lyrics_emb_514,lyrics_emb_515,lyrics_emb_516,lyrics_emb_517,lyrics_emb_518,lyrics_emb_519,lyrics_emb_520,lyrics_emb_521,lyrics_emb_522,lyrics_emb_523,lyrics_emb_524,lyrics_emb_525,lyrics_emb_526,lyrics_emb_527,lyrics_emb_528,lyrics_emb_529,lyrics_emb_530,lyrics_emb_531,lyrics_emb_532,lyrics_emb_533,lyrics_emb_534,lyrics_emb_535,lyrics_emb_536,lyrics_emb_537,lyrics_emb_538,lyrics_emb_539,lyrics_emb_540,lyrics_emb_541,lyrics_emb_542,lyrics_emb_543,lyrics_emb_544,lyrics_emb_545,lyrics_emb_546,lyrics_emb_547,lyrics_emb_548,lyrics_emb_549,lyrics_emb_550,lyrics_emb_551,lyrics_emb_552,lyrics_emb_553,lyrics_emb_554,lyrics_emb_555,lyrics_emb_556,lyrics_emb_557,lyrics_emb_558,lyrics_emb_559,lyrics_emb_560,lyrics_emb_561,lyrics_emb_562,lyrics_emb_563,lyrics_emb_564,lyrics_emb_565,lyrics_emb_566,lyrics_emb_567,lyrics_emb_568,lyrics_emb_569,lyrics_emb_570,lyrics_emb_571,lyrics_emb_572,lyrics_emb_573,lyrics_emb_574,lyrics_emb_575,lyrics_emb_576,lyrics_emb_577,lyrics_emb_578,lyrics_emb_579,lyrics_emb_580,lyrics_emb_581,lyrics_emb_582,lyrics_emb_583,lyrics_emb_584,lyrics_emb_585,lyrics_emb_586,lyrics_emb_587,lyrics_emb_588,lyrics_emb_589,lyrics_emb_590,lyrics_emb_591,lyrics_emb_592,lyrics_emb_593,lyrics_emb_594,lyrics_emb_595,lyrics_emb_596,lyrics_emb_597,lyrics_emb_598,lyrics_emb_599,lyrics_emb_600,lyrics_emb_601,lyrics_emb_602,lyrics_emb_603,lyrics_emb_604,lyrics_emb_605,lyrics_emb_606,lyrics_emb_607,lyrics_emb_608,lyrics_emb_609,lyrics_emb_610,lyrics_emb_611,lyrics_emb_612,lyrics_emb_613,lyrics_emb_614,lyrics_emb_615,lyrics_emb_616,lyrics_emb_617,lyrics_emb_618,lyrics_emb_619,lyrics_emb_620,lyrics_emb_621,lyrics_emb_622,lyrics_emb_623,lyrics_emb_624,lyrics_emb_625,lyrics_emb_626,lyrics_emb_627,lyrics_emb_628,lyrics_emb_629,lyrics_emb_630,lyrics_emb_631,lyrics_emb_632,lyrics_emb_633,lyrics_emb_634,lyrics_emb_635,lyrics_emb_636,lyrics_emb_637,lyrics_emb_638,lyrics_emb_639,lyrics_emb_640,lyrics_emb_641,lyrics_emb_642,lyrics_emb_643,lyrics_emb_644,lyrics_emb_645,lyrics_emb_646,lyrics_emb_647,lyrics_emb_648,lyrics_emb_649,lyrics_emb_650,lyrics_emb_651,lyrics_emb_652,lyrics_emb_653,lyrics_emb_654,lyrics_emb_655,lyrics_emb_656,lyrics_emb_657,lyrics_emb_658,lyrics_emb_659,lyrics_emb_660,lyrics_emb_661,lyrics_emb_662,lyrics_emb_663,lyrics_emb_664,lyrics_emb_665,lyrics_emb_666,lyrics_emb_667,lyrics_emb_668,lyrics_emb_669,lyrics_emb_670,lyrics_emb_671,lyrics_emb_672,lyrics_emb_673,lyrics_emb_674,lyrics_emb_675,lyrics_emb_676,lyrics_emb_677,lyrics_emb_678,lyrics_emb_679,lyrics_emb_680,lyrics_emb_681,lyrics_emb_682,lyrics_emb_683,lyrics_emb_684,lyrics_emb_685,lyrics_emb_686,lyrics_emb_687,lyrics_emb_688,lyrics_emb_689,lyrics_emb_690,lyrics_emb_691,lyrics_emb_692,lyrics_emb_693,lyrics_emb_694,lyrics_emb_695,lyrics_emb_696,lyrics_emb_697,lyrics_emb_698,lyrics_emb_699,lyrics_emb_700,lyrics_emb_701,lyrics_emb_702,lyrics_emb_703,lyrics_emb_704,lyrics_emb_705,lyrics_emb_706,lyrics_emb_707,lyrics_emb_708,lyrics_emb_709,lyrics_emb_710,lyrics_emb_711,lyrics_emb_712,lyrics_emb_713,lyrics_emb_714,lyrics_emb_715,lyrics_emb_716,lyrics_emb_717,lyrics_emb_718,lyrics_emb_719,lyrics_emb_720,lyrics_emb_721,lyrics_emb_722,lyrics_emb_723,lyrics_emb_724,lyrics_emb_725,lyrics_emb_726,lyrics_emb_727,lyrics_emb_728,lyrics_emb_729,lyrics_emb_730,lyrics_emb_731,lyrics_emb_732,lyrics_emb_733,lyrics_emb_734,lyrics_emb_735,lyrics_emb_736,lyrics_emb_737,lyrics_emb_738,lyrics_emb_739,lyrics_emb_740,lyrics_emb_741,lyrics_emb_742,lyrics_emb_743,lyrics_emb_744,lyrics_emb_745,lyrics_emb_746,lyrics_emb_747,lyrics_emb_748,lyrics_emb_749,lyrics_emb_750,lyrics_emb_751,lyrics_emb_752,lyrics_emb_753,lyrics_emb_754,lyrics_emb_755,lyrics_emb_756,lyrics_emb_757,lyrics_emb_758,lyrics_emb_759,lyrics_emb_760,lyrics_emb_761,lyrics_emb_762,lyrics_emb_763,lyrics_emb_764,lyrics_emb_765,lyrics_emb_766,lyrics_emb_767
38fcebd3-1368-4afb-afe2-b7edaf8c29b0,0.0107366731,-0.00894879363,0.00182262831,0.00770964473,0.392415553,0.0136828804,0.00581981055,0.0065311566,-0.00375305675,-0.0189409964,-0.0164899062,-0.0138176447,0.0265302788,-0.010363318,-0.00576174911,0.0121533386,0.00970550254,-0.00349487155,-0.00508106686,-0.00167894782,0.00187244627,0.0214479789,0.00341559574,0.00123100693,0.00121630938,0.0166384969,0.00821428187,0.00212506601,-0.00514764385,-0.0106234886,-0.0060849539,0.00197333214,-0.00773610454,0.0270720571,-0.00665151188,0.013790994,0.00759275025,-0.0170182884,5.30640355e-05,-0.0187888239,-0.0028210443,-0.0109933717,-0.00771944737,-0.0183643922,0.0109937591,0.0237248279,0.0092981942,0.00582688767,0.0070265471,-0.0190580059,0.00833678711,0.0115666781,-0.0168649871,-0.00831237156,0.00631338684,-0.0139105469,0.00116779376,0.011618684,0.00535138464,-0.00209961436,0.0172817707,0.00477462634,-0.0205544736,-0.00198963773,0.0113475705,0.000956855307,-0.00954065006,-0.00505257258,-0.00164321403,0.00209194981,0.0447970331,-0.0200352743,-0.0115972711,-0.0127007095,-0.0186274759,-0.0178154986,0.0159458835,0.0121591343,-0.00456975214,0.0028348919,0.00974667724,0.00556672085,-0.0137560107,-9.25348832e-06,0.00136296311,0.0114112869,0.00614426471,-0.00410592696,-0.00141940708,-0.00320561044,0.00512781227,0.00775663368,-0.00225070701,-0.012726496,-0.000937331642,-0.00273846532,0.0128293224,0.00233920431,0.00580466399,0.0106090438,0.245005578,-0.00693544885,-0.0203513354,0.0132943057,0.00882270467,0.00115015439,0.0035461837,0.0021652116,-0.00378949801,0.00566581357,0.00723338919,0.00541259628,0.0162630342,-0.00243570353,-0.000999455457,-0.00595374638,0.00385337276,0.0033746548,0.0136540039,-0.00435503153,-0.00720553659,0.00631455518,-0.0261859894,0.00975146331,0.0050722789,0.0141868768,0.00428230967,0.0125892684,-0.00756237842,0.00874398183,0.0160764512,0.0214334577,-0.0205631256,0.00528379809,0.00781040406,-0.0140038729,0.00173244823,0.00859112293,0.000391732086,-0.0154867228,0.0364655405,-0.00449669268,0.0184448324,0.00753721735,0.00176647154,0.00666884147,0.00321313925,0.0167193785,0.00642945431,-0.0245285369,-0.00802676193,0.00680265063,-0.0031322313,-0.0117927911,-0.00800314266,0.000156794456,-0.0136320265,-0.0168453921,-0.000183050171,0.0031067743,0.00407031504,0.0100565031,-0.00501626078,0.0157210398,-2.90222197e-05,-0.0323601216,-0.00137998711,-0.00136260642,0.00511186989,0.0158135612,-0.00696726795,-0.0112098865,-0.0156288072,-0.0213931631,0.000697134354,0.00613847701,0.00342137995,-0.00545719592,0.0213858634,0.00742980419,-0.00316869235,0.0216699187,-0.00292503554,-0.000541987771,0.0120065976,-0.0018118599,0.0308990255,0.0194134396,-0.00744114444,-0.00381317222,-0.00123005256,0.0142698381,0.00589823443,-0.00548286876,0.0135019887,-0.00855630264,0.0192500278,0.00357736787,0.0111080417,-0.025997689,0.0296270065,0.0154052656,0.00412452873,-0.00985572115,0.00483826222,-0.0031765108,-0.00658900151,-0.00442338781,0.00125207368,-0.0118920272,-0.0299815647,-0.0220785271,0.00713995006,0.00985017791,0.0209029596,0.0218507741,-0.0164517369,0.00324971229,0.0298930667,0.00153184519,0.00382744218,-0.0272691641,0.0126703233,-0.00254612626,-0.0111339474,-0.0118830083,-0.0223640911,-0.00324834231,0.00889545865,0.000814190076,0.00411692029,-0.0053107664,-0.0165626705,0.00261248322,0.0247754287,-0.0154077988,-0.0135047454,0.00397607917,0.0198705774,-0.0309818666,0.0143559277,0.00813073292,0.0327267945,-0.00224222732,0.00627254648,0.00447304454,0.00562377786,0.00829702429,-0.0108979028,-0.00638569146,0.00993947778,0.00894627441,0.00717844814,-0.0187839307,0.00982160866,0.00141065323,0.00624712696,-0.0186616741,-0.00484210812,0.00694070617,0.0123899961,0.00780888181,-0.00885386765,-0.00440678699,0.00464087771,0.00536822295,0.0208834596,-0.00488271378,-0.0107404618,-0.000995513168,0.00313201919,-0.00346664083,-0.0155116208,0.00352156628,0.000561284542,-0.0120187756,-0.0109319231,-0.0106372181,0.00274481368,0.00264869328,-0.004057799,0.00204699719,-0.0119144619,-0.000718076888,0.00272921403,0.0100077642,-8.33737249e-06,0.0102338353,0.00748234801,0.00107313448,0.00254142401,0.0040263515,0.000197952453,-0.00444306945,0.0113504613,-0.00665671332,0.00338542322,-0.00885350909,0.00614311034,0.00354384864,-0.0144557822,-0.0138914278,-0.0230624415,0.00639494089,0.028892152,0.00692611234,-0.0185146779,0.00522377156,-0.0161077827,0.00655320613,0.00791304186,0.00225919019,-0.00174610631,-0.00566992583,-0.0159620121,-0.0137931621,0.00880718138,0.000458258146,0.00417097332,-0.00256948522,0.00334327738,0.0235402863,-0.00493166456,-0.00991428457,-0.00989277381,0.00254449481,0.000482761039,-0.019637851,-0.00843020342,0.0103984755,0.00548065454,0.0143716326,0.00609427597,0.00253500347,-0.008187728,0.0185508449,0.0126429321,0.00193655374,-0.0144069809,0.00583583768,-0.00409943657,7.08390653e-05,0.0050440412,-0.00929804146,0.00864406489,0.0126300743,0.00767631317,0.00415994786,0.0122692417,0.012172658,-0.000653925934,0.0157281999,-0.00923291687,0.00737178652,-0.0273328628,0.0100603597,0.0108046578,-0.0103928018,0.00577893108,-0.00761885662,0.00138217164,-0.0107605597,0.0009157522,0.0027947973,0.00597536936,0.005010386,-0.00638572918,0.00121750229,-0.0155371148,-0.00930668041,0.00231622159,-0.00701508112,0.0197688527,-0.00841353275,-0.00288192206,-0.00419099908,0.00542625133,-0.0126376916,0.00976168551,-0.00742557738,0.00767141348,-0.0144712422,-0.0220131967,0.00129968987,-0.00733166514,-0.00232715486,0.000214943953,-0.00712492969,-0.0123974411,0.0165184047,0.0159812812,-0.0071586594,-0.0127923694,-0.0109287435,0.00933080632,-0.0292021297,-0.0173050929,0.017991541,0.00605872087,-0.00112949952,0.00285405316,0.0216985922,0.00593556324,0.00616484834,0.0027483569,-0.00344419829,0.0154622793,-0.0057737031,0.0446398072,0.00862131082,-0.00649152463,0.00726439245,0.00939694047,0.0172770377,-0.000875974074,-0.00718356576,0.00149142637,0.00412225025,-0.0107381735,0.0142831979,-0.00559008261,0.00794250611,0.01369288,-0.00877523515,-0.000686653482,0.0118769621,0.00244588195,-0.0234602503,0.00740831764,-0.00547867175,0.00567876361,-0.00652713282,-0.0029628023,-0.00157267135,-0.305259764,-0.00396339502,0.000294462778,0.00270291604,0.00916688703,0.00550029613,0.00277465698,0.00679366803,0.00636716932,0.00369401462,-0.00344822323,0.0019320969,-0.0122214537,-0.0115557229,0.00507970154,-0.0179012306,0.00200075889,-0.00998259056,0.00533143617,0.0159573574,0.00218029576,0.0229761545,-0.0129620647,0.00415934995,-0.0131222531,-0.000841552392,0.00612527272,-0.0119627602,0.021693578,0.0257672984,0.0111275194,-0.0111647137,0.0201830026,0.0220467988,0.0108367819,0.00518481946,0.0174779575,-0.00980492961,-0.0177889615,0.00151053781,0.00566813583,0.0166002419,-0.013753375,-0.00373144518,-0.0055537005,0.0101608029,0.0033555117,0.00433448888,-0.0129860612,-0.00744899362,-0.0239501484,-0.00963640492,-0.00422105193,-0.00970628019,0.000215888518,-0.0316891,0.00978824217,-0.0242770985,0.011854127,-0.0122523345,0.0142748067,0.00309369713,6.15890749e-05,-0.0105362246,0.00507459184,-0.0108176675,0.00176852441,0.000643878593,-0.0262289699,-0.0203728694,-0.0399017259,0.00320316106,0.012086357,0.00588881178,0.00877272058,0.0345567316,-0.00834975205,0.00571419159,0.00387456804,0.00082981633,-0.0100680785,-0.00556167681,-0.0125487372,0.0179506317,-0.00155350775,-0.00765882339,-0.0133611066,0.0124261817,0.0278019533,0.00360311545,-0.0215388145,0.00171108707,0.00640636357,0.00403915066,-0.0155211799,0.00276035327,0.0174340773,-0.0107941972,0.00105713354,0.00546584604,0.00612657005,-0.000483578595,0.00402834173,-0.00329538202,0.00315601309,-0.0111413114,0.00641063834,-0.0156069286,0.0131442165,-0.00246303622,-0.00860057678,0.0146377031,0.0133818155,0.0103644514,-0.00522809802,0.0198003892,0.00386256841,-0.00329935481,0.0108189117,-0.00288906158,-0.0112895304,-0.00166190136,0.0125574907,0.00397876464,0.00370731833,0.00780257583,-0.00532056857,-0.000572711986,0.00144486572,0.0203166083,-0.00125708955,0.0260865781,0.0116686672,0.00851243641,-0.000535574858,-0.00154640491,0.00224779756,0.0160688329,0.00319960807,0.0112867104,0.0194066763,-0.0066554551,-0.00600299286,-0.0143266339,0.00814135373,-0.00332814571,-0.000758104026,0.00212401315,-0.0229551513,0.00666726241,-0.0151637373,-0.00288133533,-0.0031815921,0.00886669569,-0.0117330737,0.0088957306,0.00877580326,0.00760526769,0.0059009851,-0.0119686276,-0.00322381011,-0.00568282558,0.00878567807,0.0121660121,0.0260464922,0.00857051089,-0.000829273544,0.00475147553,-0.00119724486,0.00608000439,0.0112966429,0.00324830972,-0.00128649513,-0.00281266519,-0.0116316313,0.012236217,0.0165216047,-0.00395105127,-0.0288322698,0.0139141036,0.0123828622,0.00982984062,-0.0294738933,0.00728790602,0.014219394,0.0129515799,0.00705737807,-0.000331652438,-0.00999063812,8.70070144e-05,-0.0133899702,-0.00415403722,0.3262707,0.0087232301,0.0077810185,0.00447671814,0.0161436331,-0.0035369813,0.0116779692,-0.00198142999,-3.52077332e-05,0.0153102186,0.0115468036,-0.00630899845,0.00613536173,0.0114681693,-0.0175386276,-0.00563777331,0.00107055216,0.0128860958,0.0184154268,0.0237945225,0.00682372926,-0.00363959628,-0.00212259032,-0.00936437212,-0.00799856149,0.0378485024,0.00440249359,-0.690432429,0.000138239542,0.00818137825,0.00705126068,-0.00589215849,0.0162860453,0.0106975585,-0.00712602492,0.00648445589,-0.0317293331,-0.0143848816,-0.0235205907,-0.0114029143,0.00254422543,-0.000836120278,-0.0222319663,0.0232288539,0.0124187404,-0.000213693143,-0.00434903754,-0.0166632105,-0.00505023869,0.00261958339,-0.0123558622,-0.0180939659,-0.00657617766,-0.00767848548,0.00558318198,0.00200910866,-0.00273000402,-0.0136489915,0.00460279128,-0.00106927624,0.00900248624,0.0011796956,-0.00111047318,-0.0119351046,0.0301347617,0.00846757554,-0.000848100288,-0.0115480218,0.0160926264,0.0005530825,8.66488117e-05,-0.0061003631,0.00884463824,-0.00677287905,0.00746635813,0.00728111155,-0.014902195,-0.00107216451,-0.0123969968,-0.00916455593,0.00206092,-0.00803263392,-0.0115242237,0.00780088408,0.0218458883,0.00613401225,0.0059291576,-0.0230582692,-0.00996272918,-0.0121742925,-0.00561509794,0.00500602927,-0.0176215228,0.0137509145,0.00766812917,0.00358771742,-0.0177908577,0.00850079209,0.00722211692,-0.0011652367,-0.00962883607,-0.0134084094,0.0197955724,0.000439603988,-0.00381718902,-0.0122741275,0.00275573274,0.00603742106,0.00786666758,-0.000160417956,-0.00730652688,-0.0107297422,0.00768439705,0.00525663327,-0.00742867496,0.00112206908,-0.010979509,-0.0138145173,0.00705406396,-0.00817265175,0.0170466378,-0.018980721,0.00574306911,-0.0137995556,-0.00521621294,-0.0179006811,-0.0229053944,0.0336165354,0.00642663706,-0.0239969175,0.00381158688,0.00239101332,0.0131447082,-0.010330271,0.00616953801,-0.00579621922,0.00958525669,0.00335717108,0.00341434218,-0.0145854829,-0.00103469705,-0.021606721
020d124a-eeb4-4c3a-8f6b-9f1f7dddeb5c,0.00758138672,-0.00258421968,-0.00103794364,-4.37755407e-05,0.393465161,0.00776490569,0.00863509718,-0.00291528995,-0.00622724649,-0.00710467435,-0.014078767,-0.0126966182,0.0248700306,-0.013029254,-0.0124631552,0.00535942055,-0.000194354085,-0.00909925811,0.00338790938,-0.00442889798,0.000908677524,0.0170059167,0.00346035487,0.00220800354,0.0101661868,0.0115426835,-6.47771867e-06,0.00831579883,0.00410705758,0.000145624581,-0.00321666314,-0.0112715522,-0.00917574763,0.02471851,-0.000186718418,0.00793972053,-0.00712548522,-0.0175754428,0.0103515591,-0.0156402104,-0.000522137911,-0.0169760194,-0.00138218969,-0.0123143354,-0.00217397977,0.0112272026,0.00812443439,-0.00853309873,0.0129549783,-0.0273602847,0.0121744974,0.00815532077,-0.00881780125,-0.0021868234,0.00326131075,-0.0100220656,-0.00076038664,0.0024697287,0.00135907205,0.00591004407,0.0146528501,0.000101493548,-0.00767868385,-0.0029237268,0.000207991397,0.00972323492,-0.0119662378,-0.00595076801,-0.00315268571,-0.000698049495,0.0305213891,-0.0156411789,-0.00499504944,-0.00696593942,-0.00122034899,-0.00478250906,0.0173859112,0.00784046296,0.00355406827,0.00550908828,0.00477131782,-0.00113907666,-0.0160546321,-0.00157801143,-0.00617158646,0.00734677771,0.00621061912,-0.00427320926,0.000481660711,-0.0141799245,0.0121458573,0.00311803236,-0.00177158392,-0.0125499377,0.00275404262,0.00140500802,0.0128082745,-0.000666967419,0.000586473267,0.00776988734,0.243868843,-0.00683648651,-0.016358085,0.00630918238,0.00549608143,-0.0024670905,0.00459095836,-0.00471934723,-0.00536789885,0.00898458809,0.00616726978,0.0127660763,0.00454214262,0.000779949652,-0.000635608856,-0.0152060315,0.000872816541,-0.00437021954,0.017924469,-0.00590411294,-0.000699240307,0.00417837221,-0.022250982,0.0139964381,0.0121894218,0.014790887,-0.0024825749,0.0167609621,0.00284053013,0.00546758063,0.0195920281,0.0182915665,-0.00953633152,0.00025693042,0.0156652723,-0.00516691059,-0.00795252901,0.00445838412,0.000125078353,-0.0152898151,0.0197408143,-0.00445632171,0.0224423353,-0.00272429083,-0.0020689331,0.00623237574,0.00617586728,0.00464415504,-0.00885530561,-0.0242661089,-0.00662230188,0.00767566869,-0.00614567008,-0.00282529113,-0.00656146416,-0.00101346464,-0.018722266,-0.0224881396,0.00624266127,0.00557225384,-0.00382383284,0.00469851913,-0.00418216409,0.0194686167,0.00785386935,-0.030923482,-0.0049025123,0.00163720758,0.00561305089,0.0166331455,-0.000868889736,-0.00474054087,-0.0171124656,-0.0133514069,-0.000696916948,0.00709053129,0.00188515545,-0.00912293233,0.0131323375,-0.00399461528,-0.00632913969,0.0122303311,0.00272841309,-0.00913677178,0.010513478,0.00223018345,0.0318296701,0.00481938431,-0.00463470072,0.00225870823,0.00148032221,0.00769176008,0.018396752,-0.000238017819,0.0085318163,-0.00675894041,0.00826834235,0.00367359864,0.0126663158,-0.0162595417,0.0100762118,-0.00671202596,0.00564892869,-0.0010036733,0.0130071761,0.00703552878,-0.0036831412,-0.0040941583,0.00582402898,-0.00659595989,-0.0126141962,-0.0164698791,0.0160635486,0.0161923505,0.0187187716,0.0215837434,-0.00847099721,-0.00379280769,0.0288652666,-0.00583071262,0.0133471806,-0.0306204241,0.0159786306,-0.00596591318,0.00380753959,-0.00836967956,-0.021809008,0.00247172057,0.00254749227,-0.00964504387,0.0181092713,-0.00966871064,-0.0092658326,0.00867049303,0.02658985,-0.0158752501,-0.00329163927,-0.000501898525,0.0167822894,-0.02165615,0.0047252574,0.00659556733,0.0316560604,-0.00175444549,0.00762818661,0.00359652657,0.00987266283,0.00554999523,9.2303424e-05,-0.000323110406,0.0113597857,0.0133179622,0.00993184373,-0.00681740185,0.016246561,0.00387133704,-0.00289255753,-0.014778194,-0.0124835828,-0.00531562977,0.000720526557,0.00932478067,-0.00648324285,0.00102438487,0.00828769524,-0.000269545184,0.0102148009,-0.00801870413,-0.00448409375,0.000192935957,-0.0003195811,-0.00121064868,-0.019867368,4.93307052e-05,0.00470951619,-0.00794899464,-0.00728638424,-0.00473640626,0.00470137503,-0.00186896778,-0.0103761489,-0.00371720875,-0.0163170137,-0.000261404639,0.00890300889,0.0035476035,-0.00746014575,0.00519559393,0.00748719834,-0.00902101118,0.00190331461,0.00353487581,0.00135228108,-0.00760361552,0.00634426111,-0.0066355383,0.0116425082,-0.00510986615,0.0150161358,-0.000716020062,-0.0076275859,-0.0103103956,-0.0231195427,0.00724079274,0.0216081236,0.0101832021,-0.0153999189,0.00177775836,-0.00660626404,0.00668730307,0.00886417367,0.00584506709,0.000143899044,0.00886415038,-0.0122818304,-0.00787883438,0.00391066819,0.00415724888,0.000841973582,-0.0129357353,0.00312041282,0.00965475477,0.00562131405,-0.00191827491,-0.000615667203,0.000943247811,0.00150427641,-0.0162422359,-0.0173942503,0.0115606282,-0.000823822455,0.0129072312,-0.000866231392,0.00756494375,-0.0104608126,0.0132050589,0.0144703509,-0.00702571264,-0.0117919706,0.00136501982,0.00264297752,0.00373661402,0.00297017628,-0.00379402144,0.0161433667,0.0124922656,0.0171287414,0.0106888786,0.0141977677,0.0053066262,0.00900445879,0.0103195691,-0.0012306117,-0.00524294702,-0.0149632711,0.00541119417,0.013631057,-0.0112316888,0.0108123552,-0.00457037566,0.00388589827,-0.000843787042,0.00390951149,-0.00256456644,0.00601449981,0.00187700498,0.00493631046,0.00127870508,-0.00383780012,-0.0075577097,-0.00556372339,0.0015478913,0.0222554337,-0.00881063752,0.00504114572,-0.00496854493,0.00970268529,-0.00959702488,-0.001749755,-0.00211209408,0.00293382746,-0.0163947307,-0.0171085708,-0.00459002145,-0.00899322983,-0.00387724745,-0.0066590677,-0.000201389572,-0.0046536834,0.00685886899,0.00208438677,0.00284822797,-0.00810465682,-0.0163093656,0.0015471318,-0.019773636,-0.00728769088,0.0130654005,0.00445495732,0.00500293355,0.00691054156,0.0204585809,0.00424098317,0.0159813613,0.0139965452,-0.000310730364,0.0136650642,0.000878339517,0.0407560617,0.00517521799,-0.00522982655,0.00601511169,0.00554673607,0.00940603111,0.00532303285,-0.00982835889,0.00567147555,-0.00425487105,-0.0106585547,0.0134650879,-0.00559277227,-0.00101595442,0.00835043844,-0.00784978829,-0.00798816234,0.0157617386,-0.00331962132,-0.0170976017,0.00459878985,0.00566988857,0.00421967031,-0.00625180639,-0.00159957306,-0.000156917522,-0.30420965,-0.00250986591,-0.00525637297,-0.00453178538,0.00153766654,-0.00242824014,-0.00400623679,-0.00281100441,0.00112473674,0.00651412131,-0.00605916278,9.14571137e-05,-0.0145253036,-0.00722417375,-0.00297861802,-0.0132054836,-0.00402673334,-0.00551794423,-0.00350209628,0.0142885102,0.00630456489,0.00463123806,-0.00768591929,0.00888326857,-0.0090509858,0.00191210897,0.00621956587,-0.0051046703,0.0253831316,0.0363703668,0.0099146571,-0.00780957239,0.0107374201,0.0178689808,0.00260430318,0.0040148925,0.0068508652,-0.00783413835,-0.00656089652,0.000565394701,0.00990978722,-0.000681154313,-0.0138299353,-0.00295815873,-0.00258400338,0.0122870272,0.000284565263,0.00216888427,-0.0129515687,-0.00841176789,-0.0181775261,-0.00926725566,0.00115572684,-0.00182368478,-0.00124139502,-0.0377619825,0.0128357885,-0.0330653824,0.0126479585,-0.00663974928,0.0120061999,0.00191423867,-0.00271431915,-0.00423681969,0.00994045381,-0.0152751654,-0.00356351817,0.00098277221,-0.0173679292,-0.0113633499,-0.0437220708,-0.000185429875,0.0183041021,0.000216767105,0.0133426208,0.0279095098,-0.00460940227,-0.00381360389,0.000314955076,-0.0171319935,-0.00301942928,-0.00451177545,-0.0105473567,0.0120314807,0.00581384217,-0.00336635765,-0.0021215023,-0.000773087551,0.0222084839,0.00752748083,-0.0207397509,0.000984629849,-0.00553627545,-0.0028922318,-0.00702102948,3.26775371e-05,0.0166132022,-0.0131308343,0.0121161845,0.000443059282,0.00475897361,-0.00686938316,0.00736881886,0.00222224044,-0.00215734215,-0.0129507342,-0.00204522978,-0.0198797993,0.00707918452,0.0105361175,-0.00647390168,0.00732253259,0.0111183571,0.0117155686,-0.00898415968,0.0158338863,0.00435588276,-0.000606725633,0.0147702675,0.000192836917,-0.00882577244,0.00467384141,0.0146052204,0.0122022079,-0.00101715815,0.00460697291,-0.00850890297,0.00556125632,-0.00378475338,0.0155674461,-0.00545664225,0.0238754228,0.0101722777,0.0026464893,0.00145845022,0.00556458766,0.00806778856,0.0103464071,0.00493010599,0.0137006221,0.0169243775,-0.00946562737,-0.0163358767,-0.00535846222,0.0117341764,0.00619111024,-0.0069714603,-0.000848750758,-0.0142645752,0.00335350027,-0.0220264662,0.00952168368,-0.0033602491,0.00561125297,-0.00392124802,0.00261910586,0.0161952041,0.000794484688,0.00810968876,-0.0168189164,-0.00217302097,-0.00601865444,0.00636047125,0.00506522506,0.016706381,-0.00223062141,0.00851877499,-0.00575667666,0.00132374931,0.0107724136,0.00633514207,0.00689156028,-0.0111306664,-0.00632975576,-0.00650501763,0.0129628861,0.0175122991,-0.002752756,-0.030871246,0.0182847194,0.0133035053,0.00826818869,-0.0223412979,0.00655482523,0.00853190385,0.0049802782,0.00619155262,-0.00678133778,0.00468893209,0.00112518843,-0.000271760626,0.00404571742,0.325707972,0.0113905463,0.00513080694,-0.00660417508,0.0204496104,-0.0126313623,0.00359299965,-0.00140354247,0.00235970085,0.0156483427,0.0168322921,-0.0112986229,0.00886443071,0.0256456211,-0.0192162693,0.00586795248,0.00704373699,0.00551612908,0.0119792484,0.0200210605,-0.00274582161,-0.00404349808,-0.00465538772,-0.00908618141,-0.011338274,0.0285671894,0.00451991474,-0.706900001,-0.00376431365,0.00203727023,0.00958289206,0.00130064075,0.00987888314,0.00416237535,-0.00817782711,0.0110217091,-0.0268196687,-0.0104297744,-0.008314142,-0.0115611292,0.00360462628,-0.0116914399,-0.00880825706,0.0144119924,-0.00121031736,-0.00670082588,0.00362021779,-0.0131134875,-0.000257804146,0.00780542893,-0.0110222176,-0.00839274283,-0.0108757503,-0.0118607664,-0.000979248085,0.00216850615,-0.0108061656,-0.00818386208,0.00640861318,0.000774996937,0.00780940149,0.00407262193,-0.00527370488,-0.00451978203,0.0340152271,0.00269438582,0.0044274102,-0.0015819316,0.00581584498,0.00105388649,0.0123559572,-0.0093784146,-0.000427849154,0.00257445918,0.00297354837,0.00960391946,-0.0120463511,-0.0102473991,-0.00908886641,-0.00335048442,0.00178104616,0.00205649878,-0.0110835256,0.0128460936,0.0109616527,-0.00494672172,0.00281921867,-0.0122585176,-0.000255414518,-0.0101272659,-0.00903475471,0.00790248625,-0.0158547852,0.0109633962,0.00639577815,0.000634420663,-0.0239958018,-0.00335990102,0.00366077339,-0.00778420316,-0.00762628438,-0.0141466502,0.0248854682,0.000147781699,0.00611190964,-0.00789761357,-0.000245600444,0.00400826428,0.00915997941,-0.00643426459,-0.00534992758,-0.00760703394,0.00542351091,-0.00177430583,-0.00847550947,-0.0016002222,-0.00967609137,-0.0197460819,0.00401566923,-0.0115192654,-0.000505938951,-0.0129242158,0.00768859684,-0.0108035859,-0.00253436994,-0.0132879391,-0.0280853342,0.025917843,-0.000610941264,-0.0180751979,0.00355993188,0.0109674009,0.00394206867,0.00127383287,0.00135587261,-0.0124892155,0.00258810655,-0.00318934792,-0.0121972188,-0.0112462761,0.00397030404,-0.0100817913
1a0ef1b8-5fe7-41dd-8ccf-9e24ba3e9fb7,-0.00141994248,-0.00144694024,0.00578288874,0.00328132906,0.393572241,0.0120619144,0.0125173051,0.00267871912,0.00244911131,-0.00826218724,-0.0155295469,-0.0158103574,0.0216459204,-0.00813344307,-0.0107093202,0.0111396629,0.000993465772,-0.00970265549,-0.00278179278,-0.0103940079,-0.00109991338,0.0205285884,-0.00178889825,0.00606378866,0.00354226097,0.0132346218,0.00385777187,0.0172471628,0.00253825029,-0.00173354486,-0.00343104498,-0.00936663616,0.00210702233,0.0226376038,0.00252113561,0.0033996827,-0.00541400025,-0.0214670151,0.00442560297,-0.0180726107,0.00174170907,-0.0183729976,0.0005976432,-0.0165905431,-0.00177399209,0.0172876194,0.00758234831,-0.00553991133,0.00442382507,-0.0192839522,-0.000581181783,0.0170425531,-0.0141954347,-0.0117394766,-4.16312105e-05,-0.00905746128,0.00369448727,0.00122635649,0.00652238959,0.00386084453,0.0140323015,0.0080277212,-0.013750202,0.00111001253,0.00376882218,0.00407121703,-0.0130255101,-0.0128109427,-0.00510616135,7.04615886e-05,0.0341046862,-0.0199448578,-0.00718138972,-0.0109353419,-0.0106238583,-0.0165391788,0.0121973446,0.00787427742,-0.00739645772,0.00468769809,0.00114709116,0.00438400637,-0.0192576703,0.00273213093,-0.00406101905,0.00803788844,0.00207865704,-0.00182363193,-0.00198392337,-0.00347758108,0.00836452376,0.00353348046,-0.00691605685,-0.014418033,0.00180715183,-0.0031602392,0.0170152038,0.00239568949,0.00101036625,0.0145469094,0.235440478,-0.00783176813,-0.013335445,0.00468422892,0.0079164654,-0.00640100101,-0.000812186045,-0.00426176656,0.00540487235,0.00963752344,0.0135956584,0.0156866517,0.00550613645,-0.00317563722,-0.00106343743,-0.0137380734,0.00324542378,0.00470238738,0.0121530043,-0.00230846624,0.00067971996,0.00108436181,-0.0216751657,0.0151059777,0.0089577809,0.014958363,-0.00433578296,0.0201264638,-0.00569988694,0.00957836956,0.012586222,0.022196753,-0.0177502725,0.00348673505,0.0078358287,-0.00587528804,-0.00605338579,0.00898715202,-0.00662631029,-0.00966429338,0.0232163519,-0.00378562533,0.0233131386,-0.000976623618,0.00132301706,-0.00632525096,0.00525971455,0.00301045971,0.000391105103,-0.029872302,-0.00238209544,0.000787796045,-0.00597241474,-0.00747183617,-0.00536877522,-0.00447460217,-0.022536831,-0.0131050833,0.00693166116,0.0020599321,-0.00195287238,0.00517015113,0.00426240405,0.0194249395,0.0104229087,-0.0255057383,0.00309595419,-0.00233353395,0.00814911444,0.0196338538,-0.0179712083,-0.0092826616,-0.0194458775,-0.0234052036,-0.000656339573,0.00685661379,0.00613954384,-0.0086576147,0.0197409336,-0.00335643697,-0.00135027734,0.0194595996,-0.00788757112,-0.00641954038,0.0166919567,-0.000948982837,0.0338585824,0.0127010038,-0.007744445,-0.00415904168,-0.00327035156,0.0118521247,0.0150518455,-0.00176305405,0.00912418216,-0.00802892912,0.0130868182,0.00473794714,0.014776093,-0.0185375344,0.0182169024,0.00425925618,0.0103579545,-0.0028061464,0.00928521063,0.00295967679,-0.0084294267,-0.0113832923,0.0123302387,-0.00845948607,-0.0212601516,-0.0216123797,0.0162273459,0.00852724817,0.0193231124,0.0228107776,-0.00567864627,-0.00414920831,0.0315116532,-0.00342307123,0.00841591414,-0.0304170195,0.0103997318,-0.00861500669,0.00181814493,-0.00761773204,-0.0164780505,0.0117934169,0.00812283345,-0.00485623721,0.0180794913,-0.00346928905,-0.0127854645,0.00064802164,0.0174309444,-0.0124635249,-0.00686409604,0.00530410325,0.0109670684,-0.0349368751,0.0162691697,0.0134338234,0.0335209481,0.00544264726,0.00307733333,0.00862614904,0.00782378111,0.00761863962,-0.0078713065,-0.0022635574,0.015930282,0.0128650554,0.00389366224,-0.00709899468,0.0179523174,0.00370868016,0.000739175419,-0.0102452859,-0.00761896698,0.00162625941,0.00473051658,0.0122320633,-0.00958743412,0.00546047185,0.00877574645,-0.00257184519,0.0132861128,-0.00538313296,-0.00362380338,0.00743427686,0.00145960238,-0.00672212057,-0.0194742493,0.00310496008,0.00381200598,-0.00740651134,-0.0131769953,-0.00307213143,-0.000617438694,0.00611079857,-0.0159767829,-0.00830863789,-0.0136704464,-0.00526669854,0.00393466838,0.00152998883,-0.0117138848,0.00764136575,0.0139969625,-0.00384774269,0.00631805882,0.00620760582,0.0073765507,-0.00448733754,0.0147486981,-0.010481176,0.017993154,-0.00862656999,0.00628367485,-0.000279765198,-0.0172040891,-0.0109554753,-0.0207226779,-0.00199748832,0.0252194982,0.00298082246,-0.0163242184,-0.000820549496,-0.0023774514,-0.000494332111,0.00671143038,0.0121908551,0.00627775025,0.0105440272,-0.0151933087,0.00324605894,0.00159101188,0.00376485591,0.00132389029,-0.00841055252,0.00270879455,0.0149972355,-0.00620667264,-0.0129644843,-0.00964616053,0.00042531846,0.00694249151,-0.00753140403,-0.0178399384,0.00750995427,0.000125628983,0.0100455796,0.00615899032,0.00751884887,-0.00661689602,0.0112336343,0.0233895425,-0.00928882603,-0.011758538,0.00154984114,-0.00100106839,-0.006449576,0.00463559804,-0.00431043701,0.0118066594,0.0158648603,0.00622559339,0.0019178869,0.0165585689,0.00257475651,0.00732577266,0.0148463538,-0.0114285564,0.00160416763,-0.0276307687,0.0014097715,0.0131437285,-0.00735080149,0.0139115639,0.00534072844,0.00931783952,-0.00807787571,0.0109890364,-0.00568827521,0.0137494253,0.00187104533,0.00745841581,-0.00506065367,-0.00781794917,-0.0132730547,-0.00293880259,0.00487023266,0.0188175533,-0.00518700946,0.00457743974,-0.00311769801,0.00581500866,-0.0125762178,0.000648870599,0.00589552848,0.00269956142,-0.0128777521,-0.0177361425,-0.00190634746,-0.0107235536,-0.00493643153,-0.00728020584,0.000706520863,-0.0120310178,0.010537249,0.00623848476,-0.0045209392,-0.00513974531,-0.0173959117,0.000387069973,-0.0253630783,-0.0172366221,0.0175453518,0.00344850007,0.00352368923,0.00716670137,0.0188520085,0.0110644829,0.0110644558,0.0147143109,-0.0066888798,0.017477667,0.00605708407,0.0381470025,0.0121503342,-0.005411461,-0.00244334387,0.0204740409,0.0113732005,0.00330303703,-0.0110667301,0.0112348478,0.00470332894,-0.0141348727,0.0145094721,0.00373783312,-0.00580173405,0.0156770237,-0.000238595749,-0.00689415773,0.0138054099,-0.00488725537,-0.0248984583,0.0115848351,0.00368124479,0.004091735,-0.00957122631,-0.00180875068,0.00179379713,-0.295547128,-0.000330150622,-0.00623536576,-0.012717058,0.0106584355,0.00315626105,0.00338748563,0.0143206138,0.00141414022,0.00813603029,-0.00987102278,0.000426216924,-0.0157216005,-0.0100755077,-0.0118624782,-0.0109831914,-0.00563367363,-0.0018886046,0.0059035942,0.0208045691,0.00686816312,0.0155375972,-0.0104831932,0.00287832692,-0.0109004863,-0.00442843838,0.0113900416,-0.00446462492,0.0210897569,0.0261898264,0.00996182114,-0.00327461935,0.0239147861,0.0186611526,0.00281591294,0.00481537404,0.0150293084,-0.018576812,-0.00238149636,-0.00191304821,0.0076901014,0.0138223674,-0.00996377226,0.000228777615,-0.0129454369,0.0199810509,0.000148324296,0.00215657405,-0.0252851751,-0.00586554967,-0.0237154439,-0.00765508646,0.00500595011,-0.00603499915,0.00676340749,-0.035814289,0.0190653261,-0.0290359743,0.020023156,-0.00491292542,0.0201086625,0.00698624505,0.000220819697,-0.00573230255,0.00443401514,-0.0126852021,-0.00502499845,0.00635353988,-0.0220430624,-0.0112428712,-0.0445631966,-0.00345795928,0.0207767133,0.00491015753,0.0108323414,0.0296600591,-0.00724225072,0.00213680789,0.00180837233,-0.00604140665,-0.00508608297,-0.00869346783,-0.00948658213,0.0189477615,0.00171720132,0.00387152378,-0.00295584928,0.00538699608,0.0312136542,0.00939107314,-0.0254559256,-0.00824350771,-0.00502350228,-0.00325667486,-0.0108270533,0.00331934728,0.00342750782,-0.0170472972,0.00370877027,0.00600013183,0.00371595286,-0.0052110008,-0.00223739725,0.0056737368,0.00103793619,-0.00809305906,-0.00423425948,-0.0213678312,0.0137449745,0.000620407576,3.1356627e-05,0.00349904504,0.0158886686,0.00811135583,-0.00845245179,0.0141925681,0.0013289901,-0.00955829397,0.0125167724,0.00286705117,-0.0121465754,0.0147675071,0.0150677357,0.00461008633,0.00393625768,0.00159621169,-0.00851233024,-0.000488962687,-0.00620825728,0.0179964788,-0.0110145714,0.0233737826,0.0117955469,0.0035033226,-0.000667125219,0.00646949327,9.75227522e-05,0.0125546837,0.00415570801,0.0137714157,0.0182605963,-0.00608320674,-0.00922202133,0.00189523876,0.0127589852,-0.000143800222,-0.0157986656,0.00179723674,-0.0143275624,0.0111645572,-0.0168832019,0.00834897161,-0.00226931297,0.00669687707,-0.0119460952,0.00407945365,0.0110301673,0.00298906653,0.00662767887,-0.0148448832,-0.00376385637,-0.0101080257,0.0128310062,0.0134245027,0.0143120699,0.00235439767,0.00503711449,0.00077409792,-0.0063957572,0.0104218628,0.00722113531,0.00383315678,-0.00258732913,-0.00476239296,-0.00536345039,0.0132834865,0.0103663299,-0.0051359348,-0.0302676279,0.0182980672,0.0149752768,0.0103698745,-0.0213873275,0.00484122289,0.00392930023,0.0132538537,0.0050544343,-0.00361816282,-0.00255299965,0.00524056656,-0.00932828989,0.00479072891,0.315273166,0.00745544815,0.00552261481,-0.000146562379,0.0123413224,-0.00991464779,0.00836807024,-0.00402785372,-0.00232957234,0.0149128437,0.0247662123,-0.00714716874,-0.00356167555,0.0184385013,-0.00975647848,-0.007501218,0.00664823968,0.00258264481,0.00615959289,0.0215291288,0.00580436364,-0.00267648022,-0.00326156174,-0.0100335581,-0.00675730873,0.028060006,0.00814027991,-0.707042634,-0.0101750195,0.000418140349,0.0125414198,-0.00468599238,0.00625729794,0.0139390966,-0.000240896275,0.00859356578,-0.0291826259,-0.0063993996,-0.0100198444,-0.0120382272,-0.00301854429,-0.0037662317,-0.0151479216,0.0145007055,-0.00412909081,-0.00399364345,0.0086705396,-0.0149596902,-0.00970707741,0.00767328963,-0.00400909362,-0.0179229379,-0.00870225206,-0.00393631309,-0.00190196221,-0.00882927515,-0.00843227748,-0.0197412632,-0.00345211336,-0.00159548863,-0.000931909541,0.00186888117,-0.0116743706,-0.00473128911,0.0368399732,0.00530395331,-0.00204173732,-0.00986275636,0.00823128317,-0.000385978317,0.00861386769,-0.0140649956,0.00365299988,-0.00787138194,0.00907598995,0.013275547,-0.0106333653,-0.0119938767,-0.0116274897,-0.0112922527,0.00246062665,-0.0035789297,-0.00658013765,0.0064054383,0.00766401971,0.00742323929,0.00609041471,-0.0169594213,-0.00771211088,-0.0163856875,-0.00514999405,0.00332562113,-0.016828442,0.0133998683,0.0083240848,0.0053869579,-0.0209387317,0.0029393069,0.00761947082,-0.00566524081,-0.00351818209,-0.0116755087,0.0225058291,-0.00115862675,-0.00789834838,-0.0055393856,0.00344681321,0.00435360707,0.00631682016,-0.00752591854,-0.00278123631,-0.0125926379,0.00875702873,0.0041634175,-0.0149494251,0.000393544935,-0.00385830761,-0.0224862192,0.00212442479,-0.0131796347,-0.00252926094,-0.0192240141,0.00367617817,-0.00738509791,-7.47462982e-05,-0.0139700072,-0.0355440453,0.0409287773,0.00917916652,-0.019134922,0.00631619291,0.00609632395,0.00767238997,-0.000381982827,0.00132322998,-0.00890624616,0.00424787356,-0.000806116266,-0.00530961808,-0.0076350593,0.000901769788,-0.0104328813
a507334a-6a2a-4a4a-8138-1ecfc3f9b205,0.0109419543,0.00281688781,0.00129121833,0.0030580766,0.402773857,0.00778263481,0.00595854269,0.00348239252,-0.00748760486,-0.00968683977,-0.0151687982,-0.0086139692,0.0207175352,-0.0112552932,-0.00271007745,0.015464738,0.00375765748,-0.0113321329,0.00690419273,-0.00995394215,0.000400881225,0.0196343474,-0.00429769699,-0.00695242127,-0.00789718423,0.016762346,0.0065536527,0.00389674306,-0.000511270133,-0.000495990796,-0.0106813256,-0.00793208461,-0.00322592678,0.0252223741,0.0115090553,0.017924862,-0.00628122361,-0.0290793423,0.0100162411,-0.0084471805,-0.00485127605,-0.0113343634,-0.00378213753,-0.0150856199,0.00391211314,0.0174668226,0.00372843212,-0.00333975186,0.00770716462,-0.0113748442,0.00523065636,0.00757263647,-0.0213662721,-0.0138180386,0.00899634603,-0.0120008588,0.00236067921,0.0105346031,-0.0067577064,0.00474407896,0.00914364215,0.00353373727,-0.00513404561,-0.0060276119,0.00571881514,0.00317845354,-0.00395378564,0.00136746746,0.00429939758,-0.00551070226,0.0326326117,-0.0180463139,-0.0164136644,-0.0100799445,-0.00399942836,-0.00945577491,0.0126347961,0.0108467545,-0.00408362877,0.00576272653,0.00763526931,0.00275153085,-0.0196626466,0.00414715242,0.00326985563,0.0166659169,-0.000546967785,-0.00113626407,0.00131840829,-0.00751697598,0.0116033945,0.00924671348,-0.00310097891,-0.00336332479,0.00826013926,0.000874123129,0.00531979185,-0.00604245672,-0.00653804233,0.0144141531,0.241511554,-0.00484445132,-0.0167799424,0.012149265,0.00931999832,-0.00431086961,-0.0096435044,0.00355583057,-0.00392333744,0.00726208137,0.002113258,0.00768271135,0.00732487207,0.00187974668,0.00752966199,-0.00631851563,-0.010240919,0.00640233979,0.00722194323,-0.00453886949,-0.00358735328,0.0154181635,-0.0353011228,0.00901579857,-1.92370771e-05,0.0128471106,-0.00410288479,0.0130586186,-0.00621521892,0.00593979983,0.0205832589,0.01377948,-0.0192128662,0.00468684873,0.00915272161,-0.00692027109,0.00334099913,0.0035032765,0.00023822338,-0.0166419744,0.0216493774,0.00346352998,0.0168736018,-0.00293607777,0.00472318847,0.00409239531,0.00651280023,0.00328418659,-0.00713900523,-0.0294123311,-0.00293585588,0.00891380012,-0.0113582388,-0.00529896375,-0.0087089166,-0.00108302035,-0.0212003775,-0.0127418498,0.000934453448,0.00109821756,0.000798663474,0.00230952655,0.00655720243,0.0133067016,0.00117793621,-0.0236511733,-0.00134436786,0.00213567493,0.00805231463,0.010633653,-0.0141528668,-0.00524830306,-0.0183865782,-0.0148079442,-0.00372682163,0.00161382032,0.00776065653,-0.00413100934,0.0219219495,0.00792078115,0.000470339291,0.0138884578,0.0101325829,0.00128004607,0.0122391945,0.00326915388,0.0290216096,0.0103434864,-0.00320707774,-0.00224861712,-0.00636945292,0.00997302681,0.00767948339,0.005153317,0.00497455429,-0.00263380329,0.00418888405,-0.00171115797,0.0070825764,-0.0142309833,0.0120655065,0.000831526879,0.00656923745,-0.0153237898,0.00283260481,-0.00832809135,0.00106642628,-0.00371948979,0.0132746221,-0.0170989074,-0.0130216256,-0.0183001924,0.00844127964,0.0123597765,0.0156597458,0.0205090921,-0.0184712838,-0.00963650644,0.0377014317,-0.00497843884,-0.00245328574,-0.0266378578,0.0107087288,-0.0151904533,0.00678392919,-0.00471746363,-0.0163423903,-0.00100115093,0.00889253616,-0.002670079,0.0246908758,-0.0109300939,-0.0135006206,-0.00037202047,0.020563351,-0.0136186592,-0.00796152279,0.00495250057,0.0122835115,-0.0308730733,0.0135399271,0.0133136921,0.0305438843,0.00436870568,0.0085198218,0.00110404345,0.00120965741,0.00493436353,0.000909856113,0.000297771359,0.00607259572,0.0163994189,0.00536553608,-0.0124641303,0.0158399642,-0.00480830343,-0.00753877824,-0.0128491744,0.00232821517,0.00470323162,0.00743245427,0.00374570093,-0.00315020536,0.00311615062,0.00323838484,0.00262146466,0.0139056407,-0.00461100042,0.00141267246,0.000313709141,-0.00199414091,-0.00276262732,-0.0146571985,0.00495750364,-0.000719816016,-0.0038203497,-0.00879039709,-0.0132494969,0.000384391198,-0.00255623576,-0.0121891052,-0.0061105676,-0.0126646571,-0.00595813291,0.000654123607,0.00830341317,-0.00428730063,0.0080992328,0.00318150455,-0.00271551311,0.00486682588,0.0111530917,-0.00397758884,-0.00280289655,0.00968696922,-0.0029439046,0.0106227892,-0.00692547159,0.0134651288,0.0103575299,-0.0166221596,-0.00518038403,-0.0284495205,0.00804412551,0.0194026399,0.00882293656,-0.00947085675,-0.000361936953,-0.00634734845,0.000854412501,0.00890290085,0.00762788486,0.000662586361,0.00255689165,-0.00729914336,-0.00291206106,0.00854510255,0.0139408484,-0.00872481521,-0.00464478554,-0.00144849624,0.0100892596,-0.00143004954,-0.0173253883,-0.00379109639,0.00472143246,0.00185098022,-0.0165825933,-0.0124436067,0.00325466087,0.00089746865,0.0102951229,-0.00358526339,0.0113135586,-0.00596368499,0.0187247545,0.019526463,-0.00633313227,-0.0176030472,0.00641971081,-0.0027164917,0.0084581757,9.9807643e-05,-0.00709452992,0.0102157025,0.0138510717,0.00757116312,0.00227405573,0.0144050214,0.00213518972,0.000871893717,0.0054881284,-0.00537782349,0.0114942789,-0.019038314,0.00233515725,0.00728448946,-0.00941537507,0.0118280863,-0.00994820148,0.0109752156,-0.0125140352,0.0029322817,-0.000695541617,0.00457910355,-0.00130695023,-0.00643812912,-0.0045400667,-0.00657901773,-0.0110027809,-0.00340365642,-0.0037112732,0.0235514175,-0.0029881401,-0.000875441707,-0.00115759531,0.00691131223,-0.00735768164,0.00811199285,0.000238791778,0.00975268241,-0.018071074,-0.0116019249,0.00881590042,0.00424915366,-0.00466054911,-0.00962037407,-0.00136338547,-0.00829303544,0.00993430801,0.00307546137,0.00502671255,-0.00954694767,-0.000386387255,0.00641998183,-0.021023035,-0.0156379919,0.0185352825,-0.000206393961,0.00934741832,0.00523591368,0.00831146073,0.0122990143,0.00880290288,0.0126249082,0.00321464729,0.0117095709,0.00705579948,0.0305903908,0.00388231454,-0.00403819093,0.00249857455,0.00245543988,0.0200597718,0.00597512443,-0.00976377446,0.00864596199,-0.00410946412,-0.00555943465,0.0177365523,0.00102917082,-0.00665286789,0.00853209198,-0.0121718273,0.00497402856,0.0185489822,-0.00129575119,-0.0141223203,0.00766036985,0.00261349161,-0.00494087068,-0.00624061469,-0.00990198459,-0.00114801421,-0.303996474,0.00477242703,0.00210395292,-0.00545577239,0.00484512001,-0.00164198841,-0.000878555118,4.92582512e-05,-0.00642212341,0.00110993255,-0.00136027799,0.0107209804,-0.00193376304,-0.0102510229,-0.00462541403,-0.0130342357,-0.00131283503,-0.00411835499,0.00376974745,0.0133956093,0.0023213923,0.0144312456,-0.0126862274,0.00894220173,-0.0121789258,-0.00292450935,0.0111916335,-0.00180229137,0.020382395,0.0357482024,0.00808231067,-0.00903182849,0.0183301866,0.0167579632,0.0092136655,0.00606256956,0.00894691423,-0.00536432723,-0.0119408565,0.0028886043,0.00478571607,0.0129976338,-0.0145189771,0.00810740329,-0.010510073,0.00774878589,0.00261962926,0.005524382,-0.00898372196,-0.00670013204,-0.0170891862,-0.000183255645,0.00398098072,-0.00687388796,0.00128154317,-0.0368525162,0.0119612357,-0.0331032649,0.0139675913,-0.00564250024,0.0112211565,0.000730929314,-0.00295281177,-0.0102483761,0.00345626287,-0.0100676762,0.00340856123,-0.000142464472,-0.012038378,-0.0131462328,-0.0423577949,0.00833698455,0.0129894251,-0.00477304775,0.0060690064,0.0237783603,-0.000154048321,-0.00571313687,0.00217427569,-0.00860683527,-0.00219583022,-0.0124140363,-0.00652384851,0.0063406839,-0.000328611,-0.0112101557,-0.014269039,0.00366124255,0.0270286296,-0.00102745742,-0.016988188,0.000591564691,0.000367326022,0.00195375946,-0.008039237,-0.00209833914,0.0124339359,-0.0148219643,0.00368538871,0.0146575924,-5.89602059e-05,-0.000321861269,0.00266434648,0.0129349288,0.00390570052,-0.00284224702,-0.00119035074,-0.0119940517,0.00419235276,-0.000474037515,-0.0058861631,0.0108288927,0.0109004863,-0.00171875232,-0.000154552108,0.0120736528,0.00445450051,-0.0117978919,0.00647329399,0.0104770167,-0.00698633678,0.00177793251,0.0174495783,0.00018832575,0.000973189191,0.00954469759,-0.0123393564,0.00475427927,-0.0021814981,0.0161182564,-0.00332641555,0.0289364364,0.0148661919,0.0119835539,0.00110946526,-0.00403136853,0.00178960757,-0.00206147414,-0.0021866723,0.0139413672,0.0121754417,-0.00754088582,-0.00807505008,-0.00966519676,0.00466076843,-0.00377239403,-0.0020385047,0.00393245602,-0.0189357419,-0.00410275161,-0.0165001377,0.00660560839,-0.00974366348,0.00917179137,-0.011565364,0.00779935624,0.00661448017,-0.00747496961,-0.000107106775,-0.00655178074,-0.00356692285,-0.0059576733,0.00839891843,0.00824118778,0.0109189237,0.00203706324,0.00947881583,-0.00150651566,-0.000119232427,0.00465576164,0.00809237175,0.00360976462,-0.00699617108,-0.00304665533,-0.00474812184,0.00604336523,0.0132099465,-0.00135798333,-0.0232706405,0.00395395979,0.00483320234,0.00963946618,-0.0120195318,0.0011488091,0.00193380495,0.0124431364,0.00877666473,-0.00624357676,-0.000661548576,0.00577980652,-0.00840668753,-0.000291306817,0.32284838,-0.000257378444,0.0059193871,-0.00680542598,0.0281069353,-0.00945249572,0.0127871418,0.00266030128,0.00371634122,0.0172550064,0.0131191211,-0.000414785201,0.00179166324,0.00696816621,-0.0175951719,0.00431015994,-0.00284093968,-0.00270852074,0.00929730013,0.0175214522,-0.00823917706,-0.00558026321,-0.00546403509,-0.00655225338,-0.0087175509,0.0350248627,0.0126214558,-0.70410049,-0.000370066817,0.00370369549,0.00524905557,-0.00358043285,0.0181404799,-0.00196137,-0.00221199845,-0.00239685341,-0.0299906116,-0.00979909301,-0.0107265189,-0.00636285311,0.00136025436,-0.000975997711,-0.0124737956,0.0187501181,0.00701297261,-0.00577218598,0.00091578078,-0.0149343302,0.000886208145,0.00998320803,-0.00616792776,-0.0274520181,-0.0103675434,-0.00203937804,-0.00197812589,-0.00056336337,-0.0041906382,-0.0138085056,0.00448994059,-0.00583449891,0.00202430924,0.00627659401,-1.05316249e-05,-0.00664974144,0.0271631684,0.00890407339,-0.000613532204,-0.00869741384,0.0106932502,-0.00186858233,0.00210125046,-0.00889138039,0.000173135137,0.000988672371,0.0110319089,0.00645451434,-0.0153706754,-0.0083350502,-0.0149001945,-0.00914372504,-0.00458933879,-0.00726910634,-0.00420435937,-0.000322824781,0.00413676072,0.00754926912,0.00407602731,-0.0114959283,-0.0134178996,-0.0088969171,6.29449933e-05,-0.000521149894,-0.015408461,0.0109994272,0.00149227481,0.00104093167,-0.0141457478,-0.00635958742,-0.00470596924,0.00081819552,-0.00543830218,-0.0205080174,0.02342497,-0.00148821494,0.000760683382,-0.00893238839,0.0049914252,0.00119502493,0.00836678315,-0.0131097306,-0.00509636663,-0.00900084805,-0.00215406204,0.00094001682,-0.0104205534,0.00212433399,-0.0202812962,-0.0210801419,0.00461773202,-0.00713951141,0.00778921042,-0.0145415328,0.00740816956,-0.0124026509,-0.00136742683,-0.0146662565,-0.0318957493,0.0341814868,-0.00128930074,-0.0145722292,-0.000767850317,-0.0017054663,-0.000181759344,0.00106122089,0.0102944206,-0.00406064,0.010338814,0.00103441358,0.00192213268,0.00229975116,0.00533847231,-0.0117509356
f7f0aa07-995a-4d8d-897b-70bfeef59109,0.00641655922,-0.00123096479,0.00267111883,0.000655327458,0.393796533,0.0151620908,0.0115830312,0.00456132321,0.00253102719,-0.00822355319,-0.00552763231,-0.00900510047,0.0277169496,-0.0165933594,-0.0129825212,0.00552361039,-0.000136355098,-0.00961984135,0.00998977013,-0.0121330032,-0.00536115142,0.017913565,0.00705267303,0.000178558825,-0.00361816958,0.0099485917,-0.00370245334,0.00850758702,0.0011127257,-0.0119347274,-0.00755987642,0.0023152784,0.00306190108,0.0245009568,0.000875018653,0.00528821815,-0.00848106667,-0.0247066747,0.0117138373,-0.00987955648,0.00317705772,-0.0222032238,0.00446743937,-0.0137754958,0.00357005559,0.0136497626,0.0103947483,-0.0148140714,0.0096763894,-0.0122602386,0.00180003175,0.0150342053,-0.0218932014,-0.0194040295,0.00134236342,-0.0102973711,-0.000114382965,0.00425979262,-0.0041159261,-0.00186986104,0.0196326859,0.00115353928,-0.00735471072,4.34141257e-05,0.000117373274,0.00142261025,-0.00684138946,-0.0101235369,-0.0051841801,0.00149492337,0.0262676701,-0.0169061478,-0.0209377334,-0.0107635278,-0.0046878946,-0.0213085935,0.0088193398,0.00975623075,0.00419223355,0.00992916059,0.0121997138,0.00487676961,-0.0179554448,0.00363114639,-0.00535435136,0.00603280356,-0.00432255631,-0.0033339865,0.00679898076,-0.00464446936,0.0149935326,0.00161958672,-0.0023304834,-0.00415471802,-0.000618409307,0.00564327464,0.0123689473,0.004059745,-0.00135910616,-0.00179807108,0.242157087,-0.00267420313,-0.0267722197,0.00237861625,0.0138829974,-0.0172136799,-0.00467444025,0.00170527131,0.00451996597,0.00829682406,0.00299465773,0.00952684321,0.00490314513,-0.00485531846,0.00101948902,-0.0142050888,0.00294484803,0.00356466137,0.0109407771,-0.00378449378,-0.0156053482,0.00538542634,-0.036855828,0.0185013153,0.00863857847,0.0136448573,-0.00807501469,0.0145315379,-0.00431238767,0.00787987467,0.0154747302,0.0203679614,-0.0167306755,-0.0021302586,0.000510956219,-0.00914217904,-0.00957812183,0.00326189864,-0.0043458459,-0.0156478826,0.0200841036,-0.000286466617,0.00793816242,-0.00483264308,0.0060385121,0.00771756377,0.00981046911,0.00123539742,-0.00507970294,-0.0277743451,0.00926997513,-0.00147642975,-0.0174043439,-0.00524878595,-0.0119000832,-0.00385524146,-0.0219152793,-0.0226643514,0.00305003929,0.00330635905,4.48395258e-05,0.00202561799,0.0112513201,0.0107306372,0.0103529394,-0.0212317985,-0.0052923914,0.00263344683,0.00655844016,0.0105487676,-0.0141563015,-0.00628010603,-0.017908724,-0.0205179118,-0.00724274013,0.00512361573,0.0019049386,-0.00258247321,0.0245616082,-0.00256333267,-0.00141725445,0.0171156079,-0.0022650084,-0.00727600092,0.00997605454,0.000935764692,0.0301318802,0.0142894918,-0.00112755818,0.00238793856,0.00454181666,0.0130575914,0.0129588647,0.0055560898,0.00381112495,-0.0034376455,0.0162081141,0.000891668373,0.00787561107,-0.00923359487,0.0119873947,0.00238612737,0.00343417027,-0.010072872,0.00695582945,-0.00133919285,-0.0136493901,-0.014212261,0.00536457589,-0.0125749679,-0.0192141458,-0.0176487602,0.0177154765,0.0082096504,0.0172085296,0.0187773015,-0.00727785006,9.35507705e-05,0.0348502137,-0.00493384199,0.0109779285,-0.0296774358,0.00878422242,-0.00747278193,0.00944203883,-0.00344405835,-0.0145305684,0.00623078225,0.0135314818,-0.0102002639,0.0225756168,-0.0020361722,-0.0157322492,-0.00209265319,0.0239852369,-0.0137046706,-0.00885044131,0.00373805105,0.015094691,-0.0379056893,0.014643427,0.0140356999,0.0288903136,0.00212440966,0.00927516166,0.00378191937,-0.000556983985,0.0126756653,-0.0101663116,0.00415953621,0.0051658242,0.0137168933,0.00188945117,-0.00435448904,0.0148882028,-0.00138469448,0.00286577246,-0.013909908,-0.00287238811,-0.00338612637,0.00986607186,0.00305365026,-0.00613871496,0.0010050711,0.00405453704,-0.0095176436,0.0115182986,-0.0064951824,-0.00580072682,0.0030303325,0.00326073752,-0.00113122188,-0.0115175135,0.0018198475,0.00778020546,-0.00636473857,-0.0143240681,-0.00529208453,0.00785813201,0.00741384597,-0.00777432183,-0.00952945277,-0.00567762647,-9.52625123e-06,-0.000287019677,0.00245493092,-0.0145118861,0.0123490924,0.0102714961,-0.00306583894,0.0110449521,0.00459400844,-0.00292731239,0.00270390022,0.0181034636,-0.0117445067,0.0149814924,-0.00235424004,0.00971939228,0.00130821334,-0.0141308475,0.00252192188,-0.0220954902,0.00971097592,0.0260086171,0.00478853472,-0.0184679851,-0.00503756618,-0.0157078858,0.00128094421,0.0138543863,0.0129067665,0.00119070988,0.00855089072,-0.00698342221,0.000528274628,0.00173237536,0.0114573603,0.0021199584,-0.0181637369,-0.00302616344,0.00870731845,0.00546024414,-0.0178352762,-0.00988237094,-0.0091210315,-0.0091938125,-0.0187072493,-0.0115685863,0.012797296,0.00746114086,0.0099032158,0.00982861966,0.0138081536,-0.00814945437,0.00607078429,0.0129335811,-0.00726300711,-0.0206599012,-0.00291640218,0.0105455508,0.000151452448,0.00956199132,-0.00681503909,0.00563772488,0.018209666,0.00840703491,0.00456074113,0.0162201598,0.00481262384,0.010677753,0.00823214743,-0.00471921545,0.00195257296,-0.0125181125,0.00170739333,0.00327384868,-0.0102514196,0.0140056312,0.00664069224,0.00258701434,-0.00497599365,0.0110812318,0.000770035782,0.00702590449,-0.00680387346,0.00109570951,0.00324844522,0.00329421996,-0.0141030131,-0.00378216477,-0.0022828409,0.0226780027,-0.000958997582,-0.000675248972,-0.0116816722,0.00894310139,-0.00465071062,0.00668730587,0.00251657143,0.0112488214,-0.00784051791,-0.0207804404,0.000996846356,-0.00114507659,0.00358735002,0.00189361372,0.00194173877,-0.00509054819,0.00846399181,0.0132687194,0.0162330959,-0.00915280357,-0.0119587472,0.00457495218,-0.0199185386,-0.022935288,0.0185799822,0.00247479416,0.00790295098,0.00917920284,0.0173009224,-0.00345213595,0.00943334308,0.0104023423,-0.00528199412,0.0135062495,0.00286119152,0.0365644209,0.0140976664,-0.011888613,-0.0051889345,0.00313598407,0.00905651413,0.00724983728,-0.0150066642,-0.00844618864,0.00127218314,-0.0114690317,0.0192396902,-0.00218545459,0.00612465711,0.0194897279,-0.00296960701,0.000360828912,0.0052037444,6.17704645e-05,-0.00942877494,0.00826128107,-0.00470924377,0.00486844918,-0.0118060792,-0.00459335418,-0.00243694987,-0.304276139,-0.000800164707,-0.00178864994,-0.00511179306,0.00886245724,0.00011936052,0.00317798159,0.0136185708,-0.00304784533,0.0110206194,-0.00766034424,0.00165783614,-0.0072286604,-0.0077878586,-0.0133428946,-0.00346287736,0.00115542754,-0.00437267916,0.010323924,0.0229441095,0.0147848278,0.00640730839,-0.0158399176,0.0109899342,-0.00531565538,-0.010811517,0.019358214,-0.00952693727,0.0174054075,0.0255174171,0.0109036108,-0.00467590382,0.0145699065,0.00853127986,0.00238750875,0.0123646948,0.0141070373,-0.00580265559,-0.00969336275,-0.000220414615,0.00423177844,0.0182088464,-0.0160063189,0.00463579502,-0.0110428026,0.0140579529,-0.00817081146,-0.00317441998,-0.0146944104,0.000103206759,-0.0255323853,-0.00482612569,0.00818102155,-0.0043410263,0.00112071144,-0.0433980785,0.0163765941,-0.0249177497,0.0147327092,-0.00660695881,0.0170065481,-0.00210950011,0.00353000616,-0.00832364336,0.00177630212,-0.0131157488,-0.00837719534,0.000316595339,-0.027305482,-0.0112532489,-0.0479242019,-0.000975131465,0.016215656,-0.00261504389,0.00312216626,0.0272008181,0.00232420233,-0.00186718151,0.00248948042,-0.00482911104,-0.014932435,-0.0086059086,-0.0140105402,0.0114001213,0.00916948356,0.000450993539,-0.00347559643,0.000412178139,0.0290326141,0.00906192418,-0.0252716299,-0.00182164751,-0.00419905875,-0.00600632699,-0.00458407355,0.00419981498,0.00957068335,-0.00853680354,0.000573420839,0.00324697257,-0.00726740388,-0.00920441467,0.00905391481,-0.000841958332,0.00437009335,-0.014747153,0.00180806767,-0.0184237994,0.0126742925,-0.00346680195,-0.000130499786,0.0128634255,0.0145579875,0.00305559207,-0.00415820256,0.0225626081,0.00140323956,-0.00762889301,8.89788571e-05,0.00178514293,0.00349477516,0.0103396652,0.0122070275,0.00684256805,0.00281666149,0.00282458751,-0.00203718524,-0.000914018427,-0.00409846567,0.0161936898,-0.0105659589,0.0188474059,0.00338586792,0.0102440622,-0.00348691456,0.00117762364,-0.00147341797,0.0144680021,0.00216341577,0.0210501812,0.00718465447,0.000527975324,-0.0109915547,-0.00337020773,0.0114129586,0.00198520161,-0.0143639026,-0.000779005,-0.015848197,0.00375567167,-0.0207807478,0.000634826662,-0.0103737656,0.00713923527,-0.00692975288,0.00501480605,0.000228836347,0.00460076658,0.00494525861,-0.0106533989,-0.00946958549,-0.00593554229,0.00961100683,0.0118252458,0.0145318601,0.00348995207,0.00518420804,0.00772903441,-0.00203069346,0.0117634963,0.00282022101,0.00887375604,-0.00436362484,0.000501641945,-0.0058551007,0.00981491432,0.0128981406,-0.00518984348,-0.0271347966,0.0153393783,0.0198469553,0.000298953091,-0.0206392128,0.0022668757,0.00458889641,0.0130051766,0.00962309353,-0.00396412751,0.00748106884,0.00323750847,-0.00371981878,0.0106885657,0.32281211,0.00377148367,0.001747809,0.000529891753,0.0279670954,-0.00680865673,0.00194175669,-0.00766590144,-0.00796725694,0.0199119523,0.0210735817,-0.00114084641,-0.0040174704,0.0187489353,0.000133043679,-0.00750273326,-0.00581429712,0.00110595301,-0.0013551102,0.0138726691,0.00545478892,-0.00710299052,-0.00146546494,-0.0210233107,-0.0126998303,0.0252047181,0.00333134481,-0.699251056,-0.00439929962,-0.0021377583,-0.000521428243,-0.00649468182,0.00720727909,0.00955146551,-0.00750952773,-0.00378633942,-0.0313121267,-0.00758503471,-0.0112603372,-0.0110255675,-0.000401895843,-0.0096232798,-0.0242755134,0.013514027,0.00136029755,-0.00164920406,-0.00470312685,-0.00659301598,-0.013982797,0.00560776843,-0.0152373994,-0.0240358934,-0.00685219932,-0.00275486638,-0.00516991131,-0.0111813182,-0.00911192503,-0.0181949288,-0.00214666803,0.00115846132,0.00505815772,0.00109862664,-0.00101846666,-0.0110782459,0.0253964886,0.0114092529,-0.00521455333,-0.0178901833,0.0126560358,0.00957901683,0.000217121909,-0.00648100069,-0.00107972254,-0.00235100952,0.0126352627,0.0110869585,-0.015493867,-0.00103160751,-0.0137321483,-0.0167063195,0.00475691119,-0.00679342123,-0.0105843442,0.0103755258,0.00483167404,0.0123305917,0.00925957877,-0.0173498243,-0.0145333977,-0.0178086907,0.00151234854,0.00532209314,-0.0145541513,0.0123262592,0.0125458837,0.00576770492,-0.0199526232,0.00383264548,0.00945804641,-0.00986506604,-0.00843544304,-0.0191163979,0.0231647659,0.00235056574,0.00141520565,-0.00931923371,0.000859918422,-0.00495402794,0.00980866887,-0.00848146155,0.00342127774,-0.0103294803,0.000152627603,-0.00316734263,-0.0150900697,0.01137204,-0.0128957508,-0.0139395623,-0.009803514,-0.0109723685,0.000842697162,-0.0184840392,0.00311470102,-0.000764991739,0.0093047563,-0.0138483355,-0.0236540716,0.0465735421,0.000833754544,-0.0152614536,0.00586321624,0.00515765324,0.00759877078,-0.00368288322,0.00481656659,-0.0133227734,0.00429991679,0.010706434,-0.00594760198,-0.00416982872,0.00637043454,-0.010865612
e50569aa-5590-4304-9f99-7556ae55dcfa,0.0133268693,0.00810753927,0.0101782661,-0.00314596295,0.401800036,0.00720356591,0.00295447977,0.0154805966,-0.00968938228,-0.0199065227,-0.0137451245,-0.01468095,0.0137106357,-0.0110054016,-0.0112327682,0.0165051166,-0.00338921417,-0.0086644832,0.0102981776,-0.00822765101,0.00924964901,0.0236934833,-0.00754515734,-0.00765061006,-0.0055555352,0.0153386705,-3.83317501e-06,0.00287106843,-0.014109171,-0.00745786214,-0.00483409129,-0.0026924985,0.000231430982,0.0277238842,0.00779701397,0.0142499572,-0.00964818057,-0.0204944443,0.0123372748,-0.0115374802,-0.00395813584,-0.0113163395,-0.00479588006,-0.0118022077,0.000681665028,0.0093656294,0.00570883555,0.00662090303,0.00458711432,-0.0176625978,0.000941546343,0.0122701116,-0.0170952845,-0.0012855964,0.0143128261,-0.0239608884,0.00291234208,-0.000462109805,-0.00474715792,0.00424433034,0.0102906823,0.00720892148,-0.00980643183,-0.00557980267,-0.00562710734,0.0066452981,-0.00951750576,-0.00670287851,0.00808195956,-0.00202936842,0.0410200357,-0.0243796706,-0.00213796925,-0.00692438148,-0.00126743561,-0.0149284266,0.00546131004,6.87958382e-05,0.00126365223,0.0126190549,0.00904969312,0.00297982595,-0.0243883915,0.00330089987,-0.00141279295,0.00758537836,6.96885327e-05,-0.0142908553,-0.00543023273,-0.00656169141,-0.000294072117,0.0135490745,0.00277828658,-0.0105928425,0.012640263,-0.00584812788,0.00697712507,0.00198504352,-0.00992323924,0.0084484797,0.233615711,-0.00484593725,-0.0139068766,-0.00523542892,0.0179855712,-0.0108817657,-0.00282669626,0.00853813998,-0.00565855857,0.0182223376,0.0110035567,0.00309984968,0.00952729583,-0.00630608108,0.00990769267,-0.0167819839,-0.00269284914,0.00626436202,0.0202725083,-0.000319149287,-0.00825788733,0.0118411873,-0.0237014648,0.00916842837,0.00200714124,0.00758431433,0.000899204751,0.0181493107,-0.0123397252,0.0152574275,0.02158821,0.0159540866,-0.0293671489,-0.00311534153,0.0149895903,-0.01250365,-0.00439722836,0.015606598,-0.00521216495,-0.00258872984,0.0246831272,-0.00120546483,0.0158425439,-0.0054718391,0.0085795112,0.00293419254,0.0109578026,0.00746726524,-0.00490402663,-0.0303942841,0.000516462896,-0.00804834161,-0.00582116377,-0.00289856107,-0.0145263728,-0.0027995361,-0.0258035474,-0.0121382512,0.00896399561,-0.000876799168,0.010465472,0.00183622667,0.0109581565,0.0114685819,0.00915102661,-0.0206699893,0.00646090321,0.00241600419,0.00774539728,0.00664772699,-0.019182153,0.00103820884,-0.0198284946,-0.0161256101,-0.00447655236,0.00358438562,0.00512978295,-0.000912371615,0.0190663263,0.00806075055,-0.00441479497,0.0104900599,0.0065389704,0.00102706417,0.0156736504,0.00547510106,0.0306767616,0.0112556461,0.00168426847,-0.00446608709,0.00123265688,0.00183318404,0.00194949401,0.0105322842,0.00421567261,0.00544667756,0.0174044054,-0.00674063293,0.00364691578,-0.0132448003,0.0177556612,0.0022020766,0.0112840934,-0.0107949907,0.000995575218,-0.00214168383,0.00634705368,-0.00302235945,0.0195590965,-0.0122365197,-0.0128448531,-0.0175487008,0.0132182101,0.0163581446,0.0178524628,0.0282835048,-0.011182175,-0.00736195082,0.0303964354,0.00794730615,0.00297147525,-0.0292077288,0.0146715827,-0.0141430655,-0.00830752216,-0.00384616479,-0.0120018329,0.00660478044,0.00672716694,-0.00436201738,0.00518298103,-0.00337863574,-0.0123882005,0.00252669258,0.0260503981,-0.0202056002,-0.0026351579,0.00598810054,0.00893247314,-0.0212039296,0.00776575599,0.01839073,0.0381572992,0.000352191302,-0.00429150742,0.00536986766,-0.00947302952,0.00381287723,0.00355988718,-0.00377847441,0.00320718787,0.0153483143,0.0142083699,-0.0137582617,0.0211782977,-0.00227738544,-0.00493359007,-0.00940498896,-0.00557289599,-0.00102528359,0.0123357829,0.00751944492,-0.00287715043,0.00599603215,0.00841475651,0.00389276957,-0.000986249885,-0.00797560718,-0.00263656443,0.00579025596,0.00504693855,-0.00134170277,-0.00702258525,0.00428642519,0.00304422807,-0.0105392588,-0.00525702117,-0.0112047363,-0.00714830915,0.00350504066,-0.0149518671,-0.00850410666,-0.0183794964,-0.00352749461,-0.00572901778,0.00656925188,-0.012143556,0.00593337836,0.0133824153,-0.00951018743,0.00372085674,0.00518821739,-0.00216336153,-0.00474538794,0.00920815021,-0.00885848328,0.0121507542,-0.00638006069,0.0107387397,0.00684104348,-0.0230691731,-0.00410742313,-0.0309520662,-0.00307806605,0.0111864787,0.00457298569,-0.0157692246,0.008178466,-0.00366696343,-0.000124349957,0.0104004676,0.00194956211,0.00101388537,0.00444833329,-0.00793082919,-0.0154559975,0.00588796102,0.00599862263,0.00314581231,0.0120186815,-0.00775499502,0.0104653286,-0.00354889617,-0.0105554648,-0.00378286745,-0.00676149363,0.0166820548,-0.0248515047,-0.0202769376,0.00523525709,-0.00532838888,0.00404022308,-0.000341965817,0.00366065791,-0.00622993661,0.0218727589,0.0249787271,0.000450401189,-0.0189168714,0.00967988744,-0.00655073626,0.00958319847,0.00433956413,-0.00268956111,0.0129749002,0.0172897447,0.0116905998,0.0127300713,0.00927718636,0.00150571624,0.00543090189,0.00998872146,-0.00511415955,0.00526622916,-0.0203770939,0.00208457187,0.0139914816,-0.0249665808,0.00894687604,-0.00217842404,0.00275487523,-0.00642733881,-0.00275935605,-0.00342257717,0.00571104791,0.00359546207,-0.00719326967,-0.0023759068,-0.0140978023,-0.0160768479,0.000846928684,-0.000311155512,0.0276086777,-0.00806079526,-0.000368712586,-0.00330199976,0.00503950333,-0.0193179213,0.00235849549,-0.00693867216,0.0151497377,-0.0214992296,-0.0199720003,0.00654292665,0.000989154563,-0.00245402288,-0.00692509348,-0.00729262456,-0.00504325796,0.0151258325,0.00808655657,-0.00615446037,0.00647678645,0.000821777503,0.00993152801,-0.0257775672,-0.0141809043,0.0265980624,0.00374532049,0.0194983985,-0.00174501794,0.00318345777,0.00795494672,0.012089462,0.00632068561,-0.00723232748,0.0122798979,0.00828539114,0.0339944772,0.00309334602,0.00229188357,0.00576946512,0.00133124646,0.013540701,0.00876537617,-0.0119919712,0.0190577004,-0.00903134234,-0.0123371463,0.0114020836,-0.00390027766,-0.00684144488,0.00594613282,-0.0104923872,-0.00555010838,0.0271577481,-0.00815371703,-0.01971424,0.00348151335,0.00320432591,-0.00487588253,-0.0124807144,-0.00911019184,0.0027872466,-0.300816059,0.00611474412,0.000228729798,-0.00482791848,0.00527284946,0.00457803532,-0.00302583235,0.00148336904,-0.0119919972,0.00251101656,-0.00702123437,0.00467419438,-0.0015864739,-0.0169183146,0.00576545112,-0.0136657543,-0.00143931038,0.00199442706,0.0046360814,0.0205347221,0.010459627,0.0113527551,-0.0148243839,0.00106790022,-0.0090490263,-0.00452632643,0.0195071138,-0.00176205195,0.0109666875,0.0375869833,0.0172612108,-0.00419839704,0.0211259741,0.0279234108,0.00766108185,0.00131406134,0.00303983944,0.00484046526,-0.00258561224,0.00979219377,0.00150253903,0.0184836034,-0.0132669192,-0.00677107507,-0.0119682774,0.0204641446,0.00247758813,-0.000493244035,-0.0109909382,-0.00808543339,-0.0105693815,0.00396861741,0.00940215681,-0.0072354381,0.00196858728,-0.0414534733,0.0139427977,-0.0333679393,0.0142399427,-0.00933558866,0.0186529811,0.000127461273,-0.00231882697,-0.00474226847,0.0118768094,-0.0320414305,-0.00188758923,-0.00558895897,-0.01829735,-0.0187636558,-0.0292660724,0.0102085685,0.0205877144,0.00649210159,0.00958209205,0.0294465423,0.00557779893,-0.00453745434,0.00358913373,-0.00496791396,-0.00652303966,-0.0071306671,-0.00663300185,0.0115365488,-0.000478296162,-0.00830189139,-0.0227135308,-0.0115232151,0.0199635252,-0.00304232165,-0.0236979909,6.90767338e-05,0.0053322739,0.00168273423,-0.00199292041,-0.00319919176,0.0104203634,-0.00799894426,0.00435896683,0.00950843748,0.004459674,0.00804157928,0.00600698404,0.0124447541,-0.00260701496,-0.0142464507,-0.00647466397,-0.0130791441,0.00186529139,-0.00441362849,-0.0037657849,0.0135807758,0.00870324485,0.0126104159,-0.000484863704,0.0169380326,0.00427895598,-0.0124557093,-0.000850415847,0.00885724928,-0.0123641845,0.000670647598,0.0211392809,0.00481621688,0.0023475897,0.0133694932,-0.0117947012,-0.00211039744,0.00238562096,0.0226035081,0.00209544972,0.0232214592,0.00666144397,0.0104924534,-0.0028453772,0.00236123125,0.00250899,0.00514854072,-0.00414068252,0.0233831313,0.0149527937,-0.00847748015,-0.00332701067,-0.0113069443,0.0134651856,-0.00845703669,-0.00610580202,0.00197059475,-0.0195598789,-0.00214457675,-0.0142295612,0.00483551994,-0.0202239119,0.00988083985,-0.00884609949,0.00251130154,-0.00742628286,-0.00502422871,-0.00480135623,-0.0167948399,0.00228997972,-0.00563865248,0.00660985755,0.0151517885,0.0105646309,-0.000954576186,0.00151470886,0.00199170411,0.0042818822,0.00883819722,0.010994507,0.00832389202,-0.00120289286,-0.000218860252,-0.000212349143,0.00783439446,0.0150506655,-0.0018408692,-0.0108066667,0.0126149142,0.00603923667,0.00470915111,-0.0164988078,0.0136089167,0.00269714999,0.00987059623,0.0128981173,-0.00405896781,-0.00365912123,0.00506469747,-0.0014933059,-0.00218409952,0.318978846,0.0105347987,-0.00212980784,-0.00844166521,0.0205779504,0.00168610341,0.00929421559,0.00243502785,-0.000295122038,0.0194107741,0.0192425158,-0.00200380152,-0.00214562821,0.0133542791,-0.0214702412,0.00430905074,-0.00354573387,0.00399685325,-0.00394569524,0.0160166472,-0.00681016408,-0.00124126964,-0.00356311188,0.00117629685,-0.0101171965,0.0219035521,0.00659540016,-0.698422432,-0.00141923467,0.00724246772,0.00192415586,-0.00697962241,0.017774038,0.00314601674,-0.00172097434,-0.0027870466,-0.0235785283,-0.0143185966,-0.0127462186,-0.0183832534,-0.00393283879,-0.0110649327,-0.00639096927,0.0289763194,-0.00309994491,-0.00345376879,0.000253969774,-0.0187961478,-0.00970478915,0.0052401009,-0.0131392684,-0.0181343071,-0.00695126038,-0.00968579762,-0.00772362668,-0.00182713906,-0.010245122,-0.00743693672,0.00489096809,0.00461902516,0.00708638364,0.00652758311,-0.00293953996,-0.0149707841,0.025372019,0.015748186,0.00563657098,-0.00545471208,0.0057749222,0.00248796307,0.00104290014,-0.00151849247,0.000939221005,0.000169597522,0.00593465893,0.00760644069,-0.0242993757,-0.000261973735,-0.0102855172,-0.0118762814,-0.00447524153,-0.00853376277,-0.00211206428,0.00048567247,0.0100577427,0.00228405232,-0.000712677778,-0.0168990809,-0.00960482657,-0.00822616182,0.00838662405,0.00798031129,-0.0213298537,0.00863128342,0.0045367023,0.00509331748,-0.0146631878,-0.00417302502,-0.0057161185,-0.00439709518,-0.000714757713,-0.0210472215,0.0285985079,-0.00498184515,-0.00131202058,-0.00908167474,0.00995105226,0.000531446945,0.0128216371,-0.0150649119,-0.0046567698,-0.00452562189,0.00639527105,-0.00197879877,-0.000788810372,0.00210198341,-0.0118606677,-0.0235641971,0.00358223403,-0.00438483153,0.00868410245,-0.0170117728,0.0102904122,-0.0108081987,0.00516422372,-0.0265970901,-0.0297586918,0.0275296159,0.00276254863,-0.00691698398,-0.00662664231,0.00103505899,0.00563694956,-0.00173493405,0.00450965157,-0.0166389067,0.0116105657,0.004808567,-0.00287824427,-0.00734260539,0.00205653883,-0.0252225436
e744a972-ace7-4566-b09a-7c89d11bc21e,0.0203675274,0.0288815126,0.00759252906,0.00799780432,0.348755479,0.0207742397,-0.00470787659,0.00539134257,-0.014911945,-0.0081304973,-0.0333470926,-0.0107299611,0.0297083575,-0.0208048653,0.0284359921,0.0068502659,0.0170363635,-0.00602180511,0.0127695827,-0.00163797173,0.0168574695,0.0324403532,0.00196429226,-0.000227617667,-0.0140684228,0.0196642186,0.0200917404,-0.00840237737,-0.0309435353,-0.00958810933,-0.0115958713,0.0396185555,0.00731278071,0.0433070399,0.00858799834,0.0104938475,-0.012057771,-0.00224487577,0.000816276297,-0.0131029133,-0.00253339414,6.61178492e-05,0.0294344071,-0.0264692493,0.0113373213,-0.0150839975,-0.00745922327,-0.00598159805,0.038229581,-0.0109073706,-0.00451127905,-0.0255306065,0.00704508321,0.00556313572,0.0114092277,-0.0132847521,-0.00641401345,0.0298544634,-0.0102732414,-0.00236626877,0.0273357537,-0.0231661666,0.00234447885,0.0151815601,-0.0263559874,-0.0120924059,-0.00228160457,0.00484312652,-0.0128704477,-0.0113682905,0.0648707375,-0.0201645438,0.00402683066,0.00462275557,0.0130637018,-0.0388206802,0.0167857688,0.00250352104,0.00384014985,0.0395172052,0.0403023809,0.0131294997,-0.0139484517,-0.0171040427,-0.00490604714,0.0208834428,-0.0195613522,-0.0151046747,0.00165569293,-0.0214300361,0.00611710828,0.0088615166,0.0209546182,0.00460528536,0.00190408109,-0.00350163644,0.0511695296,-0.00361206802,0.00215745834,-0.006908515,0.247906178,-0.00987534784,-0.0517399348,-0.0340196639,0.0335561745,-0.0064052185,0.0150120249,0.0111672962,-0.0154070696,0.0133773992,0.00851178821,-0.0159111768,0.0382978506,-0.0282521229,0.00665911986,-0.0433294475,-0.00506438827,-0.0243087001,0.00827095751,0.0193926264,-0.0344354212,0.00632077875,-0.0111554451,0.0412840657,0.0172207132,0.0086411126,-0.0353461318,0.0235280916,-0.010977596,-0.0061643892,-0.00358107686,0.00650104089,-0.0356543735,0.00447361218,0.0162624866,-0.0185707975,-0.0398683064,0.0176889673,0.0117966104,0.00615058048,0.0845275372,-0.0299387835,0.0201581735,-0.00940302946,0.0160191692,-0.00488660112,0.0276650768,0.00247131381,-0.0195610411,-0.0374274254,-0.00671303924,-0.0114426184,0.00884171668,-0.00402234821,0.0079972297,-0.011526674,-0.0368634053,0.014188204,-0.0300626885,0.0310545862,0.0191875212,-0.00872822292,0.00275605265,0.00205593416,0.00407155324,0.00635070028,-0.00721378997,0.00867068116,-0.00455033919,-0.00898749381,-0.0226369463,-0.00522673735,-0.000371788774,-0.0247177035,-0.0167907774,0.0204842966,-0.00895306654,-0.00172040728,0.0214443821,-0.0179092493,-0.0166749321,0.0129796667,-0.00349071482,-0.00666097971,-0.0126758609,0.0187473465,0.0289698076,0.00110056135,-0.0172235146,-0.00868522841,0.0194301419,-0.017898161,-0.0123699224,0.0158041772,0.0188198891,-0.0148654152,0.00607001735,0.0019190904,-0.0157911107,-0.0298475213,0.00700526638,-0.0375431441,-0.00648753345,0.0128138429,0.00727776159,-0.0226533115,0.0151878363,0.0257100314,-0.0111844633,0.00110780017,0.0392616317,0.0232226104,0.0107395221,0.0336710401,-0.002633153,0.0200030971,-0.0304532368,0.021111086,0.00484474516,0.0322103761,0.00952851586,-0.00968695339,-0.0104280543,-0.0152038084,0.0341896787,-0.0189298764,-0.00727730058,-0.00961514097,-0.00344233075,-0.00565869221,-0.00432546996,-0.00479761371,-0.0102355825,0.0118729379,0.0469378456,-0.00520668458,0.0110518346,0.010565931,-0.0136229172,-0.00979796797,-0.0432555601,0.0502090044,0.0251367278,0.0131674204,-0.0180208776,-0.00160686474,-0.00237125019,-0.0241691545,0.0166310705,-0.0121307895,-0.00037532291,0.0292623844,0.0452629179,0.00881971605,-0.00478381244,0.00125942356,-0.0017494522,-0.0144003611,-0.0296553839,0.00390979974,0.0347383581,-0.0201066453,0.00397462305,-0.00717964256,-0.00886653457,0.0333660692,0.0177828595,0.00649142405,0.00324885943,-0.0173799805,0.0186414793,-0.0147147384,0.00268722582,-0.0283800755,0.0297069158,-0.0337760486,0.0275176447,0.00186517381,-0.00944095571,0.00441388134,0.0288334936,-0.0238136109,-0.023776006,-0.0129719898,-0.000759525341,0.0108843781,-0.022349773,0.00696254894,0.0101944758,-0.0258409083,-0.0136800893,0.0158989411,0.002901108,-0.00250847242,0.0182603523,-0.00198680349,0.0323301479,0.0180692859,0.00961149391,0.010361379,-0.0311137643,0.00145972357,-0.0317315981,0.00383674772,0.00131487392,-0.0102792308,-0.000593158882,0.00953349378,0.0143915908,-0.00375071494,0.00540735852,-0.00203007669,-0.0323734693,-0.00134273292,0.0142489402,-0.0253480952,-0.0142900348,5.74304977e-05,0.00569688017,0.0407433324,-0.00304073351,0.0217370093,-0.0134410728,0.00158291473,0.00551585574,-0.0155261829,0.000267094874,-0.0380479433,-0.0118983835,0.0205361191,0.0337571353,0.0361639187,0.00309445732,-0.000224569274,-0.00114286435,0.0215852614,0.0141918538,-0.0083914632,-0.0177941937,-0.0211497042,-0.00556604099,0.013811511,-0.00157489197,-0.0129436776,0.0144493328,0.0259078592,-0.00170859613,0.0381266326,-0.0142679876,-0.0279813409,0.0194524713,-0.0154545978,0.00134208379,-0.00736484537,-0.0428881273,0.0220255367,0.0338455699,-0.0445796102,0.0109294886,-0.0134924436,-0.0166782513,0.0175819751,-0.0267081559,-0.00463880133,-0.00159590738,0.00927622523,0.0120680407,-0.0315655656,-0.0197890848,-0.0212168731,0.0281551424,-0.0154243018,0.0184505656,0.00481099589,0.0105350753,0.00946267415,-0.0207608137,-0.00982915796,0.00460259151,0.0131675946,0.0385846235,0.00563419238,-0.0215148311,0.00224071788,0.0239225328,0.0135231605,0.0233257785,-0.00452532899,0.00263715978,-0.0125793749,0.0195994191,0.00712073455,0.0192501191,0.0259082783,-0.0113681685,-0.0118520735,-0.0264998898,0.0359455273,0.00743621076,0.0184307881,-0.0463021435,0.0353952758,-0.0154734487,0.0161405914,0.022171583,0.0095498981,0.024991395,0.0356516019,0.0320419036,-0.0363565609,0.0202909075,-0.00421671569,0.0283774398,0.0105597684,0.0278772917,-0.0111880479,0.0386428572,0.0120534459,-0.00412135152,0.0162029825,0.0111346664,-0.0200695042,0.0236088447,0.00475446833,0.00617912272,0.0746159181,-0.0225484576,-0.0261256937,-0.0028850066,-0.00506416848,-0.00432542851,0.0183022991,0.00313692866,0.012761429,-0.291625559,-0.0233686753,0.0102470629,0.00389047852,-0.00964828115,0.0118498253,0.0272449832,0.0220220089,0.00295927259,0.0159563944,-0.000600003172,0.00976369902,0.0202455427,0.00737187639,-0.0157220643,-0.0427200124,0.00215928443,-0.00866529811,0.0182367563,0.000579034328,0.01366995,0.0228311364,0.00747791352,0.00275571132,0.00283599272,0.0283056069,0.0440562293,0.00284550642,0.00344322622,0.0508846678,0.014153189,-0.00060786854,-0.00146395364,-0.0104843173,-0.0169528257,0.0152658653,0.00878658053,0.0223533604,0.0147626493,0.0045477692,0.0114427619,0.0438038372,0.00530892937,-0.00502397306,0.0249069836,0.0166370813,-0.0108533939,0.00241212966,0.00452965777,-0.00910828169,-0.0169332623,-0.00978615135,0.0298706442,0.0036071816,-0.0369937718,-0.0700289384,-0.00261541782,-0.0110512739,-0.00647046603,-0.0144389095,0.0173847098,-0.0223116577,-0.0108392797,-0.00557133509,0.0147521757,-0.0424381681,0.00363528333,-0.0203437582,-0.00490616588,-0.0162391532,0.0217570737,0.00496527925,0.00687505491,-0.0250934679,0.0148977432,0.0333021991,-0.0318308175,0.0107199429,-0.019913502,-0.00165454403,-0.0267151408,-0.03205055,-0.0240120832,0.0155847352,-0.00287569175,0.0209600069,0.000381031743,-0.066329293,0.021624364,-0.0148228053,-0.0231460538,0.00202458841,0.00638521649,-0.0384106226,-0.00310534704,-0.027809253,-0.0311760604,0.0201054309,-0.00378017034,-0.00137673679,0.0233779885,0.00864176825,-0.00715220487,-0.00416944781,-0.012178679,0.0125563815,-0.0033349439,-0.0110660484,-0.0210015122,-0.036132358,0.0388587378,0.00974936876,-0.0139482124,0.0106188767,-0.0103952251,0.0240700766,0.010164856,-0.023358196,-0.0148956887,-0.0363586172,0.010592062,-0.00412102044,0.0142295351,0.0148085169,-0.0248998348,0.00969975349,-0.0107347844,-0.00102706195,0.0276465826,0.00403482188,-0.0246158037,0.030735638,0.00536343455,-0.0407882184,0.0105968378,0.00530217681,-0.0187204424,-0.0234407187,-0.0112318434,0.0150484247,-0.0162434932,-0.0161250364,0.00884543452,0.019741524,-0.01370194,0.00123847183,-0.0193294883,0.00579125946,-0.0432868004,-0.00165311282,0.0105068535,0.00633451063,-0.0327785201,-0.00846168585,-0.0287055559,0.00456546526,-0.0357259512,-0.017115945,-0.00447709346,-0.0142017771,-0.000282955851,0.0181396808,-0.0199633818,0.0255561005,0.00666236505,0.0225143824,0.00390818296,-0.00059832487,-0.00811068434,-0.00858952384,0.0172416288,0.00793738477,-0.0173524432,0.0263135508,-0.0277177449,-0.0135200247,0.034007594,-0.00338330236,0.00597316772,0.0174029823,-0.0019834952,0.0269129593,0.00359950331,0.0135149695,0.00537543511,0.00160562166,0.0238288138,0.0384961478,0.0234787352,-0.0122653181,-0.00799087714,-0.0259575397,0.317813575,0.0179132577,0.0120636094,0.00516511407,0.0285525825,0.0138182193,0.0112440707,-0.00336703123,0.0157315768,-0.00872000959,0.00923891831,0.0267801788,0.00602526497,0.00430591544,0.0239770636,-0.00700206123,-0.0177240148,0.0236114636,-0.0109053431,0.0121475104,0.00482617831,0.000657765777,-0.00178563595,-0.00929861516,-0.0280179195,-0.00569280703,-0.01926893,-0.574458957,-0.0237582009,-0.00166432781,-0.0125551876,0.00184615853,0.00539369974,0.0250828341,0.025876198,0.00390798831,-0.0235482398,-0.0486573353,-0.0167742521,0.0117395865,-0.0125419134,-0.00726252282,-0.0108868871,0.0490324013,-0.0198895335,0.0171891414,0.0129059991,-0.0132831801,-0.0088926591,0.00853032712,-0.00414403016,0.0256259684,0.0148338089,0.0132342922,-0.00219303044,-0.0140863229,-0.0387339741,0.0189633165,0.00627110479,0.00546002481,0.00902641565,0.000615018362,-0.0169194415,-0.0144368587,-0.0129337087,0.00345664355,-0.00908769667,0.0127354804,-0.00533163734,-0.0241831597,0.01216242,0.0201797839,-0.0282902587,0.00402070722,-0.0014980213,-0.00436566724,-0.0189470965,0.00940997154,-0.0402223021,0.0163529459,-0.0125251561,-0.00853555277,0.00503013749,0.0242619477,0.0235779118,-0.00673101237,-0.0134903239,-0.0369650573,-0.0338352583,0.00866842549,0.00581996469,-0.00144523964,-0.0276674293,0.0124275992,0.00553993834,0.000690360728,-0.010543216,-0.000488119345,-0.021550769,-0.0136876581,-0.0190146528,-0.010715276,0.0475512594,-0.0078043309,-0.00706726266,-0.0156685337,-0.00870072749,-0.0166470055,0.00234227232,-0.0105136102,0.0089886114,-0.00352090294,-0.0143637052,0.00462971441,0.00151458639,-0.0119781466,0.00150318234,-0.0195192862,-0.00580950407,0.010109717,-0.00653873384,-0.01290817,-0.00628748769,0.020440422,-0.00462767063,-0.00143856718,0.00920812506,-0.0232357997,0.00316334772,0.0527319126,0.0185589883,0.0296272505,-0.00496779615,-0.0370786116,0.0122317877,-0.0413551703,-0.00633881148,0.0039512068,-0.0213422514,0.0142934099,0.014140253,-0.0379019603
8eeca29a-988d-4fa3-af73-32067ca27358,0.00382549432,-0.00556117436,0.00145463482,0.00447940687,0.389090866,0.0146480212,0.00595422415,-0.000109813947,-0.00210863305,-0.00719608087,-0.00755776744,-0.0115876328,0.0245662704,-0.0140348924,-0.00776351383,0.00769289071,0.00472550001,-0.000578511332,-0.00412090262,-0.00729707116,-0.0045949365,0.0221235119,0.00573589094,0.00386217982,0.00372749707,0.0110426918,0.00626621721,0.00535193598,0.00387608539,-0.00526985386,-0.00691693509,-0.0106852986,-0.00120664027,0.0231860988,-0.00367862126,0.0145523371,-0.00322810258,-0.0213597789,0.00592656573,-0.017346466,-0.00287921517,-0.00949838758,0.000708107953,-0.0179980695,0.00367316208,0.0111915395,0.000822512142,0.000540625479,0.0102048134,-0.0186794456,0.00398953585,0.00814164709,-0.0157950353,-0.011343725,0.00875620358,-0.00839499943,-0.00677788118,0.00379050151,-0.00538931927,-0.00124401564,0.0195287466,0.00589902326,-0.0189523771,0.000601108361,0.00913639832,-0.0033661169,-0.00975820608,0.00250333035,-0.00200641877,-0.0059897569,0.0340873227,-0.022523202,-0.0152784111,-0.0107183866,-0.0122556593,-0.0172826294,0.0143484976,0.0108076772,0.00372227491,0.00615936844,0.00850414764,0.00183083524,-0.0176145677,0.00294607272,-0.00393683463,0.0126803871,0.00612002658,0.00105797441,0.00203069765,-0.00555012515,0.00712348986,-0.00302383793,-0.0100424914,-0.00796041545,-0.00048311986,0.00128493423,0.00629997347,0.00443417812,0.00792238954,0.0119441915,0.240859538,-0.00340100331,-0.00939258281,0.00565667963,0.00800714921,-0.00733526144,0.00196800893,-0.00219910662,0.00152491243,0.00516042672,0.00711783022,0.0105660921,0.0105038015,0.000775106775,0.00229944312,-0.00791708939,0.00232763658,0.00636735326,0.00982492883,-0.00487801246,-0.00272127497,0.00106601522,-0.0241607148,0.0173979979,0.00711535104,0.0168855563,-0.00680649374,0.0140915392,-0.0049833036,0.00668348372,0.017093312,0.0204792283,-0.0131696435,0.00133181503,0.012998105,-0.00781034492,-0.00564668654,0.00317011354,0.00817643199,-0.0182719268,0.0193446428,0.00145604019,0.0246034544,0.00104015088,-0.00481881713,0.00220772927,0.00625826512,0.0025067532,-0.0057248082,-0.0254808031,-0.00400854927,0.00361511274,-0.0133178495,-0.00843025092,-0.0032312707,-0.000916876423,-0.0194729511,-0.0201520585,0.0087423753,0.000481877156,0.00135520869,0.00728290807,0.00929117668,0.0222421642,0.00507405307,-0.028063938,-0.00241902657,-0.0018187745,0.00582531327,0.0123050269,-0.00916539878,-0.00792069081,-0.0154643981,-0.0150008379,-0.00164297968,-0.000193633095,0.0090526389,-0.00580564095,0.0242683589,-0.00531936018,-0.0012924769,0.0116235856,0.00546810636,-0.00380009296,0.0135302339,0.00308868522,0.0352679342,0.0147622228,-0.00767783262,0.00199997076,-0.000469116552,0.00991366897,0.0150006916,0.00287417741,0.00726354541,-0.0130730905,0.0157519113,-0.00442084763,0.0130890952,-0.0197946597,0.020997785,0.00572582334,0.00356945023,-0.00783159956,0.0187315661,0.00157625566,-0.0122701814,-0.0104778614,0.00773595832,-0.00926776137,-0.0229743943,-0.0246805307,0.0164981522,0.00300193671,0.0212258529,0.0203537308,-0.010569348,0.00203056191,0.0303241927,-0.00256607449,0.0137306545,-0.0214955695,0.00877547078,-0.00796342175,-0.00564371655,-0.0040306123,-0.0176189933,0.00276638125,0.00915751606,-0.00753448112,0.0208897032,-0.0120604215,-0.0177335069,0.0110116601,0.0202877279,-0.0119486479,0.00159124145,0.00155500439,0.0192575157,-0.0325353667,0.0106641566,0.0135748424,0.0313733444,-0.00333786802,0.00831433386,-0.00122959726,0.0164102223,0.00445324183,-0.00283883698,-0.00376138999,0.00745178945,0.0103531526,0.00571893062,-0.00945698563,0.0165592358,0.00469334936,-0.00313615194,-0.00811269972,-0.00310553191,0.0033403663,0.0087272888,0.0059046573,-0.00334487064,-0.00116288289,0.011093853,0.000599881459,0.0143390726,-0.00349274743,0.00179725594,0.00606415281,0.00410662405,-0.000477623253,-0.019035954,0.00350011163,0.00657241745,-0.00610674918,-0.014993256,-0.00427335454,0.00386648416,0.00419436814,-0.012955877,-0.00254053599,-0.0091974074,-0.00529276021,-0.000924052205,-0.00183417171,-0.0063320077,0.00191876676,0.00265231449,-0.00248506386,0.0030936657,0.00034435399,0.00525406655,-0.00652593048,0.0151284328,-0.0164248161,0.0104871169,-0.0063538095,0.00912843831,-0.00398324197,-0.0172822084,-0.00701590767,-0.0227768347,0.0116693731,0.0276315063,0.00888625998,-0.0165668279,-0.00296549359,-0.0094113294,0.00278465776,0.00998119544,0.00571709732,0.00555432914,0.00893621333,-0.00898172986,-0.00353505812,0.00509157171,0.00768740708,-0.00520235347,-0.0155627159,0.00323156826,0.0144719481,-0.00306789088,-0.00699555501,-0.00747467438,0.00369196432,0.00566093018,-0.0089983521,-0.015075176,0.0121297371,-0.000531167607,0.0101016844,0.000803066068,0.012357479,-0.0113037406,0.0154860802,0.0166392457,-0.0148671689,-0.0132110752,0.000107942149,0.00485415291,0.000357022043,0.00480612926,-0.00818228163,0.0118400399,0.0170585532,0.0141647924,0.0091273468,0.0162011255,0.0080091469,0.0068824389,0.0134989098,-0.00412992062,0.00405289466,-0.0158772357,0.00279732794,0.00974951033,-0.00312295253,0.0151787112,-0.00252448465,0.00581023144,-0.0109565593,-0.00104216812,-0.00714086089,0.00464834739,-0.00256399042,0.00320764794,0.000516282744,0.000358405028,-0.00400763657,-0.00182372367,-0.0010087454,0.0141167007,-0.00636074692,-0.00440639956,-0.00443176413,0.00686434144,-0.00630297698,0.00248108967,-0.00322877103,0.00624857005,-0.0119504873,-0.0167052913,-0.00324778631,-0.00287940702,-0.00554535072,0.000304235349,-0.00912402663,-0.000865451817,0.0143944994,0.00725763757,0.00206605881,-0.0138073936,-0.00996907521,0.0027038008,-0.0176698063,-0.0174356885,0.0167439654,0.00405485043,-0.001007688,0.00746030733,0.0184671637,-0.000806947821,0.0153069384,0.00845918711,-0.00403761584,0.0160842203,0.000990957487,0.0399288423,-0.000528071832,-0.00786449667,0.000884316862,0.0128161274,0.0156107731,0.00193325523,-0.0150956204,0.00751423137,-0.00413072528,-0.00902071223,0.0164074376,0.000281275716,0.000268673612,0.0193333551,-0.000362024846,-0.00609641802,0.0120878462,-0.000102386963,-0.0155178085,0.00836189277,-0.0058849738,0.00721443538,-0.00456332508,-0.00446125725,0.00305177947,-0.300678402,-0.002932064,-0.00899496302,-0.00434083864,0.0129769715,0.00247160112,-0.0012094311,0.0177243128,0.00656213984,-0.00175939151,-0.004532733,-0.000339097634,-0.0124211619,-0.0120959608,-0.0113690393,-0.0134115694,-0.00808950234,-0.00617354829,0.00166063907,0.0171289109,0.00373015413,0.00628611492,-0.00759465899,0.0133827478,-0.00849792175,-0.00423757592,0.00736776879,-0.00143942412,0.0253880452,0.0293703135,0.00585182011,-0.00746386265,0.0155101316,0.0154189337,0.00926105585,0.0111081582,0.0135215959,-0.0134374332,-0.013999748,-0.00427196501,0.00559983263,0.0161064621,-0.0113188839,-0.00608177343,-0.00425416976,0.0154843992,-0.00270084711,0.00446990365,-0.0159765985,-0.0121604223,-0.0240369812,-0.00534573058,0.00274709077,-0.00162764709,0.000456536218,-0.0336545631,0.00835346989,-0.0283155497,0.015671527,-0.0152561134,0.0153733483,0.00371197052,-0.00304953242,-0.00727091543,0.00953373406,-0.00955621805,-0.00384017895,0.00355701079,-0.0180257224,-0.0095617203,-0.0390087031,0.00170402159,0.0164923687,0.000803842559,0.00692636287,0.0259086061,-0.00206029648,-0.00328762038,0.00121791044,-0.0119425002,-0.0103863636,-0.00561952824,-0.0163036864,0.0176275857,0.00396253169,-0.00450748857,-0.00285982853,0.00897748768,0.024994649,0.00367449201,-0.0225437917,-0.00499999011,-0.00594982179,9.04140106e-05,-0.0127210747,0.00245957659,0.0158721916,-0.0130294906,0.00234320527,0.00518042548,-0.00595084997,-0.00531678135,0.000503473566,0.00192035967,0.00196601544,-0.017206803,-0.00239751046,-0.0193313658,0.0111697232,0.00167547981,0.000207287958,0.014879114,0.0133594833,0.00851714797,-0.00570499105,0.0196420159,-0.000482522184,-0.0109866876,0.0112461522,-0.00305620325,-0.0108615262,0.0111340201,0.0144687397,0.0109143071,-0.00610407908,0.00143141719,-0.00827033725,0.0037754178,-0.00485998113,0.0172260925,-0.00680276565,0.0250085127,0.0116251437,-0.00189656799,-0.00284295832,-0.00347982766,-6.30027207e-05,0.0150763178,0.00194728887,0.0162913781,0.0240539797,-0.0069569638,-0.0175427683,-0.00154307892,0.0124592455,0.000729863124,-0.0113506597,-0.00179982476,-0.0168953724,0.00895094965,-0.015403945,0.00621500704,-2.17008183e-05,0.00745516131,-0.00772191677,0.00144003599,0.0161286164,0.00612866832,0.00858467072,-0.00768676912,-0.00655967416,-0.00968372822,0.00564073632,0.00538345473,0.0206324998,0.00448580133,0.00593970809,-0.00610138429,-0.00730025116,0.013784064,0.00225496641,0.0151591934,-0.00893214997,-0.0103249075,-0.0108610829,0.0176943876,0.0134369042,-0.00979707111,-0.038946718,0.0178290382,0.0191515908,0.00868018251,-0.0242665932,-0.00434821891,0.00843909662,0.0118141994,0.00819118507,-0.00917753484,0.00373904011,0.0109003661,-0.0104294922,0.0033826388,0.320678055,0.00777657609,0.00623285631,-0.00719446922,0.016005557,-0.00684169587,0.0100777214,-0.00641331077,-0.00482098525,0.0129141752,0.0244768839,-0.019472383,0.00652385689,0.0199247953,-0.00839579105,0.000204331867,0.00430110749,0.00656517036,0.00441197632,0.0210433267,-0.000338145444,-0.0133887623,-0.00542110903,-0.0127198966,-0.0101513211,0.0311335195,0.008144903,-0.704986453,-0.000608791015,-0.00338701741,0.00740181096,-0.00257763965,0.00896103494,0.000789865968,-0.0157163069,0.0123948688,-0.035207212,-0.00474909227,-0.0114378566,-0.0106743472,-0.0043802429,-0.00483391481,-0.0180862509,0.0117009347,0.00554282451,-0.00888008717,-0.00193328864,-0.0120912399,-0.00731198676,0.00813468359,-0.00893417187,-0.0163273141,-0.010170076,-0.00390198687,-0.00496048992,0.00417933939,-0.00876632519,-0.019948408,-0.000313226366,-0.000223394934,0.00143352617,0.00817707554,-0.00303909555,-0.00181548984,0.0390208811,0.0106625641,-0.00336899515,-0.0126026869,0.0154819861,0.00309315952,-0.00132178748,-0.0152952187,0.00702959672,-0.00341882673,0.00460368209,0.00652614515,-0.0166112017,-0.0129625099,-0.013356558,-0.0101571213,0.00227910327,-0.0086803576,-0.00557189062,0.00717172911,0.00610064855,0.00145049801,0.010864527,-0.0128493244,-0.014209873,-0.0220241528,-0.00657660421,0.00829748251,-0.0137027707,0.0172025207,0.009516472,-0.000905886991,-0.0230865087,0.00189248077,0.00124222075,-0.00809993874,-0.00782645401,-0.0177033506,0.0210209135,-0.000552039361,-0.00310333166,-0.00915298611,-0.00495149288,0.00390369492,0.0136591773,-0.00798317883,-0.00544539792,-0.011615511,0.00607932219,0.00989069417,-0.0111373626,0.00368763693,-0.0110417036,-0.0177659132,0.00560752442,-0.00932226982,0.00457266625,-0.0192190669,0.00825610384,-0.00616198871,-0.00214675837,-0.00420851167,-0.0297832228,0.0418978892,0.00548494607,-0.0202190802,0.00610088743,0.0123688979,0.0130913192,-0.00377611956,0.00106144033,-0.0075693531,0.00318713649,0.00623894343,-0.00309890392,-0.0035195956,0.00513466215,-0.0121821864
